encog,BasicNetwork,java,3.3.0,1,1510414779564
[BASIC]
[BASIC:PARAMS]
[BASIC:NETWORK]
beginTraining=0
connectionLimit=0
contextTargetOffset=0,0,0
contextTargetSize=0,0,0
endTraining=2
hasContext=f
inputCount=259
layerCounts=27,51,260
layerFeedCounts=26,50,259
layerContextCount=0,0,0
layerIndex=0,27,78
output=0.0012757619,0.0014215862,0.0003558753,0.0111824481,0.0010764323,0.0004965843,0.0003366794,0.0034957266,0.0006071591,0.999241126,0.0000998526,0.0008216873,0.0000860891,0.0136633956,0.0184380984,0.0003669007,0.0004764152,0.0005707688,0.0031647144,0.0012348353,0.0001035251,0.0149045567,0.0001461974,0.0002189781,0.0036701397,0.0001044205,1,0.998063164,0.0116364681,0.9903355235,0.9982936249,0.9941481923,0.00928119,0.0049737064,0.0268261417,0.9959118903,0.9945586841,0.0063337497,0.9898247255,0.9992470275,0.9995467915,0.987289481,0.0021245046,0.0041554604,0.9963518487,0.9873373549,0.0079516352,0.9990091299,0.9838211499,0.9848207484,0.9982084839,0.008886103,0.002354665,0.000883595,0.0452862921,0.0068423945,0.0007890172,0.9963962643,0.9989514194,0.1099202592,0.004416254,0.6419415621,0.9706699075,0.0242139753,0.9956483624,0.0076255714,0.0064042882,0.0295967863,0.0076032185,0.0035354857,0.0292285429,0.9956680466,0.9909029251,0.0023347014,0.0030061185,0.0040029092,0.9934638328,1,0,4,4,4,4,4,3,4,4,4,4,5,4,4,4,3,3,3,4,4,4,4,16,19,21,17,15,12,11,10,9,8,8,9,8,8,8,9,9,8,8,9,8,7,7,7,7,7,7,6,6,7,8,8,9,10,11,12,14,16,26,22,20,0,0,0,0,0,0,0,0,0,0,0,0,0,0,0,0,14,21,25,18,16,12,12,11,10,8,9,11,9,8,9,7,6,6,6,6,6,6,9,12,19,23,30,39,43,45,39,25,5,3,0,0,0,0,0,0,0,0,0,0,0,0,0,0,0,0,0,0,0,0,0,0,0,0,0,0,0,0,0,0,0,0,0,0,0,0,0,0,0,1,3,4,5,6,5,5,5,5,5,5,5,4,5,4,4,4,4,5,5,5,6,7,8,9,10,11,9,7,7,8,8,8,7,8,8,9,8,8,7,7,8,7,7,7,5,6,7,8,7,7,7,5,6,6,6,7,6,7,6,6,6,6,6,5,6,6,6,6,7,7,8,10,14,13,12,9,8,7,1,0,0,0,0,0,0,0,0,0,0,0,0,0,0,0,0,0,0,0,0,0,0,0,58,161,148,161,1
outputCount=26
weightIndex=0,1326,14326
weights=##0
##double#14326
   -0.7087897349,0.429732617,-21.9674629193,5.207938822,0.1892055677,10.781033226,-318.8697251979,-341.6170086317,0.1750671895,9.3684418687,-4.665029343,-9.6078753584,0.8511015794,-0.3449009779,0.1789761916,-52.7204830646,3.8289769826,-0.5743545756,-12.5325393713,7.9827315016,-0.0351827768,-10.3104979142,0.5252236248,-334.7634173098,-120.2282790611,-0.5187600353,-3838.4820363827,-2.2552194871,5.1601845582,-148.9856780948,-0.3988944064,-0.1528969851,0.3909898468,9.1560155266,0.1410336597,3.8876286209,-150.8285932163,-0.240359691,-1.6991375631,-2.1606475338,-1.0104456279,-0.6027823775,-1.0063369842,0.8465470014,0.0051380454,-0.6003109709,-67.0398324659,4.48604529,12.6628447154,-0.6242949787,-0.550523667,0.3556310153,-0.3737530407,-147.6631400673,0.0890270398,-1.330145023,3.3864158631,-0.6720663361,-29.3848870451,-0.0612924595,2.4800373183,2.0205123269,-225.2437290555,0.4578733328,0.1155176417,-0.4720723601,-0.8334237659,-4.4866557313,-0.063651734,-1.0503686755,-13.5337358938,-0.9392087753,2.0369572924,4.1142823767,39.3704477175,-2.1315939366,-386.5018312318,-35.7097090219,-0.5156824071,6.0030403982,0.2410600897,0.8724055514,0.0046696418,0.2177347452,-0.2655991964,-198.8499451398,109.1867299974,-174.1075836216,-0.1068866695,0.8743152352,-1.0280521877,0.3102994956,-0.728164949,-3.2190552172,1.1815399034,-0.119502733,0.4313469409,-4.5526353092,-11.692967435,-2.132386254,0.644885058,-0.4906813634,0.5526916033,0.7015606482,-4.8915220045,1.007296694,-0.2380466182,-83.6681767037,-0.0143331919,39.0930484974,-0.7073015967,-250.6948130455,-1.103009261,-0.3427935081,0.1285407467,-0.188072858,0.3011921316,-3.4245154012,-44.58421751,-0.6307844519,-1300.5608184434,-2546.700394917,0.4538806235,1.0520304087,-0.6325973616,-0.1591684574,-13.6773669299,-1.9843940016,38.7427058287,-0.2168550799,-44.740494374,-84.4528799036,-0.3482740675,3.7512354426,10.5782503503,13.5281761036,2.9880834298,142.0112496116,-0.7418418789,0.0217344568,-3.8705398966,-1.2083235863,0.1196005146,0.244252021,-6.5449622734,0.6733779015,0.4181673646,8.8186971441,-612.0822163836,8.2756073769,10.4345019325,2.2388310856,-0.0398725492,0.9891000047,-0.1360107895,4.5066837914,1.0553337834,-1.3919679638,-148.87047172,0.9612155785,-1.3101314745,0.2685252794,8.1246102795,-2.8686704004,-2.8994416454,-0.0755700327,-2.4895390206,-3.9836318891,-223.5008415105,-129.8451322158,-0.1257644051,-2.9159928324,-492.658857952,1.2762925454,1.3779024841,-0.8176132823,1.4856866025,0.7386067102,-1.5151855482,-1456.9424605627,-0.5075088395,-38.9543703025,-17.9637072622,-0.3478521022,-0.2570461741,-0.1999192752,0.1914396507,0.3889620474,-36.9930249009,-208.5854515463,-0.5738357697,1.2753449067,-3.6346078671,-0.4805324845,-5.6206061764,-0.4811257282,-3.8163300208,-0.6420198582,0.1839999892,-6.2115309917,-60.1991010792,-1932.4735557555,10.5302109634,-0.151186192,-1.1015882206,-0.6282885634,0.9644366349,-0.7582397688,0.9430350751,-16.4854273,3.3092904402,21.2423345818,-0.3821105255,0.9535100682,-1.8112208648,-1.7403333707,-0.0242067092,-1.1822608225,0.1656847591,-1412.8574240055,8.5103898634,-0.2410152684,-16.2228793,9.8054388772,0.1259201429,-461.6902590946,0.6328082548,-4.5008511026,-29.6861537279,-49.904545081,5.1896445285,-0.7421301387,-650.526915832,-2282.9070717388,0.7328674203,-0.1341787696,-2.4660082411,-87.8271113146,-0.4449682675,37.3627706247,3.6542132022,0.2513904056,-1909.0236021737,-61.5312460309,0.0296134286,0.8467393731,-95.2259030062,10.6041504521,-0.9128374985,0.1065695025,-29.483883408,34.3149649731,5.3734197257,2.1362545988,-0.639201398,-6.6611909986,-0.471369899,-0.0088127374,0.100682103,0.5277664661,-1.9900436764,-0.3292269822,0.5151534069,-0.9760486318,-8.0111256211,0.0582664007,6.3828220012,0.3635453257,0.7617315675,0.5972633579,-27.4083706637,-1.4220176994,17.0206106774,1.4042102701,1.0684002451,-0.1628251574,-59.9511195963,21.0695586132,-1003.4789687649,1.3503109782,22.90202868,-4.6759103294,-0.2593874429,-4.1896467044,1.129212023,0.3022857395,-0.6687022325,-21.8688539358,0.4482410906,-34.5201859885,77.7277173447,0.0433067256,-20.3345977094,1.0101421168,-69.7700127795,-53.9312759918,-7.0106184462,-2.444484256,0.7255198193,-0.87961494,-0.5044023697,11.0939811032,-543.0973366231,10.879832563,-1.45535471,-0.9777030905,-0.2005892993,1.5184004266,-1.7676497774,-0.3405573506,-0.4177749852,0.3570392124,0.5789126264,-66.6742376981,-0.7750194174,1.5074726684,-697.0424772585,-0.8003647504,-0.0251290654,0.5815015466,0.901293251,-6.8502939122,3.5708649674,0.0975745186,0.2658185811,2.3711602114,-0.446097381,-715.2505406144,-19.8304945153,2.6499770307,-11.1855603857,3.7808955761,0.4593308197,0.6788735726,-6.1545575962,-1.213614654,-0.4701016207,-0.6196910173,-2.7264602443,6.9192950569,-1173.3315770652,-1.5579076725,-0.2996997325,0.874303471,-16.5799966,-10.1195393891,-3.1174947457,-0.5111985991,-3.4232679934,1.8874638058,-0.3933200277,-0.1148937705,-35.1027558712,-3.0276281158,-4.3134634347,0.2952193236,-0.0748791442,0.5271739875,0.046639052,-95.7371107259,-1.687861443,-0.4643799334,0.5285485149,0.0562907115,7.96066373,-0.3045018873,1.3342405311,-5.4489834939,2.7359692854,0.5245519702,0.5085642795,-5.291738898,4.0382695691,6.629475216,-0.8870281246,-0.2862344603,2.7210830863,-0.265693837,1.8663304156,-7.8982204757,5.1830343246,2.8105353312,-1.0753338449,10.0945522614,0.3977790708,-12.405446861,-29.2900393115,0.1463603825,0.2473885455,1.3377245667,-7.5195841781,-1.5123278459,-31.7191021548,-490.5359352378,0.0526887142,0.0288701756,42.9303118757,-1.7480559691,-1.1585827434,-1.4710490288,1.9677861487,-0.6564232938,0.6650595693,-59.0698841562,-19.2705581654,3.6702674587,-0.324114383,0.1860306186,-0.5375747188,0.0063466972,2.9240266493,-0.1561576074,0.0484827096,0.5843197921,0.5654497826,1.7058087625,-0.5616767551,1.2989728821,1.5851646924,-0.6622526138,-0.1126517594,0.2924476923,-9.7155197363,-0.2375871736,-32.4950946912,-8.8012678068,5.4082042805,-22.6367260038,0.1976107541,-12.4967706158,-6.5524760071,-555.5549884894,2.6800769696,7.7439958702,52.8059612219,-0.0601745248,-22.4789169928,23.4603534244,-0.6599469301,0.1494857237,3.2888685723,0.3944572083,-77.7058968845,-175.5294200103,-0.924669412,-0.1209468616,3.506241145,-100.6200377962,-506.7064607086,-2.6851535647,0.6963531232,0.293004684,-1.4374477157,0.2940910047,4.9877629036,39.1760983087,-0.8050768069,-1.9465543326,0.5393650669,-0.4780759689,-0.8083623332,4.4368409715,0.3828665756,0.4259282049,-1608.2109127602,-86.7803917614,230.2299284377,0.4761427722,29.7462532988,-275.7114829054,53.1700971378,0.8613355068,-0.8871448974,106.1777087274,0.4887494212,-1376.857531818,-0.2450774999,-176.0262599569,-148.7429452847,0.1045657732,1.6833852053,-53.8466526062,1.3500424696,-3.3747860151,-0.8453678649,-37.9712415399,0.0276350309,-789.6381916679,-157.0915566534,0.2892034445,0.3731197291,-0.7770056001,-0.1447653963,-99.433610804,1264.476460981,-138.3668351033,-0.4775609519,5.0850529461,0.2580628497,-678.623311617,-31.3889904179,-0.2546325574,63.5942415131,1.0005932126,0.2574203706,-177.9016405095,-90.0596923356,-381.51318481,-430.8105914744,0.1273666609,0.0668879961,0.3751032788,6.9618146742,-1.1976765239,-1.2665284328,1.4673814566,1.8282076164,-3.3599360421,-0.3564379222,-2.2480576274,0.4644076893,-56.2171923683,-0.4203193507,-0.2870668549,8.7815601865,-1.6061360552,1.2169421384,-0.3844165167,-21.3112497212,-1.9995240103,-0.8283700876,1.2939955741,-265.6417220536,-4514.540910056,-1.928220668,-16.4057123692,-16.1694184605,0.4220228162,0.247780113,-0.3574585009,-1.0486684788,-0.4576881884,1.8669691349,4.1392079739,-5.8821530961,-171.1601120505,-2.1076828483,1.9127510827,-0.1504099766,-198.2697734114,-0.3767799546,-0.7614630124,2.2071040715,0.0441250366,-0.6628536811,0.1708899384,-340.5035464326,-0.6481888731,-2.8489806807,-0.1015531383,0.5702886028,1.1839901263,0.0838573369,1.4847174706,-0.197483068,-2.5551236135,0.2815497347,0.947648993,-1.3305047221,-0.2956633352,-1.5703376855,3.1159608227,3.4269284763,-0.5301267516,0.7649833098,1.8215434657,-1.5867821901,-109.8771001339,-0.2478019599,1.2421279281,-0.7380886465,0.3317443538,-257.7541661402,-18.7808837531,0.7728866621,-1.4533167618,-103.256752999,-168.845052595,-0.6710401727,-394.4477345196,1.463329319,-0.652728599,-0.1601068904,0.9927012014,0.3436506244,-284.8390865228,-152.4792390781,1.050151072,2.0725557859,-0.2538067013,-106.291891548,-68.3961687239,1.7584447387,1.3162362329,-1.3525196761,-0.8343082649,0.5840624004,-3.1125555002,-12.8840477094,-0.9499280683,-5.1140052464,0.1950633075,-0.8997696725,0.0665109686,0.3349999206,0.269144148,-0.070470892,-0.4311233905,1.7851416575,-475.5627976929,0.1887440419,8.0999755578,-122.7986120322,-3.8337907158,-1.0931181115,0.513177473,0.7809699203,3.7534684695,9.6895820794,-0.1737655342,-6.7061324721,3.5675021971,-13.0295727756,11.8135548347,0.0314583107,-5339.4380146337,-3516.4982076611,-24.5484655158,14.038012876,-0.3647892522,17.0274853065,5.6523835312,0.5449626402,-0.275072771,-1.0183637836,-653.4176489946,-0.4663190002,-110.5599907273,1.8856213677,-0.0667838232,-83.0390809272,-2331.7009619583,-0.1216639381,-0.6060035316,-14.3863955619,0.4935848103,-0.9835122969,-304.4859323374,0.3325782244,5.5792871493,3.5137327077,0.7909840528,-0.6849510007,-1.8749854261,0.0979546787,3.1060569689,0.6257502714,0.3242769712,1.4915285744,-1.2735394932,-7.7646470149,-0.0767431631,3.4329399688,-1307.0923046713,1.6760774446,-3.5833763753,-0.3684297562,-0.9353751666,-2.9483620201,3.0292743633,0.4767016838,0.6782352936,3.749414218,0.30845748,-0.0236549313,1.6575602658,-0.5440449141,-97.149829767,-35.9736345408,-24.0684088644,-0.7608677762,-3.0158700258,-5.4015730303,0.1635119385,-0.3948638028,2.8779948189,-4116.575995781,0.6607509977,-13.2660949335,0.5455889682,-0.1366447315,2.8767703156,5.5197644095,-0.3629927065,0.409329584,-0.7180757112,-2.5532659949,-0.464198587,0.9950298774,-300.0701092034,1.8826092977,1.590959459,0.4080569621,-0.4606279016,0.2194772778,-0.2959909041,12.7491793073,-0.4570654481,1.2706394824,-36.7488333097,-16.5749802539,-6.0202359794,0.8041606702,-5.1126925484,-171.2241356836,0.1790803594,0.2661380471,-0.9752914979,1.9578579425,-170.6324549985,-69.0605032028,0.6330299773,-31.7624375893,-6.9439617729,2.0911279849,34.8259320695,2.3487639079,-2.6428314424,-2966.8299803194,-1.907264851,96.8513994941,4.0643253495,-10.250650756,13.4644967427,1.0958798339,0.9106887527,-5.3554807596,-174.71105729,-0.0076105661,2.3769486279,14.7860005528,0.5380104338,-1389.6093209201,-908.8947991168,1.5211957672,0.3185264371,-5.9448137608,-465.8719751134,0.1758479,9.8052469419,-172.2131590086,86.6982847708,-20.6010678556,1.893783031,0.973143778,-1.0407591605,-6.4254619914,7.3835020346,0.4291979176,-0.5554527064,-0.0504621942,1.1272178248,0.4776151321,-0.0543640973,6.4330223323,-136.4833866499,0.9169255371,-0.6178337133,-0.0917019503,0.350954682,-402.7548927291,3.598876899,-0.2043652874,-3.1086442499,0.8608163839,-0.0357776131,14.8223103073,-4.2780734402,-1056.4192697059,-11.1227279598,9.3638761092,-10.2255295976,-0.9874411566,-26.6950510758,12.5043829798,-0.6592110381,-0.5153907799,7.1196637664,-1.3465119407,-1.8554680676,-311.5144031623,0.8584993664,-5.2969073398,-1509.9024615522,4.0358575999,-7.3846943706,0.6794322496,-4.8598012578,0.470256808,-0.8497726981,-0.206557657,-4.4787760393,-866.1846080308,0.6036749475,0.4595191857,-1.1527554151,-16.8375706572,-5.423586426,-62.7412120202,-0.034575736,-0.4077329683,-0.167015811,0.3796417594,-10.8863901139,0.1858872976,7.8996188238,-25.0522389703,0.3005144836,-0.4495972896,0.343428628,-0.1200463592,4.0285283212,5.5690433557,0.5173851119,0.0431144984,-0.4392306026,-0.5441262805,-122.0218921075,-3.8545828967,-253.7763722382,-380.1054242239,21.6683338882,-1494.3096999407,-0.5135280175,-282.6296352339,1.7603951775,-0.6635476178,0.1521335098,-1.5411065616,-0.7818791727,-961.0538726995,20.8911871505,13.0325831717,0.6998506534,-7.5225145086,-2.0156204242,0.7938622931,-0.0410863019,-0.6881356484,-7.4835007438,0.6446628138,3.400019436,9.7540691634,4.7292781385,3.7736697645,-0.5599239428,0.092406801,-0.5577844984,0.1065032117,-12.8515903273,-0.8344967859,-0.3987127329,-10.0889258532,0.6860682183,3.7530243001,0.1185617662,-45.7510713102,15.3395596213,-0.9899247467,-0.4224929298,-0.322175528,1.3319164431,13.7810538377,0.3174557846,-0.034143682,-8.1859683757,0.5606048993,-0.452695748,-22.1059631843,1.2843949299,-741.5759381739,-120.0913941444,0.5003821281,15.2367553658,-0.6149994938,-146.9400325787,-6.0435623452,0.8494362438,-0.0083514835,-126.6722379084,-3.390059561,-19.6900348215,-0.0117717847,0.3958715507,-14.9148362347,-108.2442782295,2.5738772687,12.3892579421,0.0291345849,11.9574379458,1.0767703064,-0.3595571363,-0.5897722502,7.9724203224,-174.108156571,2.9335584003,-0.1757587697,-0.8880430315,0.7427347788,-0.8731984386,-154.6181691966,-0.121254154,-0.7810599363,2.2002109477,-4.1990028079,-14.5896399927,-1.2338608286,-0.3004372876,-26.0857359712,1.2435011951,0.2266783139,-0.0853154414,0.4115786893,-175.7996343307,-169.9295167398,0.7474940768,8.1788852244,0.9203085817,-0.1108992067,-8.2315845647,3.0379244474,3.3804415641,-69.5847096231,-1.1104355277,-26.3986712159,-0.1069470121,-9.4020674053,47.0410998866,0.657817816,-0.3271931102,-2.8440877737,0.5543661175,-4.7277598528,-2.4486360043,-24.9163369618,-0.9169463271,6.7978510371,-70.1625436967,1.1281086113,-0.6535393566,-702.3146412703,-1.7933098778,-0.5331778746,4.7232682172,-1438.0947181296,-6.5281443218,6.333701023,1.0600521537,-0.6606738106,-1.0604665805,-0.8413097004,-3.9838187756,0.619414923,0.7740234278,-0.1201546455,0.3459153156,23.3184278488,0.4335539065,-14.8143824853,-0.13854744,-0.0235555682,0.1302593594,0.9142626988,0.2333390285,-13.2733890201,6.0762162719,-1.5326081878,4.7892240706,-8.6574595488,-0.1922425869,10.505694135,-33.5788866976,-319.9412824413,-3.5776483241,-56.7283179479,-466.4761342718,-0.9462739017,-6.9613678461,0.829496458,0.3425564575,-1.1060976968,2.6972267291,0.7916884219,-75.1232431817,-0.3057704631,0.2602142132,-0.0160941594,-121.249479905,6.3493386753,-4.5219064254,-3.2250332405,6.0423234232,0.9623266479,-0.8174826926,-0.3693653783,1.0547166514,-7.1637118967,-0.532259706,4.2231895903,-1.0365054946,-0.4311923089,0.146069601,-11.0697129297,-4.6645461357,-0.215349078,-857.9307054665,-599.5307969871,21.0333603772,0.1930988291,2.479842269,-0.2726793583,4.6241234576,0.6042432053,0.0458485842,-5.2945408085,-174.0142907821,11.9966095225,-1.1853505349,-2.1313712695,-90.1720211922,0.7975656269,-0.9050606889,0.8059453365,-4811.1531264363,6.3437332872,-5.4784829541,-3416.5615080685,1.2002054957,0.7563200945,-8.0840227613,0.2811766659,-0.2547839371,-0.9122283592,-5.6042435533,0.349793584,10.0156483976,-61.1990497947,0.0463114572,7.55156066,-2.2010123881,10.950013345,0.8738550648,0.4549364091,0.4303404174,-0.4795264963,-4.1686452278,-10.8834918147,-8.0530599305,0.9837530882,-0.1631613791,0.3360523937,1.0028151778,-0.3444742153,4.5769591256,-0.5272355958,1.1206148149,1.1978327845,5.4367620119,-49.3580916787,-0.974307879,4.100810809,2.6794442244,0.0051392644,0.2990984791,0.7274381388,0.2780617887,-27.9840329242,6.3378009035,-0.5303235512,0.5247602637,-1.4323451347,-3.3856626286,-10.008868066,-14.1869027588,-26.1988963397,-8.3529450257,-35.4286086856,-16.5301388949,-0.2646770966,-32.1446918946,-46.4231258849,-0.5934424787,0.1681795743,-0.890840224,-204.3361861189,-2.0798474651,27.7824747617,-5.9322200667,0.391237776,-533.5865846574,-2.0767738429,1.4333924672,0.6085704632,10.0815667439,-2.1732591498,-0.8509827041,-3.8577307331,15.9134722548,-1100.8122074339,-1.4073847161,0.5826603361,-0.9835328873,-1.1201001822,1.3087688744,10.3403541158,-0.5702314867,0.9190575776,-29.405178143,-88.2749854866,-20.3346657057,1.0247697032,-0.3427341448,-1.1068744921,-32.070501529,-0.0892044492,-0.0525915936,-3.8755085579,13.829172457,1.9248789795,0.4143217485,10.8550393028,-253.3578880565,-31.6668157417,52.668251858,3.6097191951,-99.5553879173,-34.945665049,1.704025552,112.1416876375,-0.5551974763,8.6194215669,23.2192192864,-0.1346399731,-0.1608711029,0.0820157023,-393.6827205772,2.3992752313,-1551.3609819573,-44.2933896845,0.9778032746,-1545.955961944,-374.2480192472,-1.9283842001,1.3440928271,0.9399000212,24.8930328183,0.5622863105,-1825.331726078,7.8114136908,18.5351842085,169.8483617758,1.2598042145,0.531338759,1.403794937,0.5009188962,-188.178934613,-0.5198196512,0.1996852021,1.2670585274,7.7658537723,16.2226357433,0.5036552379,1.9218608013,-2.3589226587,1.1974766908,-0.6274133847,-1.29352191,1.3961818489,8.1384064445,0.9652269303,-0.1790732415,-0.1778220442,-1.5931866488,-1.0884193788,-930.1070171219,1.1922105431,-328.0945165343,-8.2757914702,45.7966643263,-14.0556780347,0.1738444461,7.257652047,4.8502422862,0.482077418,-0.9035472057,0.50663127,-11.8499506899,0.0078153324,-875.9562457189,-85.1425137481,-0.8424403701,-2.3939226293,-2.8032344409,0.1049722605,-1.025089553,2.8151572933,1.1822665585,-0.8826641586,-0.2261800182,-1376.4931326856,-2.8255287461,-133.9603264519,0.3939979909,0.1990991649,2.1227429091,-3.3958819622,0.8229302174,0.1873165225,-1.3841514878,-1.1861071654,-0.9408540886,7.8222654909,0.1062492264,0.664292509,-1.7003660927,0.4330192295,-0.6534443745,-0.5023294463,1.3021739662,16.7906565266,-1.8854723911,-0.674828868,0.6858843712,3.3053580506,-0.793286935,-163.8529042227,-0.6543102092,6.5134570579,4.3106709326,3.7139589987,0.697282484,-1.0603519539,-22.9671876233,-3898.8473573227,0.0523248264,-0.267177915,-12.6214426572,-1.4716817451,-16.7203379871,38.7902557982,-1.1451525704,-4.7257813775,-116.2108627601,1.7307254433,-0.5365063691,0.1236281717,5.1621888629,2.1974750789,0.4870593937,0.1905152638,-15.6653851046,-221.2717312861,-25.0663208488,0.8911669758,0.3362204864,-0.5053890845,0.9822347528,0.1066897651,-0.8915794666,-0.1728362373,-31.4547940815,-0.4810712419,-48.0814275429,-0.1677817366,10.1766641927,3.808903193,2.8685412198,0.2753230574,-2.3436028648,1.8532758334,-238.9603098954,-2.8355311909,0.5165708399,-1.7739096475,3.7303806967,0.8405013782,-1672.0435387607,1.7703271817,-1618.0969311137,-3.0344859741,-55.9092786155,1.2385340416,-0.5243581141,0.4874575629,-5.86489922,-0.1752914147,-0.4648739347,2.4573793762,4.2125367717,-2.001656862,-1572.121283547,0.9013548989,-1.3539827587,-2.865323207,-2248.5107298756,-2.2945648952,0.5745024572,3.8480695245,-0.362732738,-0.9642246606,5.7950963272,-0.7821470625,-124.3951854305,15.8487001886,0.8214237629,0.8058753038,0.4462862409,0.381587356,-0.2087529765,-1.1491176251,-0.016591809,0.7562883712,-0.229109563,0.6282186378,-0.299696619,-0.6386523373,0.9540921285,-0.0119617094,-0.378757822,0.0413408249,0.137780925,-0.0028543485,0.443364008,-0.0852994653,0.4267535949,-0.4219729682,-1.0968034282,0.8452204292,-0.1985729269,-0.8105425254,0.2718132474,-0.3645168747,0.2376949209,0.5447785437,0.589679856,0.7610395802,-0.4325197595,-0.927896112,-0.6259008657,0.4213934363,-0.869185386,0.3963057701,-0.4043900906,0.5876124899,-0.5239927332,-0.9873076359,-0.4309044233,0.0669181778,0.3361773653,0.4303461105,0.7967930448,-0.6737495344,0.6910061163,0.1776661922,-0.9671823007,-0.3886758983,0.1503593632,-0.4177136711,-0.370062954,0.7291486493,0.3265454077,0.2369216707,-0.9007022989,0.0650273241,0.0129801423,-0.5388860779,-0.5810255819,-0.4702086557,0.2911328702,3.5562208367,-1.2773602862,0.3389607521,-0.9845842188,-0.4315523634,-1.0071276765,-0.4344246072,0.0309730991,-0.3674024776,-0.7662251505,-0.7030969905,-0.1657460082,0.0668847166,-0.4040291785,-0.1994758817,-0.3827569021,0.3002694364,0.6979952768,0.760888711,0.8630193135,-0.482653781,0.1517814888,-0.9749711962,0.7302940482,0.9464975865,0.3180234232,0.863222962,-0.9013793389,0.3459373281,-0.6280685125,-0.899492045,0.0725894252,-0.9558655169,0.4573803026,-0.8421435161,-0.1005301159,0.7350252924,-0.4720393763,0.6184641892,0.5844225781,-0.2248134842,0.6146653455,0.8970697477,0.9656347935,0.3245042639,0.3231696536,0.6174082987,0.642344014,-0.2040436286,-0.5414397898,-0.4585809784,0.0098633099,-0.1488698273,-1.1034500042,-0.1839898144,-0.2433575106,0.5865272721,0.0622939588,0.8345150009,0.3093421636,-0.1737793827,1.7687158813,0.5498888047,1.126613144,-1.2543902383,-0.3300715139,-0.6396885287,0.7520100569,-3.3282156405,142.5095817143,380.080949927,50.3006249458,0.2480821094,-10.249645229,0.6765324949,-0.8445664735,-6.0275366703,0.374603833,0.7802764562,-0.9121377719,-0.5114325476,-0.4498040331,-0.0533743807,1.4862131092,0.2017773054,0.7101171258,-0.1560459638,-0.0899328126,-0.7051588069,-0.6255841745,-0.6320898377,-0.5968109567,0.9282484249,0.238893374,-0.5435300613,0.7844952456,-0.8641497843,0.3244304808,0.7272332269,-0.4185642824,0.295943117,0.6296166675,-0.5037257433,-1.0372384776,0.5363001535,-1.0433281101,0.2399672571,-1.0297007528,0.7113670128,0.0256454774,0.2404529279,0.6026664766,-0.5971886554,0.2522225418,-0.284055161,-0.9220428219,0.5868940566,-0.7999947108,-1.1125842268,0.7607190081,0.4868265238,-0.1067644123,0.7192291084,-0.2063996477,-0.3284636324,-0.8527803186,0.0843384773,-0.9049652296,0.5052006444,-0.5401011224,0.8108505484,0.2032201078,-1.0005531332,0.1306482492,-1.0445400084,0.6349624931,0.0536850529,-1.1440772769,-0.9550869887,0.2516002136,0.6740287946,-0.7585726247,-0.596638176,-0.1483510753,0.4685121687,0.3645574438,-0.8819330989,0.4988693364,-0.5828221401,-0.3741431194,-0.4733816236,-0.4308119141,0.0355836824,0.0245400554,-0.1152383748,-0.25882304,0.3787822486,0.0134321075,-0.9795695543,0.6581317151,0.1769221026,-0.5114227721,0.770937595,0.6313967893,-0.7413644924,-0.3270704622,-0.4082364685,0.5023918199,0.2487617213,-0.3901060423,0.3602286077,0.7881079926,-0.5170535543,1.3642707847,1.0544533541,1.1924002398,0.7215425563,-1.6611568575,-7.2488527561,0.7857201288,0.0570281548,-0.1710378351,-0.0904109036,-17.8123913938,10.1709756701,135.1131407108,-134.6053736185,-86.8353093187,-314.9583757092,0.3550585592,-0.2845922608,0.800558849,-0.5476785275,0.2779906991,0.6999790263,0.3158509164,0.2888930513,-1.4121916418,-0.6862363182,0.3241732163,-1.0406169613,0.2063815162,-0.2337893682,-0.1047415412,0.7553106969,0.1997904437,0.5636704079,0.5272478838,-0.6323426817,0.3389876965,0.4055408468,0.2526775798,-0.5668678449,0.9428826261,-0.7208482154,0.6228994417,0.6517581399,-0.0419473691,0.5557682023,-1.0207163463,0.7989533376,0.9530969576,-0.3272376114,0.9820215236,0.5047100777,0.6545326405,-0.4982494898,-0.4638143672,0.8677379634,-0.8652430447,-0.0467197461,-0.6302504138,0.6535567714,-0.1936883767,0.2445054043,0.0630435363,0.2209138155,0.7414861152,-0.800831614,-0.760796948,-0.8042670894,-0.5362160898,0.7053067255,-0.8895686955,0.1537426025,-0.5402588725,-0.5959768674,-0.3275412219,-0.1068515516,-1.0089884207,0.0581549137,0.5711483998,-0.0067381733,0.1894903592,-0.168310247,0.2572624678,-0.2112368665,-0.6095089864,0.614734453,-0.3479485524,0.3886628372,-66.6824797042,-23.3069002901,1.053664996,-0.1079452475,0.9151531003,-0.5626208237,-1.9545873327,0.3384583009,-0.0222300539,-0.8115026576,-0.2935059388,0.8429756462,-0.2565810774,0.2894338435,-0.3343801436,0.0714269928,-0.7100698386,-0.6179637224,-0.6051530185,-0.3430982565,0.9232773656,1.132464248,0.667893091,0.6946077047,0.7379471626,-0.0938888254,-1.0073529895,0.7961510983,0.307278987,0.677027706,0.6516607231,0.424254684,-0.4756827039,0.8783720919,-0.5477098489,-0.2678173616,-0.4100032906,-0.7312275866,0.47230689,0.189255526,0.4157502308,-0.7893467533,0.6586262329,0.3472462644,-0.9274924006,-1.0772283538,-0.3754399546,-0.8132901568,0.8548299082,0.2589582407,0.6671024265,-0.0491719725,1.0338499543,1.0176510582,0.3169495401,-0.7681295951,0.9883670303,-0.5200583854,-1.2103194135,0.3326538145,-1.2527804104,0.7429215314,89.6727662876,1312.4069943893,0.4618213091,-0.8214982449,0.7236815436,3.733236655,383.0081389106,3.7353088675,-399.5065625496,-16.3911815299,-28.4398724805,1.0038861723,-1.8490491899,-20.5877780383,14.6976901711,2.9162976645,-2.6227751262,0.1138123331,0.865865046,0.5920746209,0.0621937333,-0.6518824299,-1.1626562488,-0.0641826992,-0.7261660112,0.6394252251,-0.3560653622,-0.8034780125,0.7557189047,0.5672913535,-0.2258632467,0.7096902612,-0.020512063,0.9398425601,0.1307124532,-0.4873398883,0.349286227,0.2420395271,0.4842209011,0.6379274069,0.6967896328,0.5168145348,-1.1285156648,0.1996565097,0.1459634293,-0.0575352115,-0.3914344257,0.0594336326,0.4749817752,-1.1908801182,-0.7584293854,0.1349207629,0.1654876202,-0.5716917054,-0.9260072144,-0.872901721,-0.752347556,-0.3939935239,0.7770265865,0.9462832283,-0.9085561809,-0.9645763179,0.067123209,0.2692272336,0.4809448124,-0.233083634,-0.8339589274,-0.3811249902,-0.4968777722,0.5868681162,0.7127911225,0.3403729177,-0.640963952,0.2750542858,0.5241747899,0.6161618694,0.4925606936,0.4093844288,-0.9477232267,0.7012492393,-0.0559935268,0.6309580476,0.5641254859,-0.1526202599,0.3035523568,-0.9971908947,0.1258737456,0.08071379,0.4339894533,0.6782938228,0.6885190124,0.7183676474,0.7623771949,0.7069096088,-0.6804686365,0.2447327789,0.3719821378,0.4748682429,0.4528696992,-0.4016677716,-0.2946962593,-0.3598640457,-0.5396161208,0.43910258,-1.0683762051,-0.2868182213,-0.2406518084,0.3053782333,-1.6998581866,-0.982239578,-2.1576899376,-0.448157486,0.9233048994,9.2747898247,2.0386933885,-0.6145531735,1.224774844,1.1641601039,16.8955592002,-1.4918745908,-229.6466512884,2445.6194308092,6.0584145495,-0.6806991556,5.256304696,9.6504792656,-0.8845438286,-0.6341936135,-0.1059248853,-0.1052374094,-1.0088415146,0.8283373034,0.3356574807,-0.9590304446,1.8851217086,0.2185600509,-0.672152317,0.6563655639,0.8622553611,0.1837340392,-0.4024330805,-0.1753230976,0.7200006474,-0.348927858,0.8380714237,-0.8773425163,-0.8686846318,0.2671560479,0.2527812789,0.1767743729,-0.5687188079,0.863010867,0.5602397327,-0.8849364112,-0.1732348158,-0.5192301453,0.0320011261,-0.3260007025,0.4582500809,0.4232900534,-0.468674223,0.7340217185,-0.3498526225,0.7633805899,0.8592256706,0.8819279769,-0.551208649,0.4434711748,0.1734365466,0.5966454429,-0.5565077074,-0.4430746941,-0.6645112945,0.221955285,-0.3945456105,-0.3305839914,-0.1933237714,0.0449965912,-0.5592262511,-0.3164330724,0.6958764366,-0.1248107378,0.424840866,-0.1804072511,-0.5638750825,0.3206351833,-0.422351342,-0.1521306883,0.0876218711,0.1722129994,0.4045226232,-0.8222066668,-0.7809680093,-0.3198705695,0.1072671107,-0.94331512,0.6695778194,1.0643089203,-2.9257241723,0.2804972809,0.5838395227,0.6333805143,-0.5167874714,1.0370114059,0.839783247,0.8430400272,0.4630624849,0.3190837324,-0.8833025812,-0.0177466077,0.0556803311,1.0173759903,-0.4309493746,0.7153692093,-0.7093185255,0.4081328732,0.15568737,-0.9909839975,0.1872525582,0.2170804971,-0.3186724215,0.9194825547,0.4169050823,-0.5961524819,0.9429010694,0.0740782887,0.6255389772,0.9589135879,0.2553096719,-0.9078369021,-0.5172422468,0.0099102644,0.7365294193,-0.3158359184,1.0352656208,-0.2123159402,-0.7926350986,0.4062438636,1.0354219759,0.1057532566,0.8002549621,0.1862556629,0.9004818074,0.3341671108,0.2287128095,-0.7794949538,0.3566658788,0.0932828986,-0.5732442196,0.6198540813,0.6310642174,-0.7789323384,0.2896905163,1.1104437329,-0.1730343832,0.7930597217,1.3081495313,1.1511789755,-0.009152096,1.2742882706,0.179162485,0.8371082271,0.4017701784,0.8002821907,-0.9621615437,3621.2834475043,-99.2937336608,17.3346400807,15.6052613753,1.0949181697,1.6274493147,1.300027871,0.6096851315,-0.3308212349,0.6081825948,-0.7230584044,-0.1033128,-0.6956354881,-1.366245314,-1.1247300037,-0.7838759191,-0.1020355126,-0.1443364692,0.0799486172,1.0373367535,-0.0171691018,-0.1199622552,-0.0903267611,-0.7053816047,0.6267447314,1.0263001586,-0.7450426773,0.4965653259,-0.6007891471,0.4363549949,0.0122856851,0.7616494853,0.8437409262,-0.0576453287,-0.5961311016,0.9603705971,-0.7020905905,-0.1212915067,0.1168533485,0.9253022717,0.9112460445,0.0083795298,-0.3742981195,-0.1829890649,0.1744990204,0.7534029602,-1.0227003492,-0.1776358542,-0.1307476017,0.2449626962,0.2654096166,-0.6697189899,0.7304043962,0.9044764853,-0.905237816,-0.5237878858,-0.1082920677,0.4106879513,-0.0206975248,0.2677048309,-0.2909923739,-0.0173468619,-0.1078983278,-0.4149113773,0.1630357774,-0.1981122282,-0.173947815,0.0051772974,-0.7880599313,-0.5354991997,0.6119237379
   -0.1406771636,0.6123536832,0.0092032072,0.9611845594,-0.9356336226,-0.2704722549,0.5428517061,-0.0163639562,0.057661205,0.0599757332,-0.2286340115,0.5873214544,0.3008975824,-0.773283358,0.7761141456,-0.7206453926,0.6317117278,1.0260605373,-0.8911162595,-0.0688227873,0.6722656788,-0.0583435464,-0.1950474983,-0.2200332027,-0.6337583049,-0.6750963961,-0.5795110752,0.29880889,-0.1985541179,0.4033118127,-0.1310263417,0.010933322,-0.716120745,-0.8282476541,-0.5261773277,1.312346184,-0.6770234634,-0.5575094185,-0.5658071435,-0.1914643045,-0.0723950664,-4.27619788,-2.5893070659,4.5777200818,3.7651194475,-26.0705185159,34.171059005,-30.3339706458,1130.3257225359,48.9798062561,0.8802739708,-0.2852468907,0.8295400649,-0.6477870458,0.1214983481,0.2444840487,-0.5765383751,-0.1137418853,9.5909765318,8.1815092195,1.0883536255,1.6758710651,1.5489071805,0.5199042706,-0.3335938631,0.547834997,-0.2823685473,0.0019795043,0.0873510536,0.3765998946,-0.6220154205,-0.6927071149,-0.8232262659,-0.8822733743,-0.7378939063,-0.2891054858,-0.8219480182,0.2055552274,0.3101528854,-0.7010141257,0.9556533554,0.2307039668,0.3715288795,-0.2389205104,0.3422264588,-0.8891552941,-0.0303293857,0.6336715705,0.8358457276,0.3193119117,-0.1410221128,-0.1233826869,0.7447415302,0.7230838673,-0.1293531265,-0.9861117167,-0.8632260991,-1.0097641949,-0.2146558616,-0.5251699009,-2.4634963452,-2.2143336235,-1.8091262965,-0.9911910547,-1.181763335,0.2378351568,-0.5867915348,-0.6433055532,-0.7657346179,-0.8645823359,-0.5124794311,0.3693741185,-0.3770804739,0.7151722812,0.9088374084,0.0123096896,-0.3372440952,0.4109943672,1.4502706802,-0.5112047631,-4.9420719319,-8.9153772594,-8.1479919138,-0.7161996629,-0.5189950596,-0.8567941216,-0.2795442682,-0.9824198096,-1.037070389,0.7126152219,0.7048589325,0.0623229529,-1.0814090039,-0.6671412636,0.6029607696,0.2858213601,0.1820531365,0.3157240936,-0.1633516265,-0.0094993118,0.9677864158,-0.1949712088,-0.8540074367,-0.4523087958,-0.3420629452,0.6721831175,0.9534323746,0.6211372683,-0.6472342845,0.4957165038,0.4080261579,0.7580329654,0.8229422247,0.9809364639,0.4470592226,0.356744751,0.5942486418,-0.1591602164,-1.1374817366,-0.6641657827,-0.5649032585,0.9836100254,-1.0079229829,0.4239945949,0.1672455973,0.3219759116,1.2926952343,0.9607379455,0.0638577098,-0.5104688872,-0.3613020802,-0.3290886087,0.0205214226,0.9134795784,0.6474313328,-0.7620135151,0.7861015421,-0.2250742282,-0.7828941801,-0.6365348383,0.2764865282,-1.0083476369,0.3424006786,0.4157689174,-1.1951106936,-0.5005043561,-0.094023751,-0.4103966559,0.4855536936,-4.4227185776,-8.4619052724,-6.0038709937,-45.3898954193,-11.7206936424,-10.2296407947,-60.731921322,-22.0160672732,-2.3602591291,3.1200132463,-1.3665060298,-0.8980227593,-1.3947105214,-2.1235007366,-5.1324525845,0.012511472,1.0795070597,1.8379504511,5.6108502735,10.5355434369,1.7520073909,1.9027635436,2.9444056712,0.1285304624,-0.144574557,0.1795960779,-0.3809103156,-4.6430540491,1.2617280252,-0.5206492928,-0.7850434668,0.4004479788,-0.3150854093,0.2431594385,-0.5059944627,0.7341431539,-0.5290201921,0.6573377198,0.3726534914,-0.298332627,0.6769340437,0.8088095548,0.427456625,-0.2824857088,-0.23552945,-0.3732695899,0.0300805861,-0.5640264118,0.1689369757,0.7178951281,0.1306127434,-0.2720563536,0.9548944149,-0.1213176727,-0.4253509373,0.7341890122,-0.1125474438,0.8179292945,0.2777711535,-0.9285238247,0.1610533091,0.9657941587,0.639620073,0.671278884,-0.7199405114,-1.0082959224,-1.5701207318,-0.3774771256,-0.1647838341,-0.6836527642,-0.7855599156,-1.2395707336,-0.1919191555,0.5776102722,0.0567336081,-0.8280673328,-0.4920919819,0.4474329972,-0.9090835039,0.7611278137,-0.1588675132,-0.3587074015,0.3856938014,0.7267377284,0.9977230822,-0.5274539669,-0.3960936724,-0.5052054212,0.5037020634,-0.2984524515,-0.520339432,-0.0272290881,0.7740039639,0.1484353822,1.004406354,0.1569409854,0.1831395392,1.0343412545,-0.467321798,0.3527306303,-0.4898828894,-1.0552343754,0.5014501848,-0.2767662733,0.8455017419,-0.0885653331,0.3722215911,-1.2163313826,-0.5912229814,-0.8640838524,-0.7208878239,-11.8888863571,-8.0102029924,-18.7682000623,7.245097342,-22.9544659172,9.1037418905,1.4879017906,-45.0364897274,-3.0713227647,-16.8597047169,0.2050389228,0.4929198717,0.9372726442,1.0233969895,0.7892422384,0.5559721741,-0.2205577771,-1.0186856032,-0.609365674,0.8266335019,0.7082377077,-1.0121468535,-0.0241472775,0.3886755934,0.1099150867,0.4812089992,0.332808191,0.7302273159,0.1748384273,0.4844265652,-0.9254022304,-0.95309346,-0.373918653,-0.4250178534,-1.0804058354,0.7089116924,-0.3675041188,-0.3120653682,-1.0181655236,0.7988474108,0.6621151152,-0.8632120351,-0.4174249337,-0.4391312041,0.6490396464,-0.7121116793,0.065637848,0.0381161916,0.5647065294,-0.0928110996,-0.0686905449,-0.2693662401,-0.0358657414,-0.6663827714,-1.0505810672,0.8160171843,0.0740438117,0.2088526205,0.2262937107,0.4058084128,-0.7724982156,0.6839034816,0.0670228122,-0.3046678522,0.1405333499,0.7722198216,0.5024542371,0.4374993309,0.8256217022,-0.9778236968,0.1577290972,-0.4453264872,0.2554975952,-0.5727980027,0.4739484848,-0.09529135,-0.2916684568,-0.1649749678,0.8176978272,-0.7145904568,-0.4721065449,0.3022206057,51.4335951838,284.680891544,190.5987574746,582.4830639996,0.6589306331,-7.1104155612,-0.04822724,-0.1094141226,-0.2887673224,3.1047972153,0.10712299,-0.1839934351,0.7093150051,-0.9887487099,-1.2227620674,-0.6880280562,-0.9880094569,-0.9931579573,-1.0037502007,-0.3585651405,-1.1020337301,0.6123916202,-0.4460317775,-0.106758953,-1.0983079082,-0.9821880431,0.4796432153,0.6658692872,-0.7232828159,0.6934970741,-0.9630508646,-1.1303595199,-0.2136579381,-1.0638366377,0.2780528806,-0.4689860632,0.665621886,0.1498843877,-0.9778296285,-0.4835419753,0.243896054,0.5398537182,0.4400029445,0.5715000068,-0.0841948174,-0.7551098166,-1.093655271,0.3913935077,0.449739695,-0.2230376117,0.1738364043,0.1389899529,-0.0346791519,2.0585150298,-0.1133489768,-1.4264438817,0.0712877742,0.3812663313,-12.8380356696,17.0452094412,23.959632103,10.6729192019,28.310347181,2.7018992417,0.7876553261,-0.0132777716,0.4383889966,11.1559542363,25.3901931688,1106.8159002322,-258.9802240763,-116.7940105431,-521.1487040908,-151.363647581,-6.3760647317,1.3178207489,-35.7748476271,-1.6097680833,72.9366041935,5.4872601207,0.0081549189,-0.2713878879,-0.677438878,-0.2573764154,0.4191151297,0.4603950747,1.0116855203,8.7555238285,12.99574564,0.432397545,-0.0143036587,0.0212808695,-0.1045780443,0.6201334968,0.3433670064,-2.447716656,-0.8058586965,0.322121986,0.2780783512,-0.6095928246,0.4417358468,-1.8137616444,-0.9556983004,-3.6686496391,-3.5773617197,-2.1888904899,-0.0043666609,0.0115109662,0.6307585914,-0.0419920284,-0.3005686759,0.0288400866,0.6542882986,-0.0234027553,0.6610592161,0.546626471,-0.9079556138,-0.5458373306,-0.9389695461,0.2841930804,0.4531699842,-0.3994042001,-0.6872700139,0.5086294395,-0.5571231094,0.2141055415,0.1968667781,-1.0513832815,0.581521728,-0.1881680041,0.5571491932,0.3093628842,-0.323816452,0.2649724681,-0.4490712784,0.6511427571,-0.0209222694,0.7865052973,-0.5403406287,0.5592465643,0.2707615901,-0.7953603974,-0.758370451,-0.6314856998,-0.3467885217,-0.4948373892,-0.9562783443,0.0988827241,-0.3055863424,0.5242441083,-0.5753575473,0.6721577297,0.2371994185,0.7668450656,0.9564418387,0.6663585982,-0.1883975984,0.8341713374,-0.4418022361,-0.5176196472,0.6736515559,0.4133977368,-0.6242799563,0.4896247747,0.2812132732,-0.734416262,-1.1781404289,-1.1667147352,0.0675394146,-2.1914458766,-0.3778063889,-1.1945095018,-2.7237899365,-1.9537811284,-1.1010012728,-3.9713305065,-1.8318160388,-9.3471752372,36.7608088423,-29.1541070933,-24.3946960874,-108.0243680723,120.3792951998,-442.2570583128,1794.21927803,-62.9158311697,-20.3721589066,3.5410872395,-0.7621597212,0.0944014293,-0.4400135429,0.4832266962,0.5503059032,0.7353543183,0.3702736077,0.2097236118,-1.6786776279,-0.018573422,-0.2341140732,-0.4857098285,-0.3227246812,0.7304099771,0.5975169137,0.4290888064,-0.1617748969,-0.765574644,0.661532106,-0.559327132,-0.955032651,-0.8138939296,0.5145951055,-0.1713782779,0.1734173732,0.5643801076,0.9173597077,-0.6000583768,0.8622100557,0.0768270278,0.0786042841,0.4628520464,-0.4894985375,-0.0625590144,0.1982904074,-0.9003413397,-0.2697239928,-0.6274469224,0.174832738,-0.7827426226,1.0460388114,0.2909605902,-0.8323908052,1.1171001392,-0.259054937,0.57911733,0.4365509235,1.0785909581,-0.3577171477,-0.6165601736,0.5943477854,-0.6913655229,-0.1448825889,-0.2771067382,-0.8812777796,0.7103759404,0.7772963425,0.2972423154,-0.4984183343,-0.2732725209,-0.2814528421,0.6942185521,0.5295794843,0.0027398492,-0.5273629698,-0.0420797062,1.0501877268,-0.8264083475,-0.7253028338,-0.3972314816,1.098715147,-0.7207593285,5.4122007878,1.0976092491,-1.7643724099,-1.7711349552,-0.6886262785,-0.9894375131,-1.3398967821,3.0372466008,2.0975022846,-0.6675753495,-1.7457202363,0.0733773012,0.5193159478,-0.8769490583,0.0651759064,0.1073622101,0.3850616232,-1.2322559407,-0.9648613844,0.8630976972,0.3853142296,-0.1022967738,0.193018629,0.4538480523,0.7003786184,-0.3503958698,-0.5301783956,0.8878953106,1.0635487238,0.8115499477,0.6107503682,0.7252039903,0.0535207492,0.5734162887,0.5172713602,0.349772147,-0.3876632284,-0.5160050275,-0.1778336341,-0.4148775462,-0.3418195441,0.7939306404,0.4430311315,0.7052795066,0.2432930801,-0.4951338574,0.7206367234,0.2363886254,-1.0134984012,-0.2340206163,0.6125117481,-0.3221547684,0.1256443141,-0.5907128804,2.3159039657,1.5810312993,1.1365656243,-1.2275182321,-1.164317067,-1.7113803517,-1.8148853872,-1.2514290676,-2.0335476648,-1.2364749824,-0.6037703445,0.6384409061,-0.7192088376,-7.5866056158,-0.5088052239,29.5281136527,54.7482494104,-2.3584407362,8.2687833055,-1.4839400744,-0.1880221276,-2.1346966244,1.5942567934,-0.0332026379,-1.1523457581,-14.9065292075,1.6913586538,2.5600673998,3.0482952977,-2.3551082086,-0.4701725644,-0.8396545229,-0.0460815024,-0.0262680988,0.3192809755,0.3564352744,0.7366551538,-0.3342306064,0.5992677922,0.6772727658,-0.7426729669,-0.5310420008,-0.8286774115,0.3477463419,-0.5973857446,-0.3257983865,-0.7118873537,0.4473244874,0.0221740135,-0.8094063345,-0.8650675951,-0.733690717,-0.7383260138,-0.5685092238,0.0983955436,0.9389968057,0.9658268139,0.3247268566,-0.1617036499,0.5111080429,0.0573725702,0.5425307192,1.0877189247,-0.7925410305,-0.1310600809,0.7072048244,0.3507473884,0.3732282382,0.1739460419,1.0054797809,-0.355609616,-0.179847802,0.9864768479,-0.5120257625,0.6406979416,-0.0463381622,0.5239903984,-0.1313494117,0.7022275751,-0.7345811123,0.4074907014,0.1766345524,-0.1820029325,0.1172880613,-0.1469993207,-0.7309900281,-0.0189149043,-0.6547963224,-0.7901963485,-0.6414562415,0.2311642682,0.4976581653,0.271024835,-0.738579791,1.0934477326,-0.0063369018,0.3803260372,0.6190746296,-0.0734866949,0.2654107074,-0.7740138217,-0.2920288515,-0.6024795345,0.7031923069,-0.6478591969,0.3037082827,0.9385636333,-0.232321285,0.8123197685,0.292288253,0.9829685814,-0.502299131,-0.3296991538,0.9281183564,0.0905261597,0.22556671,-0.5924417636,0.3203624014,0.3524931635,0.1052520343,2.61013937,0.7877764614,-0.1254721054,-1.3467392037,1.1633287717,0.8215334898,-3.7486344283,-36.5222019441,-676.4976865143,-849.8268803781,6.5050148738,129.6822474943,1488.8712242444,1455.1400703416,0.7323158798,0.6532673379,-0.3203108056,0.2244940101,-0.4894250123,-0.2393406334,-0.4519875311,0.084142189,-5.4014312918,0.1323348176,-0.4803458569,-0.4996646382,-0.8596412974,0.6340596492,0.4829897716,-0.0169533591,-0.7108707577,-0.9227004783,0.2797426148,-0.0196968329,0.3526671301,-0.0593511056,0.6900151108,0.9334063979,0.5773967673,0.7392746126,-0.9210275326,0.6280404555,0.4731290555,-0.0404231169,0.9272294755,0.4177056286,0.7891543379,0.0534592714,-0.841110382,-0.1516172163,0.5867154349,0.7985082729,0.0155863967,-0.5182724883,0.6069141325,-1.0944919114,-0.6483392393,0.6490114273,0.8234730654,0.1639079567,-0.1502740281,-0.5790487376,0.0754996699,0.1267822884,-0.6551758756,-0.5786885061,-0.7468188768,0.2208568139,0.4198634066,-0.9611717491,-0.0286198886,-0.6054975044,0.1994654495,-0.8787304,0.2207956373,-0.7632428309,0.3709637947,0.6918720974,-0.3859788169,-0.1054627844,0.1194640615,-0.2939847512,-0.5401847153,-0.2773698772,0.624920494,-0.4342220565,-10.0204385832,-1.9646348929,-2.6887511003,-1.422255544,-2.2566407555,-1.5747244694,0.0743378289,-0.6732106373,-0.7293688233,-1.8894413688,-0.7519194682,-1.043868529,0.1140709588,0.4694394718,-0.6894173476,-0.8014440586,-0.7371584687,0.649522653,0.3484709559,0.1388766492,0.8372557703,0.3541663653,0.2984944431,-0.0608925625,-0.0669843085,0.6669331978,-0.7725630991,-0.4531112827,0.021684075,-0.5354794472,0.6763053003,-0.4967665074,-0.7422332826,0.3688732082,-0.0176594618,0.3210251171,0.5148505698,1.0799165681,0.4216050975,-0.6685951887,-1.254709653,-0.2151530012,-0.3266164507,-0.8899574339,-0.7521284664,-0.6187508758,-1.5175910528,-0.5912988883,-1.1186539182,-0.6125117224,-1.0895878976,-1.2088874223,-1.5777610531,0.1347293881,0.1577549962,-0.4441090942,-1.3164341818,-0.8665370914,-0.0867183439,-1.1938208699,-1.1569553874,0.203407763,-1.3570706331,-0.7870834619,-0.1048304883,-0.7637280169,-0.3264507336,-4.1157845687,-6.7128247883,1.5219225047,1.3557482686,4.3320599006,-2.2249813886,8.647855381,0.3718651166,-4.9709141819,6.8283068436,2.8618345487,3.2106334777,-0.7141746186,-0.0135604919,0.9639210458,3.2972128224,0.9455005914,-0.6509594095,-0.8476216184,0.8080241955,0.8806083109,0.5298843257,0.4535572897,-2.8013464124,-1.0950839336,-0.0850063171,0.417476523,0.9798983164,-0.9419752015,0.1213574706,-0.0745401653,0.8244598186,-0.5820094863,0.3633571731,-0.822614242,-0.1531684899,-0.6102215932,-0.1690425504,1.0769072749,-0.2077854206,-0.1030068626,-0.1580094194,0.2599976972,-0.9395592364,0.3206106213,-0.7772347842,-0.0912622792,-0.4979020706,1.0364647688,0.1934545308,0.5699039702,-0.7850466651,-1.1600833954,-0.0968698071,0.8135927599,-1.0460017463,0.6159075358,0.4893813117,-0.2804746674,-0.2698140389,0.448650813,0.0892491073,-0.3387291952,0.2009762861,0.1463673538,0.3034954931,0.2497612841,0.534911661,0.3777409904,-0.5628480869,-0.6258879342,-0.3290873242,-0.5326756141,0.1354443874,0.0573451979,-0.6282778824,0.2829346386,0.9600097993,0.4125554977,-0.6857664679,1.0137259969,-0.1952598157,1.0452147975,-0.2372018123,0.4635789627,-0.4538056199,-0.831989375,0.9441734824,-0.2782594345,0.8555572158,-0.0106880849,-0.5828040834,-0.8195921365,-0.0372274328,1.0135011013,0.0442165346,-1.4635770108,0.0775963312,-0.2804486518,-0.1040843632,-0.620120246,-0.2401054663,-1.0536154139,0.1098874643,0.7692480226,-1.1358915152,0.1139444445,1.2648402593,-0.5395326805,0.5331436299,-2.4383695824,0.3229651556,-0.4535608464,2.6212740404,-1.7858110539,-4.7624269702,17.6821320824,1581.3983153233,1737.7329357543,431.6490534885,541.1087887668,0.577901574,-0.8175471089,-0.1642199323,1.0306417222,0.3538851377,0.3724274865,-0.3870356191,0.1120529157,0.8408453059,0.6091308957,-0.1584408428,-0.1570031014,0.5352976977,-0.2661271891,0.4350607469,-0.7817298008,-0.9229913382,0.6582387185,-0.1928339031,-0.8013870423,-0.5480721671,0.0329005086,0.0688990412,0.1676234969,-0.2524978693,0.448985777,-0.3650040829,-0.2365259855,0.9688277553,-0.8023321798,0.647612299,-0.8136706057,0.2621196923,-0.1551171965,0.1860386261,0.8867590035,0.7611581939,-0.7668352069,-0.1102115172,-0.195062603,-0.933696772,-0.9478887491,0.1818051293,0.7545658208,0.4312833476,0.4333618276,-0.3176347007,0.0586832935,-0.89087426,-0.8015513849,0.4356057682,0.5908276429,-0.4479468939,0.4761682752,-0.3195096772,-0.9115440112,-0.276030369,0.5066768811,-0.5689193564,0.7517184277,0.5527781618,0.4198501516,0.5211329042,0.7682733228,0.7993638396,0.5951048143,0.7007660184,-0.1536329048,0.4691177709,-0.3879352493,0.8760839871,-0.3796211075,0.1386962023,0.8998101329,1.0585547509,2.0831264444,0.0254339451,-0.7014698964,0.0648910296,-0.4113232441,1.0515636965,0.5848666616,0.0160694419,-0.4507526155,-0.3873138966,0.8608254369,-0.6963386933,0.7413705506,-0.4538543483,0.7392935722,0.5958347819,-0.8024732161,-0.967719107,-0.8439056931,0.3933742492,0.9686155383,0.6262548836,0.0582683907,0.7458878724,0.0801659053,0.8539439386,0.7541483869,0.0671828823,-0.7776599568,-0.5431588403,0.731196792,0.2121506778,0.1232723491,-0.2218772326,-0.9433505763,-0.8558803681,-0.4135395427,0.0807014365,0.165031968,0.7607640548,0.8313786637,-0.6404560125,0.8135003979,0.6672579892,0.5621536631,0.8210020525,-0.4302276273,0.0123680355,-0.0321517023,-0.7639744048,0.2282422069,-0.093910518,1.0081592806,0.5002893076,-0.5328602355,-0.3053204826,0.6865534483,0.1283533039,-0.4939196638,-1.0022896924,-1.1659187512,-0.6192273133,-0.8710630988,0.4261162055,91.9458519665,0.0434998039,-811.0955620815,-0.8511145617,1.1861667191,-0.855544736,-0.1756190472,0.3683556528,0.6570263386,3.0106831855,2.7626027243,-0.2366184382,1.0487898321,0.895276577,0.973300613,-0.5290186215,0.0388487151,0.4349973959,0.6690457138,0.7329348223,0.6632182253,0.3648480826,-0.1564577893,0.6612778896,0.61408326,0.0765125153,0.4784490004,-0.5469957191,-0.5772931687,-0.8215780318,-0.5243239573,-0.6120640145,-0.2287711779,-0.4693440268,-0.1070235819,-0.0660910703,-0.7302747022,-0.6435419397,0.8946647982,0.0098019379,-0.5972255743,0.7380382842,-0.1372425531,0.6008418002,-0.146543279,0.8183524844,0.5035298588,0.0625625451,-0.6533847696,-0.6110391495,0.5636725781,-0.6384499552,0.1415734521,0.3952054291,0.3631919826,-0.5475105692,0.3784942502,0.404818332,0.6087680806,-0.5667452033,0.5091144187,-0.1398547052,-0.7259771393,0.3823126276,-0.6092909107,0.5722570659,-0.341920626,-0.6222344531,-0.2391567809,0.5662298307,-0.8212149789,-0.2269021862,-0.2724506032,0.4796939201,0.7470614386,-0.0990055766,0.5421421909,-0.8282116016,0.4522558407,-0.0337098228,-0.7209418975,0.8913200471,-0.9014547499,0.4521516989,-0.3269640758,-0.7694294941,-0.9645852479,-0.5279977233,0.5238706212,-1.0071689124,-0.0309471064,-0.8552434626,0.5452693799,-0.4280890732,0.222816251,-0.6570142182,0.9502347038,0.985289407,-0.6608186216,0.6490052857,-0.4902232904,-0.3770261476,1.1210500299,1.0432267423,1.0643056924,-0.0584728615,-0.0740374774,-0.1765210024,-0.6227906526,-0.5697443925,0.6496903918,-0.3237703107,-2.4467651242,-1.0683775056,-5.4226355344,13.8922237468,0.4872296649,-43.148894833,38.417830032,-7864.4273535596,1.4595645216,0.3263703325,-0.0203192953,0.6118190971,0.1900027366,-0.099127698,-0.163109058,-0.7898582341,-0.6975700695,-0.3242990208,-0.0471303018,0.6321492875,-0.236361951,-0.907690154,0.9721363956,0.613453282,-0.9502087458,0.1011612388,-0.2722491042,0.1286664078,0.4275092973,-0.8554905558,0.6963933112,1.1173874811,0.0344703902,1.0378224323,-0.7252246986,0.9209367158,0.1245874689,0.91313146,0.678372738,0.015637972,0.605708346,-0.8239311201,0.7486316982,0.8121874513,0.5145277701,0.4661886812,-0.2060285066,0.7410975661,0.105897588,-0.055338181,0.9179276101,-0.6405728027,0.1080546508,0.0454975217,0.9226870365,0.5793918656,0.1909299867,0.6243781797,0.082650092,0.9611761235,0.6900636503,0.5264155521,-0.0323581333,0.4018470606,0.4241503427,0.2158181253,-0.6441396162,-0.48101609,0.0046666724,-0.6870466479,-0.8168390108,-1.0620903982,-0.3016204304,-0.6461030726,0.0180261727,0.761429672,-0.6699968289,-0.5474908156,0.441823657,0.3229690378,-0.689904526,2.4670161506,1.3142282512,-0.0998656153,0.2145086939,0.9228113744,1.3174036804,0.4444258428,-0.4922976653,0.4766048338,0.001083259,0.461341611,0.1537375948,-1.0345433167,-0.1020413777,-0.3268508084,-0.3080406067,0.7146835697,0.6798819295,0.2192135564,0.5987102589,0.9937904605,-0.9382048187,0.2996946026,-0.5749782447,0.8647051966,-0.0386158666,0.0345298109,0.5641206751,0.8496290215,-0.923879567,0.9515376043,-0.4511426034,0.9353512886,-0.9641579936,-0.603334291,-0.2342501557,-0.8426343651,-0.2782688946,-0.7913679957,0.7704810626,0.2811485691,-0.7534686822,0.1040467778,-0.489711234,0.5077291864,0.516334397,0.6385266419,0.8709112899,0.2555876562,0.8173946483,-0.180484726,-0.6986973434,1.0463529613,1.1409354322,-3.5739004966,0.6821509635,0.6206349661,0.0856820436,0.8247111779,0.5359032466,0.3698095248,0.9406369829,1.3920620151,6.0703693884,0.7070041065,-0.3919240368,-0.1742784085,4.9002396642,3592.9447001072,-55.2678381062,-3.5493076407,-4.2373352418,-13.5519592259,-11.8672389918,-5.4082117462,-10.8659380204,-3.6965447478,0.2219947176,0.0141782812,0.8166805093,-0.1174023477,-1.5653364492,-6.3699176099,-3.7954278375,-0.3376476005,-1.5814236717,-1.7832108285,-1.3057755288,0.0027820543,-0.0775808597,0.1340250068,-0.0217215757,0.250352826,0.0737920603,0.8542488338,0.0991913696,-0.620785995,-0.1275116798,-0.7376929266,-0.2202712319,-1.0033098801,0.0965590351,-0.3080737605,-0.2069247775,-0.5705010507,0.1698780947,0.6579712261,-0.753709106,-0.3383089509,0.613604203,-0.1025243219,0.729508099,0.1292513914,-0.5274725278,0.1662236928,0.4281206124,0.4027782073,0.3256201796,0.8244759976,0.5947344569,0.7933015541,-0.1094338665,-0.2015582378,0.7099841029,0.1933430449,-0.04349341,-0.8372198527,-0.4250363959,-0.3559122383,-0.1273182809,0.5174154692,-0.1405461447,0.5745778184,0.4621623675,-0.197131618,-0.0393992066,0.3668582216,0.5326828337,-0.1551373915,-0.7260251003,0.911510037,-0.8220952831,-0.5001172165,0.3051555237,-0.6249975878,0.4213324506,-0.8369678862,0.8991616344,0.226461024,0.7277861378,0.6110065339,0.469485548,-0.4607477712,0.4826851273,0.2254512464,-0.002703279,-0.6356405471,-0.2678849684,-0.3999653213,-1.6105982001,-3.1481446304,-1.8321077903,-2.3538254673,-3.2533405035,-0.1278447758,-1.2787316236,0.1609547311,-1.4250348154,-1.5453083502,-0.3259917376,-0.9074644426,-1.1868424573,-0.1441328152,-2.7169442318,-8.4636654595,-22.0036463104,-2.4598440248,2.5865342866,0.2877338467,-0.2407403903,13.7136286806,-0.9955488285,1.7129659442,-8.3132682702,-17.5865850752,0.7533847508,-27.8578770826,-22.196343815,0.7536763783,-0.3449036198,-0.7793229232,-0.4960914752,0.3066727752,0.8825464991,-0.275151416,0.2338342192,0.3663302454,-0.2095370264,0.2821411127,-0.7078303681,0.5228997619,-0.1765748533,0.2087463673,-0.0218702459,-0.3578222372,-0.3738830191,-0.5795534997,0.3001237968,0.466390355,-0.1426918456,0.2151196487,0.9934807054,0.9371356919,0.1006831534,0.7881855426,-0.8920814164,-0.5665693051,-0.4055970546,0.4956016546,-0.8099302899,-0.3742824032,-0.2799621139,0.6268316091,1.0340526931,0.6451276544,-0.2708964163,0.8509460252,0.8854279057,1.0885152109,0.8625298926,0.8944848104,0.0717044553,0.4825093938,1.0466083403,1.0262515856,-0.8837650262,-0.6727497699,-0.5817927924,-0.226808111,0.3252747949,-0.3307895147,-0.1519120362,-0.8161579128,-0.8385118996,0.9355566348,-0.0822335931,0.5681351756,-0.5582841374,0.9325321456,0.8000749324,0.6173110284,-0.6586265439,0.67550741,-0.7133792815,-0.4396294782,0.1848951431,-0.9281823322,-0.0817739445,1.0331756186,-0.4092459054,-0.0966649035,-0.703260297,-0.1309196661,-0.8069607214,0.2868647141,-0.8786762004,0.3835100234,-0.5016256573,-0.9417211498,-0.6111554824,0.2724743109,0.4040783786,-0.4990230608,0.6494162058,-0.169638152,0.373165049,0.345119226,-0.3645606009,-0.1636143413,0.133887005,-0.4584562978,0.9971761817,0.9673435203,0.6193462298,1.03185947,-0.5183190662,-0.4065163812,0.9616330407,-1.2793805345,0.1276637812,-1.2448821762,-0.0556353688,-0.1957676448,0.6034124987,0.0415956793,0.8181999865,-0.5623676053,1.0083634145,1.013677303,-0.2332952794,0.0092852786,1.0146707693,0.9136137163,0.5447096339,1.1746947557,0.5921920016,-0.0029485247,-0.4144882618,0.2065432877,1.0414914165,0.9269094148,-0.1140309406,0.8953714308,-0.3011289764,0.7938641924,-0.21431276,-0.4642382691,0.3168929664,0.934902689,-0.0783650572,-0.0300096321,0.0486571923,0.2367523437,-0.5900726507,-0.3136907335,0.5211289165,0.4484675063,422.1290281809,85.1998742833,240.5121326191,11.6356442981,26.2514326657,5.3747234104,-2.875972173,-2.9465575937,-1.0507110612,0.0214446855,0.4436395447,4.5135637117,1.1394063173,0.3974689597,-0.0928768045,-0.6025351885,-0.1442311004,0.5627589653,-0.0136677332,-0.556518698,0.5446058647,-0.9480717672,-0.290035191,0.553284846,0.8705943115,0.2264700298,-0.8686910653,-0.0038558062,0.8222896343,-0.9312097196,-0.3234828422,-0.2994132786,-0.6635237479,1.0913349115,0.1740727713,1.0939093086,-0.8747208336,0.8202272289,0.6936272503,0.394930504,0.8934626758,-0.1480655633,0.3521742912,0.6964167917,0.7826236897,-0.6598073897,0.13024881,0.6351122778,-0.4398076748,0.8330850713,-0.5707240583,0.5193360245,0.6945268126,-0.6951296636,-0.7088233821,0.2571087388,0.6325549985,0.6728892647,0.7716343032,0.2365670867,-0.3798215446,-0.1969837341,0.3649661311,-0.4280469828,0.9879001335,-0.6874743615,0.2023073288,0.3135480969,-0.582121128,0.516815807,0.7485350947,-0.0578109815,-0.0255215544,-0.8517113606,0.8454349872,-0.485069969,-0.2493937494,0.2092750608,-0.6406192104,0.0119255274,-0.6775620525,-0.0492577925,-0.4525404273,0.1897396493,-0.1826690318,0.5721854895,-0.2438055984,-0.0438237319,0.5303434104,-0.1888350579,0.3565130494,-0.2993566564,0.0201922825,-0.4531002526,0.4304065259,-0.224769572,0.9595712065,0.6520384305,0.3031002813,-0.0211093402,-0.0929188795,0.7518319657,0.0724903371,0.679126719,-0.4881699958,1.4402148709,-0.2011149489,0.0944796403,0.2120193152,0.3549040866,-2.2986593614,-0.9962098519,-0.5240094292,5.0901122949,2.4457656766,4.8092842716,8.018594702,-0.5482569721,40.8618810776,923.8458337754,163.8638971938,-0.7899099484,0.3461143887,0.0528525131,-0.6142350897,-0.5350440747,-0.2375441942,-0.358031312,-0.0803886116,0.4914861086,0.2625530665,0.525495053,-0.3477063298,-0.3766310039,0.9823315715,-0.2821836202,-0.2814298451,0.7813955638,0.5574726235,0.0426993504,-0.7568910412,0.2434245876,-0.388235007,0.4738501043,-0.5119833103,-0.572104746,1.0546932647,0.9702009034,1.0036396963,-0.1899803665,-0.7144982513,-0.6006344482,-0.4905004875,-0.394302239,0.7825346222,-0.7316368975,0.1681379133,0.6089135859,0.3200896795,-0.6065152311,-0.8508916836,0.5662005744,-0.6062798548,0.1260667491,0.4667156792,0.2183706332,-0.7671515683,-0.6250710333,1.1278443799,0.9120062553,-0.7264586496,0.8235435706,-0.3584301331,-0.2143011282,-0.3610079315,0.3094050511,-0.6785303184,0.460057392,1.0793757247,0.88308475,-0.5742556413,-0.2156305955,0.3777369463,0.3823129339,0.8953176094,-0.0968217114,-0.5172901549,0.6058071361,-0.5610733061,0.9876436391,0.6576137143,-0.4120425094,1.2239188848,-0.1431630537,0.3340609873,-0.6667141955,0.984433514,-0.0146774482,0.3529619319,0.2123118255,0.9091423477,0.2537325892,-0.6781389176,-0.7843775201,-0.4497500464,-0.5622288299,0.3565484825,0.4590889715,0.769946082,-0.4604624777,-0.6454377185,-0.4814680428,-0.3202567007,1.0785051796,0.1603978685,-0.1659800038,0.0194454851,-0.6679361083,-0.5932773419,0.2075332226,-0.6057751516,-0.406663636,0.9892548957,0.9074029024,0.8431226505,0.3605606044,0.966022834,0.7781337548,-0.3181836669,-0.3326788326,-0.7391632583,0.7419147693,-0.6441922416,-0.3366942982,-0.6154549981,0.6277479714,0.5647677867,-0.7037556119,0.6389914828,0.7880383021,-0.416068079,-0.3159121979,0.0709857501,0.2192219728,1.1388693228,-0.5242796995,-0.877654518,0.169698951,0.8549953596,-0.2685120417,-0.6961100722,0.624213264,0.2018995749,0.7759613809,0.0830643931,0.1291176125,1.3932554704,-0.1514153218,-0.3139279817,0.0151140207,1053.4229079198,755.4537322362,857.1644275488,-21.0933493131,3.3291120217,33.0044502581,-0.8608796896,12.2397153667,0.1889784356,1.2291901236,0.6185646803,0.6983955316,-0.2646320902,-0.1739639346,0.8768484355,1.3096163144,1.0285863535,0.4288977021,-0.2682803312,0.506694649,1.0715588303,0.4122813486,0.2985584143,0.6649934457,0.2928510981,0.773702623,0.7103012157,-0.1828136978,-0.2896724022,-0.5581169274,0.4657495764,-0.5371323007,0.0359980487,-0.5016339591,-0.1843333223,-0.6895309982,-0.21327615,-0.6836184654,0.4552131662
   -0.5716318176,-0.0670269539,-0.2988530525,-0.477014343,-0.3052757407,1.0568850711,-0.8294915128,0.7758446085,-0.643451648,0.5060433497,0.8767369795,0.253099063,-0.1671724268,-0.3609905852,0.2877435973,-0.5102229849,0.7564701767,-0.7183722501,-0.2898330521,0.6262293151,1.1308311483,-0.1342080074,1.0945415903,-0.8170316479,-0.4283135097,0.4777026756,0.1872829001,0.9147602152,0.6156345061,-0.854794677,0.1733019894,0.2377843568,0.8314662555,-0.461015631,-0.4489196609,-0.0040912394,0.8778419953,-0.203699267,-0.6381655213,-0.0523301009,-0.3489174358,0.9904889208,0.9489818255,0.7409948048,-0.4694983225,-0.3857047251,1.0486983344,-0.3314314354,0.7959193666,0.533462609,0.9063578544,-0.4061719214,0.9484983393,-0.6256868451,-0.083335017,0.7567122843,-0.2779743295,0.6354501731,0.9231053423,1.1334210991,-0.0051268447,-0.3992171553,0.5434015341,0.0579130346,1.1196789206,0.3849677319,0.8983459973,0.8303967114,0.449545085,-0.7873653152,0.3689034121,-0.1336105593,-0.5052348754,1.3565110458,1.6221729181,1.1502566123,2.0642109882,-1.7991445066,5.2561895731,-16.8979865948,280.0187384076,3703.0289047675,0.9766156408,0.7670142382,-0.3268226263,-0.39336156,-0.7031058006,0.3434602795,-0.7346002838,0.3583610156,0.1350923933,0.2093538161,0.2405110994,1.0782066995,1.0298852321,0.957669689,0.3327418967,0.2439381007,0.7041209001,-0.6465896091,0.8377337794,0.0036796626,0.9593326217,-0.8146035997,1.0993529855,0.4490304887,0.1991008235,-0.4224134224,-0.0064851989,0.1815690773,1.1087752046,-0.5392712572,0.0503724153,-0.512288213,-0.251635132,0.7229661473,0.4007697497,-0.839591162,0.1618452785,0.5294455956,-0.1646658486,-0.7497890127,0.9566830108,-0.8460539102,-0.9193239754,0.686166128,-0.4200512058,-0.8433751012,0.168707668,0.3551032016,-0.306600574,0.6680883043,-0.8666779215,-0.1059927777,0.9844620183,-0.7956544469,1.0680810858,-0.4337218308,0.0364520728,0.5716181578,0.0074511786,-0.9711087855,0.3488293104,0.3032454066,0.1249146038,-0.1006962312,0.2029466656,0.0898288357,-0.2033611845,-0.9785622028,0.5059996462,0.8838731535,-0.6085330184,0.1369669534,3.507376634,0.7755929941,0.2028976632,0.6748944385,0.0397343198,-0.6999076957,-0.7243100875,-0.9531518519,1.1094453175,0.4614057902,-0.6056349673,-0.7543497157,0.6637646783,0.9439389258,0.1561647291,0.0630982992,-0.1299193347,-0.4728448324,-0.4419664859,0.4484100628,-0.5799211059,0.1657899826,0.5941759279,0.4068516765,0.8804234215,0.026074641,-0.508460707,0.1793500848,0.2767398676,0.866773741,-0.3956534434,-0.8827451748,0.7338249053,-0.2151215016,-0.3703369394,-0.7780021251,0.9785683884,-0.9676009128,-0.2396879628,0.2280618072,0.9249962781,-0.7806697271,-0.5927453871,0.6604208292,0.3112534555,0.7556104304,0.5649712963,-0.6389009327,-0.7196400102,-0.4862165655,-0.1474418394,-0.7409185008,-0.3601937304,0.8387822141,0.6584698776,0.265382985,-0.8992637854,0.7293892339,-0.6831029782,0.5644062762,-0.4766513047,0.5467702403,-0.0175823515,-0.3959109765,-0.7572758902,-0.2347812464,-0.069710997,492.3453623197,-8.1876019556,-30.4335211211,9.2993762963,7.4415735515,0.3223488204,-0.3323526626,0.8532308907,0.2830185293,-3.7518024903,-1.0400137643,-0.3358901719,1.421265755,-0.540868818,0.7179662684,-0.4583154918,-0.259311673,-0.6789031703,-0.0664529288,-0.3302328573,0.0762299184,-0.563432338,-0.1015970998,-0.7396504778,-0.1041240703,0.8062359383,-0.1048231704,0.8530352429,0.7254211052,0.107854315,0.7676736203,-0.4751779867,-0.4205863421,0.0954535417,-0.7583392882,-0.8485597338,-0.7700344983,-0.4116936519,0.7681693322,0.0035282628,0.1363363685,0.6960324605,-0.6271712056,-0.794339053,0.618498051,0.0401779853,0.975175687,0.0617058815,0.3358030942,1.0729677437,-0.8447766117,0.045895372,-0.2092379668,-0.8582847382,-0.0270849291,-0.4001431273,0.223171938,-0.2868507555,-0.219623244,-0.488845421,-0.0603434591,0.8855812853,-0.0719904502,0.2834682748,0.5114213813,-0.3869306843,-0.6524037854,0.9730162294,-0.5273557108,0.6761261381,0.9794675721,0.6389647337,0.3891148917,0.2388793061,1.0587805154,-0.2815578984,-0.8253604258,0.0260529862,-0.3966570432,-0.2033171689,0.7966708967,0.3557159817,-0.4168332005,-0.7486161005,0.8804123796,-0.321404591,-0.0250545936,-0.2604021866,0.7601427955,-0.9582265213,-0.0570921575,0.1623001288,-0.1900125551,0.9464024762,-0.7067749654,0.3338401268,-0.5266632579,-0.551588551,-0.3845886672,0.5420861717,0.1731382747,0.4006095124,-0.1828847826,-0.5592442228,-0.7507290962,0.3088708804,-0.4113548769,0.9947984627,0.5952896903,0.8580004741,0.588083573,-0.1835421665,0.0327229005,2.1776981467,4.9128161317,10.6951859548,-9.8490560947,-3.1130994545,-16.1547049187,62.1370964365,33.8993536858,0.0200029993,0.5737825932,0.8874037644,-0.0571173217,0.2218914598,-0.687476052,0.2192691271,-0.6998467517,-36.3127513715,0.0294964544,0.185589131,-0.3051123251,0.2832465784,0.6169468714,0.9308125849,-0.6706671416,-1.0506754666,-0.7246823462,-0.2829152358,-0.6334738735,-0.0407979675,0.0902271749,-0.3426270852,0.3203575629,0.4639423747,0.0280894969,-0.2439666156,-3.249284169,-0.5481474098,-0.0542293321,0.5194936947,0.0274872891,-0.1916429476,-0.1331689689,-0.0981821382,0.4350989768,0.7338261484,-1.1830107774,0.9825565731,-0.6636862876,0.867682947,0.4723516333,-0.6784686332,-0.203293212,0.1948387317,-0.4987594792,-0.2656306618,0.0840850237,0.5137704394,-0.6167119449,0.6072467272,-0.5406876141,0.6493907931,0.1968149231,-0.2591848815,0.4468793968,-0.7297253799,-0.7228304149,-0.3937309621,-0.1404790129,1.3067093995,-0.2737161628,-0.1883210143,0.382907561,-0.2375681254,0.3710970506,1.5201539299,1.0216715739,2.0048216653,0.5816363542,2.3826355371,-9.6845287149,-7.4784277439,-1.727073512,0.1988413716,-1.5142947803,0.3021150871,-0.9155315082,-0.5592779163,0.7696762497,-0.5610051021,-0.8121481281,0.4333188905,-0.8696491044,0.2944205957,-1.0739406214,0.2883069848,-0.5599939255,0.8918245294,-0.3871592033,-0.2994770918,0.0778858279,0.9685449917,-0.5447272965,-0.0948858355,-0.5035140802,-0.6988757964,0.1637616134,0.1627295329,0.4021271432,0.0550839953,0.4670052671,-0.4340955362,-0.9538546866,0.562119984,-0.2523950791,-0.5055579812,-0.5625792294,-0.4340555536,0.663922779,0.7969629005,1.3603014662,1.121867553,0.8346575621,0.3817126923,0.2315122299,0.3297173591,-0.4494667206,0.1893996103,-0.9312537682,-0.7261560796,-1.0503220248,0.5635191913,-0.7436375949,0.0046237898,0.0292670522,-2.0612420904,-2.4717367091,-0.6733553363,-1.8294793623,-2.1135359939,-1.7811407628,-2.0924571216,-2.4179432662,-2.7009010374,-4.9554211628,-0.3060445226,0.5274077561,0.712947353,-6.0809974911,-10.0726724421,575.9680898824,8.667582826,-61.3334018274,-21.7800934262,-11.9450199348,-2.7418250156,-9.5563195296,20.8997739066,30.3485508555,-1.8665872818,-5.1250265623,-3.1850355648,-14.2434300109,-5.5106577294,-2.2263977092,-0.0272903277,-0.7235563579,0.6106849275,-1.0553608665,-1.0501338247,0.6330376332,0.8467295163,-0.3150313077,1.02692672,1.0935439783,-0.9582731512,-1.2685959397,-0.2975391092,-2.4462174761,-1.6904415819,-2.5504059183,-1.1067657147,-1.5050957904,-0.7739697547,-1.1744729666,-0.2690958395,0.0066889398,0.8968978011,-0.1587272305,-0.2205142558,-0.1968080012,0.9734276647,-0.664128066,-0.2021026933,-0.9524439495,0.1638435009,1.0910854908,0.0703307535,-0.2708635958,-0.058511642,-0.2679808715,0.8712285767,-0.5892735411,-0.5799798972,-0.7917950633,0.5526778824,-0.2706271622,-0.4835575549,-0.3297082375,1.0338788363,0.0701185408,0.5020016784,0.4110165481,0.0989422896,0.4839578878,0.9728248584,0.3416383332,0.4952520842,-0.3607151102,0.7080436595,0.8115832499,0.055767057,0.8733590594,0.7830144804,0.9770341075,-0.8700941469,0.8814430888,0.9401290413,-0.1593159618,-0.7523415579,-0.6480446798,-0.5599376973,-0.5045092598,0.7984448002,0.7518091454,-0.3589255383,0.4265396196,1.5340429627,1.4536831193,1.3842112438,0.1694455185,0.3983265389,1.2282961048,-0.3706596545,0.5319418836,-0.0237319709,0.0134974169,0.9713256586,-0.5332905139,-0.2443942932,-0.3530599222,-0.2687168124,-1.339847275,-2.630705362,-3.1246186491,-1.7517882668,-5.3615642522,-3.6063054251,-12.8100303113,-27.1543916093,28.9754737934,-1.3134711784,28.6342057598,-50.7130762139,-10.3048502602,-3.8096998953,-14.3362802681,-5.5159311355,-18.5467215619,-0.6212627162,0.3550985897,0.9882474423,0.20712574,-0.1961262323,1.0940726563,1.4625872243,0.8500545494,-13.2888209228,1.4537570111,-1.3366508021,1.8976870634,4.5139681329,1.0818685907,0.4540164326,0.099036297,-0.6795919454,0.3281964557,-0.7872474035,-1.2058576347,-1.7285986619,-1.7303759422,0.1216491605,-1.3958401863,-0.0492643338,0.0807353663,-0.7662807706,-0.7701053436,0.6231193395,-0.3882117195,0.4015392257,0.7301095785,0.3149047131,0.355921811,0.1782011061,0.7918948241,0.2862132221,-0.4025134089,0.9444667949,-0.6563312376,-1.7274909992,0.3123267717,-0.7417484112,-2.2106996719,-0.9828995464,-1.2884674799,-0.1672678065,-0.7151687212,-0.0257950732,0.0000218328,-0.6307000335,-0.9747639957,-0.1935945378,-0.0630156376,0.7029756932,0.6225652749,-0.1297306302,-0.9015381824,0.7756554544,-0.0623469984,0.3709125827,1.1130678302,0.4204536723,0.0885507629,0.7020270411,3.0108338445,2.344298681,1.7553011743,5.3735523939,13.2395798886,12.4481944148,7.8504096302,-23.615565552,1.2192458579,-0.635085656,-0.7610621615,-0.9710746089,-0.864505216,0.3223002943,-0.2465247053,-0.0102811431,-1.3664822544,-0.7107027344,-0.966291695,-0.1311438021,0.3003724122,-0.4615091572,-0.5066405918,-0.6088559334,-1.0388115251,-1.0155610917,-0.170988961,-0.1864123448,-0.559290319,-0.4607961803,0.7142587112,0.7819037962,0.1397653245,-0.3194452253,-0.4946139414,0.5883419454,0.2161982293,-0.2448996058,0.478122277,-0.5178735279,-0.056628657,0.5765634231,0.2278782836,-0.4458465291,-0.5785771542,-0.8095784995,-0.2789520531,-0.8957040468,-0.3444820414,0.0542018285,-0.3841426851,-0.235339063,-0.2758584426,0.7431840665,0.1032629706,-0.0146794335,-0.2561743853,-0.2016604031,0.781407539,-0.3272333135,0.299197936,-0.0363843878,0.0670023978,-0.4930927276,-0.1590258311,0.6682953253,-1.1608665476,-0.7820112729,0.0545168363,-4.621320159,-13.0705198788,0.5850281776,-0.6125142448,0.8862582253,-4.2767796553,-6.392177515,3.9300438601,32.9812357546,28.6679968014,8.9150147174,10.2010686964,15.4229116946,-23.1902890916,-10.8213737313,-29.5045447424,-98.9629851429,-3.6910258317,15.012057758,5.2511301502,-0.4564521703,-0.5684968296,-0.6235159794,0.8870304448,0.9136555452,1.2157779845,-0.623905947,-0.4818593146,-0.4979293125,0.2945599528,-0.0516072183,0.8573286021,-0.2963720916,0.4435464763,-1.2811675409,-0.8298142973,0.205428046,-1.4709381875,-0.2339640674,0.1925749399,-0.6307187468,-0.8358250845,-0.5397480824,-1.1496844919,-0.1677930369,-0.282066414,0.0129812565,-0.137443328,0.0283439566,0.7666879489,0.7307484538,-1.122140302,0.1065008143,0.0812208391,0.3315299916,-0.2803842884,0.4268036535,-0.0123363925,-0.511211616,-0.01695976,-0.0256069848,-0.921888992,-0.8834778514,-0.796044094,0.1407238742,-0.0779811867,0.5537363913,0.2098053651,-0.3990665222,-0.8290040334,0.5671662692,-0.5091206754,0.7845466921,-0.3078792093,0.9243246208,1.3730516321,0.6804573911,1.3419006193,0.09041676,0.3941502503,1.2254404672,2.0574254299,2.0882330561,0.3276626314,1.4040643298,2.2858212282,2.1798031191,2.9115147386,2.3376663863,2.1266782901,1.4233110808,0.7958247731,1.7709001502,1.4581217695,0.2501375363,0.831475226,0.1287019445,-0.7187895617,-0.8839463481,0.5293798971,-0.8455912415,-0.2009812713,-0.4878589324,0.5385423056,-0.7611545801,0.0973330611,-1.7472918002,-4.0033884177,-13.584846822,-13.6623555604,-4.4720918867,-2.4768529428,-1.8775334051,-6.7283851577,-2.5302314051,-3.1003746226,-3.1357497028,-1.5356492906,-4.6220110307,-8.2540091784,5.7998401097,18.1838892815,39.6682872489,-335.2472764382,946.7902045041,177.0020162959,0.2439730437,0.887282629,-0.7059998578,0.4923626373,0.5471636412,0.1819108249,1.2286341329,-0.3501767511,-0.642302583,-0.5534048313,-0.6484015674,0.4220494139,-0.9034518905,-0.1900138344,0.432653787,-0.3671295498,-0.5608001258,0.8677024758,1.0728828516,-0.851818825,1.0160030252,-0.9284798571,0.4745786509,-0.8811528206,0.1054937849,0.3483476495,0.749315649,-0.9205931697,0.1610527025,0.5169104379,0.807261789,-0.3490500453,-0.8268339248,0.0998528954,-0.7267343692,0.1684355438,-0.22021547,0.5106185199,0.5827259083,-1.0289452436,0.2702289591,0.2955256484,1.0073522417,-0.0841744137,-0.3004707427,0.7330547103,-0.8123919094,-0.6007194902,0.2610683727,-0.6827193741,-0.4326241158,0.7346198668,0.8704323907,-0.2895379288,-0.016673271,-0.8569886518,0.1648647842,-0.7789798257,0.4195012655,-0.4846791551,-0.7765937714,-0.8039068011,0.7455654003,-0.5874803003,-0.8395797476,0.7252837234,-0.1333402264,0.758566712,0.3250676082,0.9137679384,-0.0899819018,-0.7769685296,-4.2213274892,0.5108508483,-0.1893458091,-0.6000176328,0.6027742215,-0.5481960987,0.7603934513,-0.5509102466,-0.6778524825,-0.3574780009,0.4406648691,-0.3694755139,0.1615528462,-0.8040295609,0.3747240857,-0.2858888698,0.209405158,0.1303105235,0.6746301656,-0.6725360325,0.5182881262,-0.3980804629,0.0621463864,0.7078184233,0.4892307227,-0.8875209528,-0.2346471574,0.0025495591,-0.3783276358,0.1226339494,-0.1686152952,-0.9347779022,-0.1724663087,-0.5753665281,0.4333896976,0.5491020695,0.824351204,0.4235408407,0.8510992151,-0.2934819967,0.4728172437,-0.6916374913,-0.3107841297,0.0292704219,-0.5340157444,-0.1543608279,-0.6107818105,-0.4684932775,-0.5544297143,-0.1870834502,-0.7142310758,0.2849188387,-0.2625145021,-0.5317918115,0.361756966,-0.2720014109,-0.7933477537,-0.7953201551,-0.4379216315,-0.5934160359,0.7973111613,3.2208903345,-0.1722715297,0.3784889813,-0.0243758783,0.8039600275,0.582302247,-76.0864845022,0.8173825377,1.5109169966,3.1444021422,49.1975531697,5.9542919587,237.1220664186,35.9293652613,-7.2163221769,-0.7663893005,-0.2545526309,-1.0481481758,0.7576202194,-1.3258314514,-1.0708637366,0.0715899389,0.7394608854,0.4017801975,0.3841787565,-0.3592667707,-0.5096921914,-0.3767319427,-0.1050975847,-0.7780410646,-0.6381991617,-0.4417158785,-1.0134734459,0.8753816499,-0.4343385133,0.9954560127,-0.6293897595,0.6063028632,0.8703693674,-0.4555116171,0.966748855,-0.7398063083,-0.5210115145,0.044666813,-0.3454420264,-0.9713573383,-0.3860100225,0.2861013056,0.8058596015,0.2241304597,-0.9433855763,0.2638042696,0.624955636,0.6398457655,-0.4033284094,-0.4727091066,0.1204468851,0.3930130736,0.5917909005,0.6997870582,0.7356567745,-0.2688992431,-0.4659493308,0.0396581429,0.3543672501,-0.759747967,-0.9453965833,-0.3113192586,-0.4315757111,-0.6234719023,-0.4049715264,-0.6365374086,0.3519332335,0.2712396409,0.1731703603,-0.5032780716,0.6339143306,-0.5371504973,-0.0393901709,-0.2319444029,-0.8974443186,-0.7210936157,-0.1671891667,0.728990067,0.2732901585,0.5553876914,-0.6609942201,0.2392937892,-0.9624894713,0.6300207441,0.6457485951,0.4111850357,-0.1961157027,-0.451264931,-0.5484928194,0.5515514734,0.7913140049,-0.4696022715,-0.0030299131,0.9144430974,1.000449031,-0.1174001837,-0.2005618259,0.245988945,0.0547706801,0.2917029085,0.0441945711,0.7878239084,-0.0245996173,0.401649325,-0.4599053526,-0.2424942828,0.0771334779,0.8517182451,0.0579655082,0.2869707172,0.6249894165,-0.4980256635,-0.7698989993,-0.4915877977,-24.0513746499,29.8729595561,6.393780664,64.4562247884,-18.7607055421,-66.3002280077,-181.0116569875,0.4010825135,0.9617094358,-0.636000984,0.8401009906,1.1714718516,0.1122021439,-1.0197155531,0.813381778,-10.7028920397,0.475722255,0.0189668507,-0.7013915678,-1.0947590805,0.5576254376,-0.3023803563,0.578138291,-1.0144395968,0.6048941198,0.8237044696,-1.0001137516,-0.4536192849,0.7495965148,-0.7339723953,0.7964866776,0.4520738142,0.246641125,-0.8800470723,0.7377459758,0.3986542467,0.8232132635,0.8713990407,0.3468749137,-0.0232600717,-0.9688176042,0.0406828933,-0.7223630398,-0.5532047798,0.6278688679,-0.3661629019,-0.8434763161,0.8290021996,-0.7106752291,-0.0285299227,-0.1928092919,-1.0302944133,0.8289105908,-0.5716512827,-0.1135275815,-0.184539047,-0.2699015203,-1.0362592057,0.5924752315,-0.3515132249,0.5446464011,0.0083485969,0.1216175141,-0.8478343907,-0.4497538834,-0.338481023,-0.7727075253,-0.0502390126,-0.5122113665,-0.4111299529,0.8436091736,-0.3236522692,-0.0202429275,-0.8603910661,-0.0323694721,-0.4931584935,-0.8509462201,-0.6675952398,0.2202914243,0.413230766,-0.7021000419,1.433610559,-0.5481405899,0.5825865677,0.8757630266,-1.1608992247,-0.8762239434,-0.3559682988,-0.9936522175,0.5999428956,-0.1126184758,0.1683301105,0.1592553654,0.1820504036,0.1746107458,-0.24795924,-0.815691396,-0.3478532847,0.0894571674,0.5931766111,-0.082411,0.6290835084,-0.8486506111,0.2896354274,-0.4587961323,-0.9499987177,-1.0494422089,0.2934774123,0.120406876,-0.9560797403,0.6969164652,0.4417748309,0.7089845204,-0.8806519076,-0.0567860387,0.4275683839,-0.0263724252,0.4610727041,0.3655320936,0.3066005307,-0.7015091169,0.8225972376,-0.1503818642,-0.4053373363,-1.064007813,-1.0236601865,-0.4693519302,-0.4780077454,-0.2638275519,-0.8550822888,0.7095734133,-0.3614933238,-0.9611611774,0.6130921767,0.8134756737,-0.0116608964,1.246131765,1.1655199821,2.613695544,1.1097604204,1.1856619555,1.2316317917,0.6701869468,0.1305235058,-0.915561735,0.3116968885,1063.4695609941,305.2469465064,-1727.1777359424,-61.5011790154,70.5942577079,-39.5132034766,-1.5685646799,22.9420019897,1.2175372011,-1.4147632483,0.2139167407,0.9683423318,-0.9062861084,0.2306853297,-0.1199812827,0.2660956789,-0.7651495263,2.0349290275,1.5842030914,1.8304668225,1.9931657554,0.8479776694,-0.2519197346,-0.6723319653,0.1909232415,-0.2121653596,-0.2187863609,0.0853721995,0.7783736591,-0.9453641636,-1.0892669613,0.5113084764,0.4738835186,-0.1435192312,-0.6174282179,-0.1269600946,0.6895920174,0.234286274,-0.4812349858,-1.0722074641,0.1214218056,0.4877537806,-0.9075966577,0.2263026063,-0.8280250175,0.1591571395,0.0626485312,0.5101592623,-0.8064793209,-1.1076992483,0.4148751468,0.3327062945,-0.9465723204,-0.5601290839,0.6403082583,0.3459673183,0.7644670494,-0.4327165716,0.3219229144,0.1640567185,0.0574322976,0.7815615046,0.6878054198,-0.8663992143,-1.0511917725,-0.6950598394,-1.0019501553,0.1089038567,0.4969607572,-0.3910780153,-0.390988613,0.6742929394,-0.3049125478,-0.9191708552,0.405877726,-0.8060766484,-0.8665103243,0.821080391,-0.2800294642,0.233617987,0.0764510676,-0.4574952014,-0.53429711,0.8417081182,-0.2560344503,-0.2658197527,-0.9735961764,-0.3418994797,-0.2780718227,-0.445489293,-0.9085370405,0.0174276484,-0.9178710635,-0.2981622822,0.0796434804,-0.6225859495,2.1420562341,1.4510912179,-0.0660335513,0.2541113843,-0.3136481268,-0.1205217662,-0.6087707211,-0.490561977,0.9020383328,0.1163086493,-0.3277042756,-0.2848346924,0.2561610547,-0.1554612078,2.0389806548,0.0516718987,1.6588917042,31.5898083651,5.0098058368,5.8684972047,4.7726730849,32.4343577125,-370.2461244149,1131.8245763499,57.8934451942,-0.9899950597,-0.1632467463,0.5272686856,0.7698486188,0.0183509546,-1.0846071833,0.7764509243,0.1715228642,0.9348894228,-0.7807109839,-0.7549439013,-0.2968507548,-0.8271905148,-0.2897827646,1.0308509865,0.9016194043,0.1392205464,0.8401614184,-0.6508564734,-0.11635749,0.8035238678,-0.5807809213,-0.5234719051,0.9883604898,-0.0359929425,0.460533071,0.1918820763,-0.5521472857,0.94833415,0.6892382321,0.0861290044,0.6664652968,-0.2334913584,1.0312139751,0.5231140163,0.8438929997,0.731681672,-0.0638328801,0.362332818,-0.2329600364,0.9470091657,0.3389857802,0.3713491232,0.3569177884,0.7035210786,0.5582445712,0.7038885368,-0.209338828,-0.1959015596,0.6479591742,-0.8112874571,0.3880212568,-0.1555371986,0.6463494408,1.0087053622,-0.0754574772,0.528742634,-0.4631336963,0.1820141022,-0.4644365267,0.1352795588,0.6233378663,-0.6207963925,-0.0040277012,1.0085610797,0.2940473318,0.3141767213,-0.0332807608,0.600080025,-0.5408729087,-0.5721766427,0.243037599,1.512341393,-0.2805491177,0.8735731203,-0.019500395,-0.0091451653,-0.8251055416,-0.0432831962,-0.7007737499,0.4905809338,0.2003773101,0.2707686732,-0.5826452746,-0.8811064029,0.9712564662,-0.1793130154,0.6624493304,0.4668201211,0.1934316352,-0.2937220729,0.6103523096,-0.6795723385,-0.492756676,-0.7494114202,-0.8327487897,-0.9123450595,-0.8799509995,-0.0608801495,0.1741114261,-0.6914030018,-0.5269778575,0.9781224359,-0.8111305941,-0.1641321493,-0.4662861263,0.1059004296,0.6275473066,-0.0341347837,-0.2571844708,1.0622777397,0.674547056,-0.7955354932,-0.7744866505,0.3917284424,0.7082940032,-0.1668494368,-0.7035149452,-0.5726360174,-0.157086521,-0.2929356898,-0.5926578476,0.0885476399,-0.0850977286,0.3453192425,-0.8969803015,-0.2583400503,-1.177977967,0.6027262182,-0.7564194854,0.7477791675,0.7700088893,-1.0350243299,-0.4150429309,-0.0359423876,1.0532945273,0.0329562321,0.3589612201,0.9127433345,169.8836450696,26.7932609656,-46.1159706469,78.2390467522,-6.1965281364,2.5693116529,0.4037948232,0.8621826695,2.4450832071,0.487152376,-0.1583599293,0.2597449805,-0.2580047611,1.0006996858,0.1551838615,0.7593761694,0.376115799,-0.380425078,-0.7052310502,-0.3712998764,-0.2014812672,0.7421831421,0.8850013623,-0.1032840861,-0.6175512354,-0.2490218697,0.6147507161,0.208374652,-0.4098534521,1.0259463733,-0.0047170464,0.8655272235,-0.8089447971,-0.4584053544,0.4713156674,-0.4033836549,1.0468553649,-0.2832300727,0.3643542633,0.1266307082,-0.1611413363,0.1495823038,-0.6834902656,0.7026933083,-0.0388955896,-0.9103929182,-0.3077686984,-0.1074147818,0.4515389942,-0.4445725213,1.0070911173,-0.7198336783,1.0075004753,-0.8091816677,0.8522773703,0.301307623,-0.5087759328,-0.5766497037,-0.6108068543,0.9990574427,0.1468802813,0.1135573506,0.3523506645,0.3252665061,0.0258560346,0.7589333356,0.6247269271,-0.4448759157,-0.6853186445,-0.1265560682,-0.9273674126,0.6753619479,-0.4040239859,-0.9327163712,-0.1268399052,-0.5836298203,0.7326205971,0.8782815678,0.7986081561,-0.1822119703,0.2087096431,0.8425555686,-0.4418964466,-0.3814873755,-0.8552513108,0.0146009883,0.5244524764,-0.773623,-0.6861037648,0.292462755,-0.6554383917,0.5548011895,0.7051085168,-0.316058029,-0.3794222921,-0.8783600123,0.002474441,-0.3037369963,0.2931179522,0.7373190866,0.9342861381,0.136811415,0.1942782135,0.3487013785,-0.3857393628,0.4690087299,-0.7827757111,0.015474401,0.8250694558,1.5336418079,1.5394867055,1.2554657755,0.7937433423,0.6294750991,-3.1018664821,4.9345257244,14.5708811668,-8.308697194,-10.5982742044,-16.160991467,-157.4099675514,0.4906888461,-0.4009554633,-0.6398221261,0.5259502888,-0.3500418789,0.0415535111,-0.9663172815,-0.3188136209,0.3723519389,-0.3211654059,-0.5521341902,0.7777475426,0.7150113949,-0.7620674066,-0.7982696581,1.1241869729,0.3001258153,-0.6754859922,-0.4112975285,0.7991534569,1.2041139549,0.0534075806,-0.0323703136,0.8958892599,0.2556082294,-0.348929876,1.151138687,-0.4604180654,0.6230553902,0.3137678871,-0.6518433983,0.1615389532,-0.7167011422,-0.7346002017,0.9953650368,-0.737157745,0.7900689532,0.3089055511,-0.6025470343,1.0265788358,0.9502465598,-0.1802427137,0.6690947314,-0.4948671715,-0.6451413807,-0.1662432837,0.362051667,0.961161692,0.3212496993,-0.7916064168,0.0038216881,0.6307693373,-0.1625366572,0.7647471229,0.6698252572,-0.0890603264,0.4009854404,-0.6029779725,0.0240510299,-0.0754132916,-0.7593494355,0.2367149879,-0.4861184673,0.2833553539,-1.0163130791,-0.5481253303,-1.0304737689,0.2363223329,-0.9887331275,-0.3715040096,0.9515219336,-0.8781978771,-36.2085952639,-1.8895321042,-0.6716497567,0.7604867033,0.4287906337,0.0778982344,-0.9813945948,-0.383456833,0.6530079542,0.0763093547,-0.4337678061,-0.678066005,1.1470342764,-0.6260645794,0.1308010589,0.2036644078,0.2889722531,0.1758534657,-0.1207527126,-0.2386793231,0.1038753326,0.9781282749,-0.4134487599,0.8501439453,0.2075997611,1.1010724258,-0.2677752513,-0.9155763427,0.1209091319,-0.8559157394,-0.2122461311,-0.8478484374,-0.0829114766,-0.821942693,0.0945430258,-0.5405167922,-0.3630166495,-0.4029555885,-0.0911867787,0.6918444061,1.1088209312,0.8431486153,0.0957466438,-0.5775032389,0.0903176686,-0.1267261494,-0.3293811191,-0.358848744,-0.2926170273,0.5448536508,0.7994438145,0.987921329,-1.2513833285,-0.9054571873,0.699074734,-0.6619308883,-0.9313148569,0.7954448967,0.105229914,-0.4073847186,1.0052983479,0.2584247068,-0.2789209294,-3.0756036948,-0.1834950877,0.3636545552,0.4338618111,23.0299617981,88.1832667654,3.6338559902,-80.8467680385,-329.4534187757,-77.6935787943,-43.9980661204,0.2569064893,15.2540549368,206.659547867,82.4978539951,169.2252353019,-169.5397624267,-10.836468706,1.8381305019,0.813496792,59.0170807746,-0.4721801369,-3.4125917392,0.546406682,-0.5835029965,-6.5017824162,3.9908104082,6.1798821581,1.1277633782,0.8179832238,1.005934195,0.441678235,0.7626147493,0.7825008727,1.0248993488,0.924113067,0.2865838719,0.9187875462,1.1247053111,-0.1767891515,-0.0673669453,-0.7524584047,0.2565776527,-0.0006578792,-0.3853340914,1.2485858583,0.3029584739,0.2925274753,0.198610719,0.9672965616,-0.6714058806,-0.1203554763,-0.4257905046,-0.3771454471,-0.6434824863,0.5706137674,0.7250149412,-0.6633391615,0.0370542073,-0.5276235043,-0.7252322226,1.0289132715,0.6253563857,0.0056644246,-0.0118865929,-0.5135372862,-0.3740422003,-0.6212722407,-0.7299675692,-0.1213756664,0.0415006906,-0.8042697527,1.0678055971,0.5289106684,-0.6110888706,-0.4120292562,-0.3029601317,-0.4812563107,0.7975103096,0.8774181455,-0.5580993636,0.0339495699,-0.0169621162,0.776021101,0.8066816427,0.1712615709,0.734204209,0.1860979129,-0.7172140184,0.5309130323,0.0727191318,0.8462912048,-0.873731371,0.6998898737,0.1377867026,0.4728213624,-0.0109721319,0.7819472492,-0.2743617586,0.5061101644,-0.2124483786,-0.4325709318,1.2652973931,0.0936554049,1.3023548689,0.052778945,1.2955799677,-0.1908486713,-0.5897051892,-0.3077297593,-1.8783772896,-1.4446991789,-0.8530729683,0.2039369107,3.4310080104,-1.9213745886,-14.0261406286,-52.6318944997,-34.6624132338,86.6714932462,3.3003288953,-0.8819227584,-338.1686465679,-3160.9348522121,-377.1376056274,0.8080850614,0.4140069559,-0.712051075,0.1458333246,-0.0349206545,-0.4539184296,0.5860762841,-0.5343514482,-0.5722981528,0.9726838885,0.0170027103,-0.8133593021,0.3062905581,-0.6409098557,0.2652358271,-0.66261783,0.7630623335,-0.6798236027,0.5187464541,0.3859182459,-0.1367787218,-0.0858835451,0.4484105466,-0.5143198624,-0.4029361284,0.9670381075,-0.7083144866,-0.6435817279,-0.1741695387,-0.4248935924,0.8830954873,0.8260532915,0.561733174,0.6183139704,0.0395909238,-0.631920833,0.48905076,-0.2154430981,0.0531146246,0.6393220148,0.6946691474,-0.7304291571,0.8545442698,0.0279365381,-0.5228061306,0.5669426854,0.6694625299,0.2391495322,-0.8868135731,-0.7085450782,-0.7795437939,0.1048344201,0.2166334019,-0.176229658,0.4083369656,0.8492149168,0.9980014534,-0.4499454085,0.82679182,-0.8585267485,-0.8544809353,-0.0977580918,0.8524924518,-0.061505938,-0.4693029976,-0.7784986412,0.8176104326,0.8135966431,-0.2443743559,0.0658189499,0.4804385799,0.1877791595,0.3896988976,0.8188483114,-0.7086334757,0.934268846,-0.2775072609,0.6107149173,-0.807520917,-0.2632187808,-0.5089337701,-0.3265495648,-0.261771973,-0.2254547593,0.3164978763,-0.8837191688,0.3005449567,1.1085830651,-0.6141916475,-0.0519957435,-0.3850224618,-0.3818603055,-0.4685660171,-0.8628361064,-0.4515329848,0.5267260413,0.0724660067,-0.4739779699,0.3555061848,0.4958520686,0.5304187872,0.4949508662,0.6363001368,0.4213395871,-0.8850798587,0.68107043,-0.5448552321,0.0919339269,0.3393311165,-0.745925763,-0.1894527664,-0.8507136589,-0.6975665303,-0.2613362142,0.7970326955,0.5729419002,0.1911102802,-0.3072655864,-0.7156362395,0.6556288422,0.524382937,1.0255888806,-0.2637237696,0.1909796473,0.3936713739,0.9860261342,-0.6072885729,-0.2951648923,-0.4014552252,-0.8426832934,-0.6386169711,0.3728648817,0.6156120993,-0.7687748749,-0.739464277,-0.0078311779,-0.6806631181,0.9144467281,0.1053272545,110.7404875676,0.7544324459,3416.2251488595,-2.0585007999,-1.5666705936,6.9551571706,2.2051859479
