encog,BasicNetwork,java,3.3.0,1,1510395940161
[BASIC]
[BASIC:PARAMS]
[BASIC:NETWORK]
beginTraining=0
connectionLimit=0
contextTargetOffset=0,0,0
contextTargetSize=0,0,0
endTraining=2
hasContext=f
inputCount=259
layerCounts=25,51,260
layerFeedCounts=24,50,259
layerContextCount=0,0,0
layerIndex=0,25,76
output=0.0057805134,0.0085599388,0.0057506306,0.0026212043,0.0139345215,0.0031631323,0.0049102846,0.0013988433,0.0125412791,0.0028460552,0.0094395301,0.0079306332,0.0430525851,0.0031315278,0.0046435342,0.9279135914,0.0001160813,0.0001159598,0.0001160336,0.00011614,0.0001161147,0.0001159938,0.0001160579,0.0001160306,1,0.9907223855,0.9984759443,0.0021105701,0.0052926769,0.0003500512,0.0024507856,0.0086346601,0.0115427647,0.0002247898,0.0011482982,0.0071141521,0.9982582487,0.9971997275,0.9977602396,0.000379842,0.0006578876,0.0006072961,0.9994765193,0.9995149509,0.0038536974,0.0013088387,0.9973142374,0.9900222855,0.9966981637,0.0014174931,0.9991463757,0.9783543227,0.0166954398,0.9978127114,0.013472913,0.0047077212,0.0055006773,0.9956307794,0.0008415014,0.9988966789,0.9986177255,0.9958351067,0.0013592056,0.0014509269,0.0009744544,0.9952281208,0.9342302926,0.0008974208,0.0057346391,0.0056008818,0.9908896074,0.9989189842,0.999834312,0.9856240421,0.0042199759,1,1,10,13,15,17,19,20,23,25,26,26,24,24,23,22,21,23,21,23,23,23,24,24,24,26,25,24,23,24,23,22,20,20,19,17,14,12,12,12,11,11,12,12,12,11,11,12,12,11,11,11,10,11,11,11,10,10,11,11,10,9,8,7,3,0,0,0,0,0,0,0,0,0,0,0,0,0,3,10,17,22,28,32,36,39,42,43,43,43,42,40,37,32,29,30,31,29,28,28,25,27,26,25,25,28,29,28,26,25,24,21,19,16,12,6,0,0,0,0,0,0,0,0,0,0,0,0,0,0,0,0,0,0,0,0,0,0,0,0,0,0,0,0,0,0,0,0,5,6,8,9,11,11,12,13,13,14,14,15,15,15,16,15,14,14,15,14,14,14,14,15,15,15,16,15,16,16,15,15,17,16,16,15,15,16,15,15,15,15,14,13,14,13,12,11,12,11,10,9,9,10,10,9,9,9,10,10,10,9,9,10,10,10,9,9,9,10,9,9,9,9,9,9,9,9,9,9,8,8,9,8,8,8,7,6,7,6,5,2,0,0,0,0,0,0,0,0,0,0,0,0,0,0,0,0,248,433,351,14,1
outputCount=24
weightIndex=0,1224,14224
weights=##0
##double#14224
   1.4455375251,-2.3766290039,-54.6509380154,-5.1669736947,-1.4173297238,0.2770327629,0.0094314624,-10.1797025826,-0.785488777,-0.4168389241,-0.0135487127,-0.210706026,0.6613317682,-3.036201697,0.2005322476,-3.034808421,-2.0035795023,-1.4023879748,0.106595328,0.2149748589,-15.5204452311,-0.548802062,0.3115708792,0.6022334797,-1.7242806594,-0.7238747762,-0.5282509605,-0.4736495539,-6.1436793539,-179.4840298192,0.1472037936,1.1965115717,-24.3366346569,-0.5860743793,0.6735858293,-0.6108068207,0.4604994574,0.7989583373,2.7790608592,-1.7526797747,0.0020905339,0.6449610512,-3.4848555108,-0.9554719584,-4.4772118112,-21.5303845096,0.4877140888,-0.7489548876,-27.5840695053,-0.331183625,0.9520146068,0.7361203847,-1.116582548,-12.5073239599,0.3123102797,-0.7073959225,-0.0498797599,-0.447946126,-35.5947094573,0.8430208203,0.7229725424,-11.2752425809,0.5184960415,-1.398854191,-0.9527214,-0.1292574831,0.9039182401,-3.6156035398,-1.7062299416,-0.5176786524,0.4005364555,-0.8585408801,-0.1400336219,0.6987623682,0.563341011,0.3565472435,0.5539095453,-1.6522097967,0.0359718476,-12.0222590339,0.8616138177,0.6452341953,-0.2908803518,-5.9166532297,0.7363492137,0.2729727899,-0.4002637684,0.3375162657,-14.3160781986,1.1434967414,-0.4712852308,-0.8901920016,0.8890925364,0.3604528193,0.6065453895,-0.1517568305,-10.709788402,0.4607348962,-0.3886861957,-24.0727263669,0.3485720793,-0.5063370215,-0.5203216804,-0.2726113757,-68.2520783001,-6.7887015577,0.1138336018,-0.2654835707,-0.1047856375,-24.2608672603,0.1654816233,0.4196211586,0.5362148385,0.9765993459,-0.2319340543,0.8603332013,-1.2616190053,-1.4159173388,-13.2591128945,-0.875144471,0.1831055819,-0.4133787201,0.3667284385,-0.6409998572,0.6110296223,-0.5720203718,-0.3949825416,0.1382201817,0.5640438134,0.72051046,-12.0624932999,3.7735843534,0.4099387813,-0.1423400162,-0.5210685219,-0.2354175326,-0.5259189539,0.1593206365,-40.7561704324,-0.1404756884,-1.1269008411,-11.3466370354,0.7063018698,0.2197823155,-9.6007865659,-6.3057115232,0.6601994368,4.6073964217,0.1574068968,-0.1920629024,-39.1966169407,0.87271299,1.0014969571,-0.7727424466,0.4235733659,-0.8750737054,0.9714819944,0.7967251651,0.1956052995,-0.5449932335,1.1263256634,0.664703717,1.1706535149,0.0191748252,0.3639865307,-0.7130722356,-122.1519648426,0.2420273106,0.6045817573,-0.4622340095,-0.5200834029,-0.4624926637,-1.7993767226,0.9740471785,0.6116712029,0.0798132718,0.3518574889,-1.6284586616,0.5839457928,0.430891781,0.8646458204,0.358030827,0.0285717125,-0.2853531524,0.3668484033,-1.0950014022,-9.8818748577,0.7918220377,0.4558309362,-13.351241834,-10.613527487,-0.3634809468,-1.2986160031,0.3424428329,-0.061542727,-13.2536641197,0.3792957045,-300.9947216064,-17.681804298,-0.6409952793,-0.6312747037,-35.9482523959,-0.5513472965,0.1775464021,-0.5349737148,-1.047887545,-2.1231911952,-7.3675931112,-2.6182826951,0.6218528798,0.2793846215,0.7239196846,-1.8018481762,-3.427793904,0.6846914868,0.3182820006,0.6711928112,2.9213193781,-2.2737841884,-1.1375520849,-1.5299550564,0.0738894466,-0.1718907403,0.2528906956,-30.2970060303,-0.3033749465,0.2979061678,0.1733554223,-1.8366966569,-0.8365375278,0.2409861658,0.0208642825,-0.247101513,0.1687198396,-0.7142585563,-2.9705387688,-31.6045907177,-5.0156533904,0.4281913919,0.288466226,-1.5001384948,0.9164637278,-24.6807685531,-97.84751563,-0.0455348952,-0.6225724215,-21.3840422032,-6.8453592022,-10.1810450882,-1.2924042657,-0.7489916946,0.355789851,-2.0547699736,0.0309810206,0.483599497,0.8085244977,0.9504200653,-1.6392402065,0.8941856266,0.1566538215,-1.4113877988,-1.9548919115,0.8492837978,0.635968046,-10.2720013622,1.2022911491,0.5621799514,-0.5775848954,0.6610796522,-0.7123297593,0.2795808653,0.6979022239,0.4557028771,0.0288762368,-0.451255958,3.1714791359,-0.6707823976,-0.8921298001,-0.1236457275,-0.6078064996,-0.7519909066,-0.5672922518,-0.2547336066,0.3622180793,-42.9317735044,0.461887149,0.4597048618,-0.1267762803,-0.6531972244,-0.6460846863,-1.0990350386,4.6094229005,-7.911849411,-0.4605024718,-19.3018210576,-0.2492867432,-0.1630283867,-18.7694060825,-0.7636931724,-0.2701225376,-0.5645642392,-0.6271957644,0.6044199481,-161.1573647448,-1.4323389371,0.4194942223,-0.5533005232,-0.1584450071,-24.1921599349,-0.2400838512,0.6900136539,-0.1207173386,-0.1008722813,-16.8651856107,0.080950756,2.2707558562,1.3524700051,0.8117064777,0.4328433145,0.287358656,-0.526862649,0.4742241299,-2.1060587464,0.6248931932,-0.0421110794,0.261441522,-159.400221964,-0.5163305463,1.0014551932,-0.3005893259,-0.730943517,-0.5427859754,-5.5116776455,-0.2210940216,1.2953360889,2.3398849282,-0.284088018,-0.1163723903,0.8467879568,-0.4386065983,0.1669724593,-0.0203028572,-0.0824024676,-2.838247233,0.1189007595,-5.1855005765,-1.9244198117,0.0792537064,-11.4134631242,14.3982420823,-1.2545651627,-1.562498003,-0.7089888482,-0.6065694781,-94.9459801744,-30.900806103,0.1049393782,0.4330560776,-0.4553071307,-17.5642110932,-0.8512390807,-0.2701664624,-0.1477335304,-0.3101487911,0.1579498969,-0.4659144979,0.7436342606,-29.6735732957,-0.5383700025,-4.7981542408,0.4256260691,1.1246344197,-0.5593804763,8.5379223385,-2.222344244,0.2042527532,-0.3666386788,0.2639993008,0.4538486585,-0.3147641833,-0.4648193054,-0.9920693242,0.3633647251,0.2264125682,-0.2392797179,5.6854335365,-1.2445989052,-0.7210299391,0.2392844121,-17.5015187401,2.5721567869,0.1850763382,-0.2727382209,0.026617246,1.1193262143,0.4071020259,0.2895901197,-0.5883552803,0.6935567919,1.3393098715,4.3612644224,-4.973156678,-39.8162123191,-0.1068515677,0.3749448188,-302.5026617992,0.670916838,-0.4029640275,-0.4103136204,0.638180516,3.1270685783,1.3693566306,0.3568931136,-0.5449512063,0.4122634119,-0.0143668331,-0.6501738574,-0.2471954091,0.0216789116,-3.5305830407,-1.3460522965,0.7192772059,0.4456781783,-0.0833906983,-0.2249151345,-1.5272054983,0.5230822977,0.6869203253,-0.4125164658,-0.2921129232,-2.9560005968,-0.2634452697,-0.3017630375,-0.6205353284,-0.631396184,-0.3947755651,-1.9877911611,0.4828852602,-0.3222152724,0.4217956268,0.4400301232,-0.3609184205,-1.4049687383,0.8309714795,-2.770388614,-51.3978745367,-0.5497770387,2.696858086,1.1454403618,0.2287837266,0.3919153707,2.6702705874,0.7345458447,-4.5056754132,0.3734514128,0.2760013964,-21.319220048,-0.2073139803,-0.8445403419,-2.5281360542,-1.0060573048,0.5573681883,0.4286746529,0.639443297,0.3905093869,-0.6652761469,0.427870028,11.3931963371,0.7657782283,0.6437699842,-0.236723565,0.7015680115,-111.9367695991,-9.9316681303,4.0019588143,0.3825282245,-0.7566682227,0.0998408649,-1.1330656109,0.4301151858,-5.1218601127,-0.2805810166,-1.6126459057,7.9056137719,-1.7914181061,0.2732243773,-0.477213221,0.9706796389,0.9490781757,0.7323328444,-0.454813339,0.3932511784,4.9612871725,-12.1138206936,0.2900765519,-35.933689172,-144.5624849252,0.6701352204,-1.4209111249,-2.6785309317,0.492986572,-13.7759555717,0.9116683385,-2.7717082306,-0.8272790942,-0.2216793011,-0.1190586298,0.0895341703,4.4463332434,-1.0931269556,-0.88339856,-0.098484263,-0.5959125831,-0.7018146798,0.5480705398,0.4124174423,0.0556288614,-4.2739724785,-0.9490659451,-0.8518705278,-11.3726061449,-0.08537172,-1.2640854246,0.73293702,-0.4524312866,-0.1176767278,-0.0951418744,-0.0586438214,-0.6203042097,-0.1637071845,-54.4398839319,-0.1582672995,-0.5476774147,0.088207842,-1.8603944607,0.0378312059,0.3115507866,-1.02696097,-35.4823749031,0.4569698468,0.2335361892,0.4214727742,-12.3190503922,0.6165532903,-0.0322507802,-0.8049173603,0.2226695,-48.2702887852,1.3089335502,0.4189707241,0.72232255,0.3513541752,-2.58276292,-3.5873209924,-0.4839103973,3.4482311016,-0.3962634226,0.5497270429,-6.288427643,0.1167424068,0.7369861142,0.9588136924,-0.1080775762,1.2115878278,0.088161357,0.2754391517,0.1890970874,-0.4254390389,1.3927566034,1.22363362,-3.4979531939,-0.0358389519,0.5031920606,0.5450661244,-0.4927923117,1.3410599775,0.4214599869,-1.0194678239,0.1446083911,-1.0548688064,-0.9195225962,0.7440807528,0.4992861699,0.1110358925,0.4812638043,0.3408207831,0.7147282282,-40.7096375803,-0.3181264298,1.2645537023,-1.543524713,0.6586404386,-0.5980721842,-0.2474183071,-7.4513038597,0.070078272,-0.7426834325,-4.9420214391,-618.7388196737,0.8670185447,-5.8003465565,-0.2604249587,0.8715755013,-3.4671074471,-17.7491995982,0.5516102286,-12.4590131563,-0.3112034547,-1.0459821738,-6.6828722211,0.7585974869,0.7718130393,-0.8290257403,1.0910026121,-121.8043637858,-190.6952903747,-0.3336890141,0.5536975151,0.1990213305,-63.5745866185,-0.1992402656,2.3970706084,0.7547160481,-0.1464697253,-0.2316473882,-0.3996555597,-0.1804231943,-1.3386448612,0.1123573166,0.3326337827,-0.1081102677,-0.3795330302,6.3024790469,-0.0172544728,-0.0087284049,0.7082916125,0.1922761824,-0.6045774854,-1.4441394968,1.1885020196,0.7514928143,-1.7631298873,-19.0538519421,-0.8656805102,-3.1539712009,-0.2120157717,-0.6766674039,-0.4106597357,0.3269861344,1.2427741954,-0.8266819117,-7.8207827295,0.0929830812,-0.6447595061,-1.554500123,-2.9303809666,-324.5659952029,-1.7320965567,-0.6763343617,0.3846444347,0.566713583,-0.7055471361,0.043712023,-0.3161657561,-2.2411907027,-24.699375666,-2.7616249672,-0.1741477758,0.9380329614,0.1180868561,-43.8401935061,-1.0064525412,-1.7112172664,0.7936252504,0.4769156003,-0.4053517894,0.6962233937,0.9684935134,-1.8628195277,-0.0119115334,-0.6212069504,-0.1107575195,0.2622488325,-155.3551985904,-0.8807014815,0.2159023526,-0.1622037113,-0.3761220458,-1.0667361283,0.8321686771,-1.1266354051,0.9341261651,-1.1263449403,0.0919616656,0.2971817166,-156.8929970195,-0.6857840638,-0.6171002412,0.0528528673,-1.1542435042,2.4520112576,1.1228720022,-48.2949604142,-0.7924938401,0.4388794613,-28.2695052092,1.0303708396,-69.5915684778,2.3238212883,-0.37710475,0.6901998886,0.7059434002,-1.0698054602,0.241002875,-0.1936197617,-1.1498059702,-2.8019924149,-10.6365931114,0.2190359529,0.1166909737,0.772970393,14.1759667603,-1.2094086669,-2.5892984924,0.0771861042,0.25911893,-0.5188776421,-6.8109528143,-1.2302168152,-1.2863925118,-0.959115552,0.824478161,0.392640573,0.4305720979,1.0097514465,0.0783253296,-0.8089638195,0.4417143615,0.9615066159,-0.4785745883,0.4108026428,0.5422412259,2.9963418562,-0.5991293406,-0.1000209213,0.6100271098,-10.0489389456,-0.1355862468,0.2975121001,-0.0536496673,-75.4799219396,1.2773475876,-418.942552108,-1.3390052424,0.151385913,-0.6610208005,-1.2571424184,-1.5291623369,-34.1813366445,2.9812348457,0.2209775691,-1.0386896702,-18.0644397906,0.0785066108,-0.3709940178,0.2471508339,0.0393008604,-1.076174647,-32.905572387,0.4970682344,-6.9689560242,0.1600076072,-10.3985167486,0.5580579236,-32.0364230779,-17.6356894844,-0.6571084892,0.0466621545,0.7508374091,-0.933662402,0.2683007892,-0.9691658242,0.7395557226,-1.1962021121,-0.2393484188,-5.5301447554,0.7230831973,-0.4010568066,0.5255075702,-0.5185054844,-0.7674635583,-0.5708713893,-0.8362620811,5.1747735739,-2.2034748897,-0.1379565455,-0.5780224733,-3.4895063158,-0.9421535633,0.6608313294,0.4963986668,0.5170997708,-78.0916590634,-17.8784025776,-26.0058666933,0.089365795,0.1332862111,-1.2108190157,-0.4624346095,-0.0718528309,1.1277106498,-1.0390574098,0.6042522523,2.9279332174,-3.3613537159,0.0110941227,-193.1427864621,-192.6254696843,-120.850844093,-164.601159676,-20.6795934921,-193.3972784876,-192.2409024063,-120.704822734,-24.8902942676,-165.8329935725,-164.8665099164,-193.6856870494,-192.3232185498,-164.798751245,-23.641605673,-28.0977458181,-23.4325014318,-193.3300849042,-193.5347013562,-192.7487674344,-103.7931340962,-191.7505729822,-193.2392869713,-192.5898003307,-21.4612203109,-192.8015741003,-164.8567184412,-192.8993421771,-164.5189990809,-141.2264397339,-193.0990828117,-193.6345533565,-140.9098797364,-63.379821499,-192.262696126,-192.4446683798,-164.9707976281,-140.4425665654,-164.2459222548,-121.6144745266,-191.8888313546,-193.6381130817,-74.9744397575,-88.7576674346,-120.5476488343,-121.0441140357,-192.825144904,-192.6503619279,-120.8775492675,-193.1739503068,-192.0810490187,-193.3939068205,-192.8146994089,-121.4388776305,-165.9022866638,-20.7576918472,-191.7658468493,-193.1925572428,-120.7370671192,-20.1523796554,-166.0223486006,-165.3180814811,-192.486647452,-192.8572642169,-164.5903280567,-24.3881650934,-29.5586380436,-24.4166797625,-192.2912899695,-192.6228171033,-192.3147437056,-103.706231711,-193.0253403311,-193.6573279076,-191.8906231218,-21.0338110106,-192.8786158172,-165.8879142206,-192.4617769849,-164.7903351318,-140.5347464959,-193.3582753998,-193.0998133073,-141.7301046347,-63.7707859834,-193.6690014979,-193.6179211012,-166.0875148245,-141.04758264,-164.4895090698,-121.5142575385,-191.9575039549,-193.3458483321,-75.6989978112,-88.3433398564,-121.2320460333,-120.7697588711,-193.0610063743,-192.0016387306,-120.5716669563,-192.8408984579,-193.321041244,-193.6100011517,-192.1868756001,-120.6792535923,-165.966785811,-20.004976014,-192.2550015081,-193.14879059,-120.3131157895,-23.8371796884,-165.0193571279,-165.7972035679,-191.8701800944,-191.8126736832,-165.6374633388,-25.2310199026,-29.181566664,-24.9684560276,-193.3484658684,-192.8737722933,-193.1471232545,-103.0364575505,-192.6953667122,-193.3657155659,-192.488112194,-20.3317963437,-193.4909457753,-165.3115494129,-193.2984875893,-166.0585716492,-141.8775794811,-193.4687549765,-192.0315206585,-141.0802233014,-63.5890898862,-192.0731762064,-192.7028500194,-165.1876640669,-142.2920366183,-165.7547133912,-120.0607611971,-192.1039194693,-193.481085196,-74.4098467989,-88.0818506058,-120.5607343799,-120.9353311135,-192.558801757,-193.1398071049,-120.6650090658,-192.0599774122,-191.8741881116,-192.4648619315,-191.9656024557,-120.8688933131,-164.7053887721,-20.0952106205,-193.1067670558,-192.8402606661,-120.0693260687,-24.2571339585,-166.1056463336,-165.6510900644,-192.6665925204,-192.1695066935,-164.7624367755,-23.8340676089,-28.4884065474,-24.3246371998,-193.4537458812,-193.1030341626,-192.3761430693,-102.6427077741,-191.985487153,-191.9988910877,-191.766110181,-19.781495718,-193.6186765638,-164.2532055281,-191.8941131124,-164.6059546964,-141.2699203665,-193.605656861,-193.5186297425,-140.9955908373,-64.9866561138,-192.6651306488,-193.3054755831,-165.7241720245,-141.9679359249,-165.1332248432,-121.8133372349,-193.3975384278,-193.2583765567,-75.2042081479,-89.1670091338,-120.321674742,-120.1238331965,-193.0738846951,-192.9293172658,-120.173908066,-192.1659790494,-192.1005269933,-192.0939689782,-191.7914523936,-121.0466935989,-164.6595928874,-19.7940186405,-193.7012441316,-191.8290111806,-120.9040750096,-24.4145495404,-164.7464940043,-164.2141387893,-192.758559959,-192.5240949312,-164.3237956729,-27.6831832222,-29.0577718286,-23.6047176873,-192.3636286905,-193.3901304004,-193.0142052258,-119.984968112,-192.7126556385,-192.4691737782,-192.9658477321,-19.9143588406,-192.8602687941,-164.9923536827,-192.1749707018,-165.1526489077,-142.2050381857,-192.6812941218,-192.8378432533,-140.6186298789,-64.0263323389,-193.2334485543,-193.6031747106,-164.4529614173,-142.030482588,-165.636603044,-120.3843810142,-192.6086567467,-191.8164599426,-75.4720058445,-88.79006549,-120.4670353084,-121.2399665905,-193.0597766336,-193.3878059717,-120.735686376,-193.6698318901,-192.2489554927,-192.9993627317,-193.6337952211,-121.2492370401,-165.3982215204,-20.5135315795,-191.7224744736,-192.6597787154,-120.3318371537,-25.2625637584,-165.2950574835,-165.9523431938,-192.1441862143,-192.62994856,-165.0225992017,-24.5905515885,-28.2209682662,-23.9723517648,-192.4926799214,-192.1624876144,-192.0924015665,-102.3900448147,-192.7546836717,-192.9610187804,-191.7259925097,-21.3383322704,-192.9623369248,-165.054609601,-192.4363514109,-164.5745314207,-141.6253402903,-192.7435359536,-192.6956422818,-141.8943003568,-63.578398605,-193.7142924073,-193.5589249966,-164.3173480005,-140.9959482827,-165.4087872906,-121.4462650214,-193.5972385334,-193.2568384974,-75.5453717868,-89.0594736964,-121.4583569086,-120.1906395768,-193.569265324,-193.5308904538,-120.087895238,-192.344002797,-193.1732411621,-193.2463519237,-193.6341859087,-121.7016251817,-164.4892404726,-19.570687993,-193.6159242697,-192.2814715995,-119.9913324037,-25.0587001749,-165.3781554797,-165.0501786828,-192.8792648856,-193.7094424381,-165.9036552215,-29.5191360051,-28.3887476445,-24.1325511752,-192.0612013765,-192.8254886102,-192.7431779564,-119.940573807,-191.770791036,-191.834557437,-193.7191134888,-20.1633043306,-192.0861047899,-164.7859337151,-192.8483925911,-164.3137460545,-142.0542489965,-193.5757074,-192.1321127605,-141.5117631062,-63.4964841033,-193.5007660613,-191.7617510313,-164.1463520247,-141.0229797078,-164.7040058739,-121.4546115182,-192.4327959038,-193.3455388325,-74.817738778,-88.7675614489,-120.3917849378,-121.8852707645,-191.8057216932,-192.548729098,-121.5277163878,-193.4714877525,-192.39392344,-193.2524355921,-193.4432643503,-121.294782058,-164.8922588796,-20.8434809083,-192.9711396803,-193.6997724694,-120.7557812887,-23.4257549833,-165.5813429383,-165.5657639201,-193.2242698332,-193.270415364,-165.0997314276,-23.5913600901,-28.096072861,-23.9884455102,-192.65202252,-191.7690271747,-191.8003073164,-104.1645615304,-192.3143896158,-192.7759846772,-193.6574786362,-19.6471198292,-192.173350332,-164.8286500317,-192.2234844744,-164.8063078275,-141.4656832262,-193.2550543108,-192.7210053965,-142.1251959611,-64.0532313129,-193.1954084681,-192.5313932052,-164.9992096296,-141.6365117182,-164.1833601301,-120.915144876,-191.950658375,-192.4401188665,-75.4538805558,-88.4713116,-121.4433036821,-120.5523245422,-193.6156104896,-192.2572799799,-121.6235603109,-192.4447348511,-192.0510080214,-0.9071688811,0.336300596,0.6715700854,-0.0221119172,-0.6696885475,0.5922235103,-0.7662886441,-0.3031010121,0.8328969973,0.7232305481,-0.0750351602,0.2667547888,0.4628219224,-0.8216451806,0.5485072676,-0.693837781,0.3859275266,0.09030355,0.2164151167,0.6799536052,0.3009190057,-0.5975146394,0.2655080101,-0.2579737243,0.0337987597,0.0283640647,0.4953204317,0.4429356307,-0.8003820392,-0.0931633884,-0.3063659071,0.1546165189,-0.3287372517,-0.4031714691,0.7836224286,0.8375634591,1.1699364798,-0.1580621762,-0.2177497025,-0.3032177146,1.1129638715,-0.3314052293,-0.4477776687,0.5811916782,-0.3688006421,-0.1587898223,-0.351639209,0.9898658857,0.1955413814,0.4875840096,-0.2098009304,-0.7445595455,0.559849095,-0.9334747868,-0.240544973,0.0912713211,0.238924125,0.7966045892,-0.8661212412,0.5241134159,-0.4981050345,0.1985750756,0.0327657057,-0.6252702287,1.0640743133,0.3640389193,0.734844017,-1.0625533193,0.6677083642,-0.5944516534,0.2477020575,0.9786191099,0.3697014703,0.5634992343,-0.2255248654,-0.1951887611,-0.8666346708,-0.2050342475,0.9558848048,-0.1268550162,0.0570950444,-0.2620837738,-0.5100604398,0.5832561842,-0.1888565452,-0.4908212252,-0.7713423958,-0.5824507476,0.1499191741,0.9194440793,-0.3270684872,0.4323495719,0.300752647,0.2920536313,0.5344573712,0.62458552,-0.3587986029,-0.5753393899,0.5400639106,-0.2896313155,1.0810649584,-0.6857321203,0.9026356788,0.3881313931,0.8228653259,-0.6824628582,-0.5061176275,0.3577076101,0.920414483,0.8184030576,-0.5485008951,-0.92790869,-0.9174549859,0.1499870199,0.0099856952,0.0894884124,-0.6532276693,0.6638535141,1.1134888567,0.3575029101,2.7406835638,-0.5328445276,-0.4856110186,0.9597750298,-0.3751101005,0.435616468,-0.2193404156,-0.5383478662,0.8289678951,0.5059116284,0.7899126117,-0.4521008563,0.0629610411,-0.0240189734,-5.273273178,-6.624659789,36.2299016882,2.122789217,4.4382826205,-1.1587198114,0.1625507497,0.3847219412,-0.6197320323,1.1881169489,-0.3362747695,-0.664689724,-0.5271507356,-0.7999587832,0.8942055153,-0.9242566157,0.0753427086,-0.2267582421,0.7014877148,-0.2200871776,-0.5566948013,1.0492574604,0.2916468876,-0.4803118633,-0.72154333,1.159907814,0.591683022,0.6861253707,-0.332695955,1.1230988386,0.1759322051,-0.7979434465,0.3931698656,0.1971842286,-0.2307928035,-0.7312567628,0.1751491462,0.7488584059,0.3342877306,0.7873361669,0.9420617174,-0.1752422386,0.8602437899,-0.9062783658,-0.3557176875,0.0061175494,0.6807928915,-0.4225805375,-0.0877457937,0.6779869721,0.7614649209,-0.2896889113,-0.2741760913,-0.1009668501,0.822360994,-0.5278158913,0.9187038661,-0.1824843015,-0.4422048742,-0.1605553464,0.3810488566,0.6695743495,0.7166665879,0.7810438575,-0.3870825818,0.9734269627,-0.4343298476,-0.3790672472,0.7875439007,0.0408155777,0.0785100671,-0.3829198503,-0.0754905886,0.0537551261,1.164622502,0.1361482689,0.0354657805,0.0841826335,0.9422187615,0.0639549119,-0.6331087906,0.6499167267,0.8515014795,-0.3457265497,-0.8652352734,-0.099795938,-0.626444677,-0.1528381688,0.4392153972,0.0755288437,0.4381817945,0.146464674,0.2907557477,0.8898645977,-0.1863320891,0.8010415179,-0.938976257,0.369115864,-0.9026279098,-0.5669041935,-0.6083098601,-0.2513414791,-0.2102639677,-0.1333875501,-0.1821236919,0.0585997015,-0.4013602136,0.9712146758,0.9488950204,1.8383254537,0.1212561154,-1.0575289978,-4.3551271437,0.2659712245,171.958808329,1.4935948488,-9.7584442859,-5.4424470641,-0.116944405,-0.0580250577,0.260329253,0.6499225584,-0.573849893,-0.2924789316,0.1830973642,0.7100561205,0.3823970524,-0.3332160945,-0.6057470776,0.7504287805,-0.1675142418,0.2712607534,1.0086512844,0.4968265514,0.3190001464,0.6258276645,-0.5876732364,-0.1955554431,0.3359411055,0.0114615648,-0.5860480502,-0.2824332228,-0.4528489443,0.2507957246,-0.6298081333,0.1006441881,-0.7767752257,0.2500048006,0.2391537232,-0.2405127266,-0.6916291991,0.9185278218,0.7842144317,-0.0656200217,0.8457469281,0.066313065,-0.2013904309,-0.4387599311,-0.9349683871,0.5005736331,0.3225095412,0.630047067,0.4319329514,-0.0846330367,0.1552021018,0.0135448836,-0.0955197274,-0.1440710729,0.6393005851,-0.6279894834,0.6779285482,0.198598708,-0.0780430787,-0.6377083629,-0.6624443215,-0.8284460279,0.4855521656,0.2990342827,0.5548002296,0.3034591137,-0.7164246264,-0.7395491941,-0.6963924439,-0.6627646702,0.1640337427,0.4134409865,0.781174958,-0.1838578143,0.1525428249,0.2459382402,0.3802194011,0.3196835762,0.3208860109,0.3369319641,-0.8034268919,-0.8214874091,0.2440599745,0.6267333217,0.0148252224,-0.0705612741,-0.0586255736,-0.3330500948,-0.715920229,0.6846701603,-0.1829622996,0.8674102943,0.9888541265,-0.7615782257,-0.7227829151,0.6106243177,0.6443654705,-0.7668683182,-0.5739541114,0.2502265234,-0.2008601415,-0.8645507083,-0.7064746737,0.4210462155,0.7842973397,1.2153065697,0.1240365858,0.5714262235,-0.5218286178,1.0264969832,0.9651452705,1.0521430749,0.0554229876,0.2347821089,-0.2545789009,0.2098790755,-0.5727547349,0.1439404573,-0.7459061369,-0.8189730225,0.634502645,0.5546295142,0.345824206,0.6797134655,0.1678779889,-0.2652492535,0.3288090802,-0.9709542956,0.5041184187,0.8393326972,0.6306700051,-0.1995779872,0.3133418107,-0.3275371761,-0.5859046736,-0.7212213659,-0.6320007487,0.8156014969,0.1584409778,0.7330754361,0.7872835621,-0.3915992453,0.6675097453,0.9089672022,-0.6724066246,0.3047910012,28.7996302538,55.1552886208,0.9386484945,83.1621945323,32.7773813451,32.5919269847,11.506607418,10.4436811484,32.4457031234,32.1732363804,0.5506436872,0.641286186,0.3964750906,-0.3988833803,0.9936505984,-0.0947210047,2.9448299013,-1.2065939792,-0.4624756753,0.2881227849,0.7516161642,-0.0337616703,0.7155843769,0.4427952097,0.8729149851,-0.0383665172,0.1746750695,-0.2585601418,-0.7236959487,1.115299645,-0.068271115,-0.6294290128,0.7400396603,0.9390683243,0.3209965768,-0.1837989416,-0.4978162692,-0.0875583976,-0.5822866304,0.0222358876,0.0859098177,1.1055409514,0.5415843938,0.8033973946,-0.6463742108,0.8123327027,1.0475857998,0.5652409198,-0.0472351148,0.3785037109,-0.282067334,-0.4587176111,-0.1268887297,0.7319964684,-0.0619035409,0.0990818063,-0.6651190972,-0.7903794694,0.6512876632,0.3579225021,-0.0370913355,0.8468876829,-0.0049306615,-0.1735021405,-0.1212765126,-0.8696005088,0.2712488369,-0.9275252386,-0.3898202751,0.6553217626,0.9139821706,0.8911759837,0.6089023802,0.9850723553,0.013670895,0.2518227064,-0.288960736,-0.1366315934,-0.6637586438,-0.1793558247,1.0912730087,-0.3090392259,-0.4645059688,0.3910463786,-0.2029567567,-0.1067404015,-0.1968076578,-0.8033160398,0.4559171593,0.8651421729,-0.8378353679,0.6597203748,0.5613367185,-0.0117865083,0.8197554398,-0.9824333306,0.2596079125,-0.3733519346,-0.0108824538,-0.7023093907,0.3339574595,0.5220515599,0.7011237686,-0.7709772338,-0.479181425,-1.1164261701,0.2030610562,-1.3221548394,-1.3403797422,-0.2819435376,2.5704366098,13.2412535682,-4.3284654171,-66.0740745489,433.0491641531,125.1370029242,7.2009882427,0.920625397,-0.5547640375,-0.3603413194,-0.5274459581,-0.6149184047,-0.1286661827,0.8159444859,-0.4812635831,-0.4622913932,-0.3083521086,0.6924497933,-0.5755266297,-0.5361026219,-0.7601820516,0.9395028166,-0.7691017839,-1.2180230887,-0.1006216895,-1.2097115782,0.3870009076,-1.1265265678,0.6475882253,0.6368566288,-0.0933552745,0.2709181189,0.0670347712,-0.977715709,0.1454007325,0.6865582062,-0.1723728551,0.236554267,0.062502208,0.5228064804,0.1425172622,0.0443415872,-0.0650687518,0.7444765686,-0.0194852913,0.0623146983,-0.1370908001,0.3667879927,-0.518482593,0.0876036877,-0.3973330535,-1.1202119881,-0.1484345233,-0.5918766628,-0.8344971019,-0.4621094235,0.078867156,-1.0054852614,-0.6786392126,-0.0893858351,0.5967383646,-0.0987359054,0.4819881011,-0.5622860467,0.4552376979,0.3976164938,0.4099478611,0.3346165006,0.6136884967,-0.0248511934,0.4357251938,0.1891677471,-0.7058305499,-0.4974046813,0.1163693472,0.3618942513,-0.366837612,-0.2490981131,-0.5860939824,0.8244752364,-1.5311919553,-2.0497318729,-0.6518571314,-1.7567200326,-1.7109021956,-1.3239398381,-0.4366562843,-1.1369535411,-0.8514263859,-1.1270268004,0.7656478168,-1.1174383926,-1.1341108266,-0.0051803187,-1.1535595697,-0.6508905951,0.3556848357,-0.4110140112,0.4336636586,-0.6161850642,-0.55719303,-0.5442742365,0.353174093,-0.368821722,0.345186401,0.0175714805,-0.711790605,0.2825364747,-0.0485526906,0.4762514104,0.1650589244,-0.8877514704,0.7739106372,0.6369746582,0.6722879138,-0.2372445987,0.2462913149,0.0810686576,0.6685964655,-0.9638380206,0.2561140134,-0.5717842462,-0.5620434012,-0.8659974363,-1.0131675518,-1.3188222965,-0.2561460929,-0.7992861345,-0.597498163,0.3737573284,0.013203423,-0.7491067204,0.4965572511,-1.1215919762,0.3802921324,-0.689979883,-0.0789984406,-0.7609999107,-1.8144558858,-1.9878408347,-0.5121867895,-3.9277924056,-1.9541816819,-3.089344389,0.4442883257,-0.1629615726,0.7687719903,0.2222827405,-0.5167559294,0.8520420775,-51.2694925703,-172.3600206737,9.7494276561,17.6374821842,0.985093923,0.8994281202,-0.3120730099,0.147205408,-0.1165220075,-0.4224591133,-0.7343058862,0.5113719334,1.2253838336,-0.4695011923,1.8670822633,-0.4749812689,-0.7220765861,0.474469231,-1.1367239904,-0.7624075109,-0.5207351882,0.2616938146,0.7715746269,-0.7585726361,0.6415794305,0.7228343245,0.5617901921,0.2467923863,-0.1145900317,0.2627747556,-0.2618266992,-0.9431407447,0.5796917453,-0.2922352225,0.4097708667,0.4362717237,0.571893782,-0.4108940172,-0.1320633749,-0.5979064981,0.7982152165,0.4701799862,-0.5948263099,-0.8632836089,-0.484917614,-0.0757441467,0.5845861768,-0.3544857954,-0.6989258756,-0.2611891257,0.0217798859,0.6506639307,0.3075639174,0.0658145443,-0.0399427566,0.9295716634,-0.1877441683,0.8108647465,0.8135281264,-0.6075873324,0.354254951,0.9094490351,0.310391932,-0.4949200428,-1.0210295112,-0.3048358462,0.0832017267,-0.2673412482,-0.9157366021,-0.9230553849,0.4545899031,-1.1454553954,-0.7326018334,-0.3131607588,-0.4405306642,-0.7283865623,-0.1171907454,0.0461216167,-0.0661087195,-0.1405703339,0.2768799318,-0.895291748,0.6018161366,0.3833033827,-0.6117874391,-0.0536832041,-0.7775259112,-0.4977321567,0.0331922545,0.1447959666,0.8628816174,-0.5656666156,0.2114526331,-0.2634435861,0.457771868,-1.5630315748,-0.8457484568,-0.7601043942,-0.8156407621,-2.0671517247,-1.8378396919,-1.4501527992,-0.9231713522,1.5502731895,0.8665168989,5.5123960364,3.0645399829,-0.0713894745,-0.3427611213,0.1389311787,-0.2164127778,-0.5869534721,0.716498528,3.066835783,33.6310773744,-8.3499124083,14.300611845,26.609564612,0.0646314231,0.9758129005,0.3199359364,-0.7060676805,-0.1207136573,0.9449382304,0.3533085553,-0.5013369939,0.0324325873,0.6565708096,-0.3421325116,0.5297261111,0.1288523365,0.2928691435,0.1844136165,1.0192777692,0.7763692669,-0.8154992399,-0.2361870435,-0.018853277,-0.0480477368,0.7229772424,0.7540846453,-0.2775836009,0.1247155084,0.5318890459,-0.5275065318,-0.3556901394,0.4002210594,-0.8450581639,0.8659096724,-0.3294698515,-0.6347466273,-0.6264578215,-0.2795967742,-0.0752959512,0.2909303598,0.0513239239,0.7892294979,0.925310007,0.781846381,0.8769847167,0.9514955499,-0.5350612028,-0.826739347,0.2355694308,0.5181998641,-0.8645402272,-0.1669086557,-0.9318055556,-0.1739396819,0.6003518592
   0.2430307246,0.2654719228,-0.1591464453,0.4570455345,-0.0295178673,-0.4424744909,-0.0876471381,-0.6872644493,-0.5260621043,-0.9307835401,0.8107097077,0.4984385841,-0.8112796403,-0.9334461061,-0.5165411346,0.6562434905,0.9937577579,-0.2171175046,0.3408086611,-0.7638705649,-0.3674568042,-1.6486724382,-0.1990033837,-0.587226455,0.4934853381,0.1831677235,-0.9543603574,0.2601115525,0.5443706822,0.1988130313,-0.6693497353,-0.2502157356,-0.2145575415,0.0174058317,-0.7104602407,0.7742912659,0.4126402977,-0.2902991109,-0.042128418,-0.7141268477,-0.3369310479,-0.4186579365,0.1272975363,0.9945635142,-0.4892902539,-0.4877207309,0.7319271389,0.2050816436,-0.417070454,0.3857876896,1.2322576588,0.3317392368,0.4575009535,0.1289944805,0.5809693436,-0.5407551117,0.7692825022,0.1878529171,-0.3263786561,-0.2671682603,0.2898363679,0.4025380289,0.0203827389,0.7262428593,-0.420252944,0.0339613404,0.3023366262,0.0369713184,0.1276652181,0.2912218883,0.2723696631,-0.146493255,-0.9770490487,-0.6074155881,-0.1361302397,-0.0051945442,-0.3656412406,0.5493130741,-1.2338628293,-0.7366164649,-0.0029455192,0.0330899478,-0.6890033613,-0.7803410277,-0.3297473325,0.265968044,-0.4177386541,-0.1527899628,-0.8592616489,0.7922587673,-13.9315688898,-19.6828975556,-2.626777777,-1.3216338399,-4.7798931331,-5.5202271679,-2.0732818535,-2.1861455925,-0.904086521,0.1352965324,1.0543785758,0.7885683071,-0.3407678328,-0.4029076607,0.3003133428,0.6896696478,-0.6824929912,0.3355722371,0.6940389766,0.224020731,-0.6296968038,0.5200473184,0.0781154589,0.13434088,0.6189612154,0.3655860087,1.2218203734,0.3709483654,0.083697118,-0.7957539553,-0.8514689187,-0.5363710919,0.0990903825,1.0163594918,0.8867139199,0.7677467959,0.9981082741,0.8700816762,-0.4635519119,-0.2645330488,1.0188696909,-0.7008802865,-0.280493879,-0.7460202757,0.1876778722,0.9943505696,0.9837419852,0.463277689,0.0296246895,-0.9469659807,-0.8833528723,0.8042340257,0.2122078994,0.4417552149,-0.9067773934,0.6213477326,-0.2658838138,0.2131705533,-0.2198138071,-0.562400456,0.3073260377,0.9534430743,1.0093970931,0.3630719524,-0.3201004032,0.2325682252,-0.5226012976,-0.1435873334,0.149254163,0.0601465163,-0.3190685888,-0.6403586587,0.2912218871,0.1383449166,0.3480399582,0.8120310978,0.122056494,0.7660632222,-0.1674210254,-0.6240280046,-0.4182202646,-0.1202475958,-0.6093372211,-0.6617596572,0.3756305756,0.1890887727,-0.8761627144,0.0168060499,0.8645938088,-0.5730009127,-0.7627180788,-0.9591921407,-0.7864658606,-0.2435809315,-0.3163134025,0.6791659037,0.2766893641,0.83868114,0.5459279556,0.9090574737,-0.3338670303,-0.8596029592,-0.3976075361,-0.3464200054,-1.4855063024,-0.278757446,-1.3566119494,-0.5846587679,-0.2341512368,-0.3403924564,0.08813499,0.8200756693,0.1403173966,-7.6202057446,-19.6290276954,-1.6430833671,0.1129952037,3.0854710974,-0.7478600587,-0.1163346196,-0.7938970965,-0.8055468947,-0.3041932324,-0.1121117632,0.6906653064,-0.2667208066,-0.1291449235,0.2061779596,-0.2670141236,-0.2953076069,-0.014981626,-0.3958081967,0.1628208257,0.7971004631,0.7204481868,1.5083191475,1.6538561693,0.4835428044,-0.2529021822,0.5603646336,-0.7157040838,0.3108656336,0.8225955148,-1.2187116143,-0.8098208604,-1.1109312613,0.3344606984,-0.4016735886,-0.9644819652,-0.0233214243,-1.1191697498,-0.8786027583,-1.0661272462,-0.3639728018,-0.6355289354,-1.3234185305,-1.3854019822,-0.4545391727,-0.857941181,0.6891091737,-0.7062442612,-0.9755865423,0.3359301669,-0.1643675302,-0.8011221922,0.5627807708,0.1030870525,-0.9532155897,-0.0638019704,-0.937664706,0.6068556718,-0.2449062832,-0.6293813107,-0.4464012329,0.5819712989,-1.1978012117,-0.486308132,0.7350329446,-0.8513768597,-1.2033584662,0.0145082825,0.3193589512,-0.5444191385,0.1957650217,-0.1525596384,0.245840763,-0.0043661518,-0.4324881647,-0.9024793698,-1.1093598756,-68.5974793381,-3.0176226331,-0.3216300264,-0.9091281786,0.4230686181,-0.4749300486,0.1427240377,-1.0198660453,0.7102182312,-0.5221330455,-0.1769597964,0.3408110945,0.1871085457,-0.6144123794,0.0273880861,-0.5660128352,0.7919808433,-0.4434954512,-0.4245333323,0.9301522005,-0.3159677497,0.6903887595,0.1067338437,0.0867025748,-0.0534863232,-0.2303748553,0.3996705114,-0.1746988302,-0.395153987,-0.1984127101,-0.6542921076,-0.9138445056,-0.9076344225,-0.4096436424,0.1505593142,0.5307409636,-1.1323031244,0.0910944443,-1.1774551955,-0.3819367455,-0.4822292047,-0.1962546214,-0.9264115272,-0.0156276995,0.5162206664,-1.1397195713,-0.8744514203,0.1590010804,0.6994133487,-0.8143681589,0.0925235558,-0.3952648362,0.6595830576,-0.3619784392,-0.4908486852,0.1647790831,0.6596877964,0.7326377901,0.155036996,-0.7999655081,-0.6147809579,-1.1263130824,-0.2510385174,-0.5123752304,-0.3078940376,0.5027315081,0.5044236248,0.7077367661,-0.6690164117,0.755155412,-2.4042257065,-2.3760429866,-1.9827862208,-0.8053259074,-0.8934060425,-1.5619313712,-3.8612909204,-55.3510979071,-3.1972908898,-2.4955195004,-5.8085480337,-0.8989717111,-1.0526589854,-0.0807969085,-0.9547341144,0.5287836462,0.1309283404,-0.8591762021,-0.7200479245,0.5967297177,0.623902003,-0.0919727227,0.3380591182,-0.1942305063,-0.4680342297,-0.4408314422,-0.5463106698,-0.5447812307,-0.0481959224,-0.0081329798,-0.1101760187,-0.8210239282,-0.167227383,-0.5093056493,-0.3213494321,0.4296823463,-0.4551054256,-0.3801225493,-1.156938634,0.1209807406,-0.7280947992,-1.2540960993,-0.1121283072,0.0007877081,-0.5391840834,-2.3779724528,-1.9782233544,-2.713138926,-1.7406093231,-1.5436278534,-1.5001894657,-1.5991021591,-1.0177952838,0.3759046227,-0.0806398803,0.0162453927,-0.7519005994,-0.655671341,-0.6251731751,0.2442909195,0.5394382729,0.516484732,-0.7420216498,-0.1124346512,0.8862708889,0.0752433947,-0.027702253,0.3176798192,0.2996058518,1.3892945918,0.5242369163,3.1003625558,4.208840997,3.0497792407,3.1278743713,1.3494961475,1.284096628,0.8093830804,-1.1693461338,0.2944277221,-0.6991050328,-0.7218749588,-0.4906282674,0.0160451083,-1.3841811073,0.2149348401,-0.875281678,-1.2192311942,-0.1383639187,0.2224005634,-0.4046730669,-0.2601442384,-0.1764289373,-1.1517069629,0.3312139893,0.162920762,0.2098674946,-0.4192859205,0.8467410389,0.0615259264,0.4331412849,0.6506065458,-0.7217566543,-5.1540104408,-6.9961244919,-37.5232213967,-21.0297424196,9.8984829624,10.7729297637,4.5899150367,4.8321300271,1.7343801087,1.2196634411,0.4136431503,1.8614326397,2.3041440599,3.3647442871,3.0023777658,-0.6456716631,0.6882302032,-0.2113378107,-0.0408446848,-0.6975877591,-1.1549394682,-1.1410443665,0.3233650677,-0.9703051012,-0.4410912038,0.745527279,0.0549116908,0.2339313617,-0.8178954949,0.7213565364,-0.2109433685,-1.146041178,-0.3491045789,0.3741120409,-0.4635519075,0.1664617986,0.3273163271,0.2653487735,-0.3402713065,-0.4062969875,0.0043148274,-0.1163485517,0.0607462794,-0.6352372149,-0.33197459,0.4000058435,-0.2660385842,-0.4494914594,0.1555057721,-0.3081988034,0.8397168188,-0.3547124998,-0.0069260524,-0.9653653194,-0.5583351733,-0.6441236692,-0.9517192584,-0.6239764424,-0.3397590156,-0.7979070888,0.5006917484,0.8229914031,-0.1803399365,-0.9152962642,0.4597737974,0.2070674022,-0.41095931,0.9408020347,-0.3611184138,-0.3528936186,0.4200113955,-0.0954307855,0.5913915082,0.5646938002,-0.4166324701,0.8211808238,-0.3317312399,-0.0059795595,0.4179897956,0.0974637678,0.4958936648,0.4851543181,0.8427918319,-0.3521864273,-0.3453531218,-0.0319698755,-0.4350047466,0.5236587373,0.4015388494,0.3492953898,-0.7233740435,0.4449398402,0.4326232821,-0.5566512168,0.1438420518,0.5746255505,1.6582383305,0.395856857,1.0588571876,0.0161679851,-0.3757326468,-0.7070220283,0.0434478704,-0.655831969,0.1129477929,0.8450849743,-0.2785000034,-0.3745267014,-0.148969461,-0.5883457745,-0.5233470185,-0.0825624334,0.0680171652,0.5430636563,0.6743483819,0.4384894142,0.7393080529,0.8345343795,-0.9130222218,0.2262213112,0.241006554,-0.5187300422,0.5981701237,0.7896739536,0.2976890717,0.1715804495,0.4041488187,-0.015297341,0.4356632998,-0.1415928273,0.9662478095,0.2142829347,-0.7282804034,-0.022301013,0.0038379651,-0.0252413986,0.9447974717,0.6276761305,1.137582785,-0.5483959607,-0.1851073556,-0.1183873937,0.2336861345,0.2202296724,1.1625139436,0.8765768915,0.9893473821,-0.6366430058,-0.7714060579,9.8759582055,5.3813440529,-0.986438401,-0.1336520763,-0.0676886451,0.8688536497,-0.877301637,-0.8783702083,1.2116087705,1.4344251215,0.53903374,-0.4965480415,10.7326702092,-0.2672840087,0.3502337215,1.4089684238,3.2456640218,2.2225861339,-0.578078104,1.5419496847,-0.1810599764,-0.4252799852,0.1265545722,0.504123607,-0.4969648248,0.4881791878,-0.9992194037,-0.873247943,0.8704859312,0.0170668979,-0.1059589739,-0.106356387,-0.5252567825,0.4648236181,0.7585860015,-0.1108067273,0.6424208878,0.1087138749,0.7466068825,-0.7173931914,0.5831594541,-0.320650467,0.7869498116,-0.5298739663,0.8057964117,-0.1403504142,0.9162590974,-0.9676025953,-0.8693811533,0.3049370825,-0.2189509569,-0.5726439353,0.0246085674,-0.2326450627,0.8696566215,-0.3674639725,0.2208330388,-0.2785984889,-0.3187594578,0.0255260076,0.4322905997,0.5685708464,0.937811307,-0.0346622773,-0.7861606449,0.970921732,0.2004000515,-0.6486708638,0.9803792318,-0.5864545192,-0.1500965049,0.2068767966,0.3921586899,-0.3149606234,0.9262092567,0.9549216238,0.3497582322,0.8538381523,-0.2722594329,0.6157157337,-0.7299665162,-0.0472393803,-0.3276493262,0.2254641487,0.5999446926,0.6919155586,0.2492681183,-0.5672517366,-0.168208882,0.5498453336,0.1308792215,-0.4567673441,-0.2187324567,0.9303739672,0.6711570161,0.1931162848,0.4943859761,-0.3439272901,-0.8360694736,-0.2272043649,-0.3716699972,-0.810799378,-0.0719711068,-0.8349758076,0.0091790173,0.0939888401,0.5600813116,-0.6501096759,1.5810286178,1.1922100167,0.510028848,-0.2977958036,0.647745433,1.0435092722,-0.0005770261,-0.0806609438,0.6348417032,-0.7319458312,0.1104277014,-0.6981150314,-0.8323159399,0.6145369686,-84.624092277,-198.6523502333,-124.1366195417,-137.9645984044,0.5281140282,0.8282088068,-0.300873025,0.5881217013,-0.3751671397,-0.7806089995,0.7755923395,-0.2113063315,0.9062119453,-0.0566282752,-0.5656512656,-0.60186609,-0.0017646709,0.8115898589,-0.0968387959,0.4825696239,0.8218555347,-0.874789878,-0.5656555914,0.1169100092,-0.42633771,-0.5783354166,-0.8302157217,0.7221330049,-0.658440244,-0.6698137438,-0.4682617245,-0.8370493878,0.9188551515,0.4711556952,-0.0415974078,-0.133330514,0.3996412333,0.33058228,-0.8405949003,0.0428003007,-0.485137571,-0.5228935693,-0.0040383065,-0.4267971606,0.0817348498,0.9020995417,0.4022378783,0.6809575304,-0.9414825669,-0.4756751223,-0.5271492987,-0.1832913426,0.6268390114,-0.9704709437,0.9310711956,-0.7246745279,1.0108333797,-0.4669172066,0.9070410174,0.4819265122,-0.5506701843,0.7463842134,1.0300986539,-0.5165418475,1.1652695709,0.6163818437,0.7207376548,0.3934881563,0.6926776684,0.7234493841,-0.3126544833,-0.0749403419,-0.6500049256,0.8831362984,0.5258935167,0.8029560387,-0.6064721986,0.1376342944,0.995566649,2.6032739768,5.8506675609,-0.3254468075,-2.3300379954,-0.4520225172,0.2688621296,-0.5014291347,-0.2436655926,-0.260595536,-0.0757810425,-0.4973843611,0.6107960485,0.2485489438,0.8431382108,0.1567647353,0.6240115655,0.6184707911,0.4296776405,0.5387308768,0.9329949376,-0.0317986273,0.8119387379,-0.6091813687,-0.5305202523,-0.1377912428,-0.7331556737,-0.6249408244,0.6228674916,0.9711298934,0.3664793485,-0.6840340213,-0.2403941875,-0.2890786063,0.4374286258,-0.6564897302,0.1684356694,0.1145240482,0.4025695543,-0.3763686429,0.909679539,-0.0047660324,-0.4786783673,-0.1779424934,-0.1436029813,-0.6003346417,-0.1011891465,0.2376722935,-0.9131533947,-0.445541526,-0.5861043857,0.3808064771,0.1176326351,-0.8067854578,-1.0327097809,-2.5403962028,1.1644000536,16.1952837736,1.4776323182,16.9213499706,0.7637341345,2.1835668402,0.2630188638,0.5660259416,0.9466261752,-0.5106150015,0.9906969062,-0.0098241232,4.5475250319,1.39858391,-0.3443440412,-37.7459601195,-15.7669348644,0.4721368718,0.8150031631,0.9943344222,0.1460619342,0.3040484067,0.5028181793,-0.6946082053,-0.7128975166,-1.0470491738,-0.9247479867,-0.2082737343,-4.9153501937,0.8009510328,-0.7138033914,-0.6006212889,-0.8435252297,-0.1549842933,0.8705678464,-0.1391172308,0.2193631101,-0.4236667502,0.3682670253,-0.0818472638,-0.8214571843,0.0851045039,-0.8224496981,-0.2035155919,0.6992585764,-0.994651808,-0.305155153,0.8601981277,0.5428134186,0.9080114096,0.8476539549,-0.0998730781,0.765903145,0.0065810453,-0.2525346754,0.5173499929,0.6217309613,0.2218447333,-0.5130739462,0.5318498744,0.1300176708,0.6741030929,-0.9784938728,0.8238432166,-0.6749770726,0.3056542821,0.3574819345,0.441669206,-0.9713304189,0.2904203464,0.550555544,0.335047412,0.5823500636,0.3100736374,-0.7813527523,-0.7191791305,0.4216776811,-0.043699389,-0.7810157155,-0.6024431957,-0.8818176585,-0.1219148284,-0.6152881413,0.7696974741,-0.242265424,-0.7160877147,0.8105325306,0.4373261269,0.7668723511,-0.4454796398,-0.0161342643,0.0505472637,-0.2030330982,0.051863249,-0.6333174267,-0.2282064686,0.0842655439,0.4627019828,0.493347258,-0.4030365566,0.3891641597,1.0797537885,-0.1721293514,0.2165565438,0.3835311611,0.7251401955,0.6381440616,0.6383252757,0.9160679546,0.6415738253,-0.5035596583,0.7943090084,0.7265963356,-0.2269279312,0.715424428,0.1553396346,-0.3111023132,8.9321632111,-2.8047406568,-4.63373653,54.9037036661,57.9586767111,37.5574701883,24.3983899386,14.3668277146,10.575416923,0.3274376964,62.5158397154,61.30055368,10.2119405407,0.9438253322,0.518866601,-0.3862436863,0.1690925524,-0.0662880563,-0.6080179045,0.9409917699,0.194639854,0.3741087031,0.348477063,-0.0789666664,0.8938743836,0.5567110217,-1.018084223,0.4405948263,-0.9062773364,0.4096851213,0.8842546929,-0.4054749918,-0.7316946642,-0.8854125467,-0.8725722384,0.8741025175,-0.6982606507,-0.4603293585,0.907747944,0.288444232,0.7987850143,0.1436059339,0.7364441926,0.2920187844,-0.3076414366,0.8936074374,0.6147068299,-0.2783031346,0.5970419787,-0.8989897768,-0.8221304341,0.8045720423,-0.3193693045,0.5753534046,-0.3451929148,0.7142808944,0.5796565407,0.0348889205,0.4958391493,-0.197637334,0.4723344785,-0.4319507141,0.0005548316,-1.001228843,0.776753776,-0.0799221974,0.4034027401,0.0805503811,0.7610336961,0.3732105152,-0.9472843972,0.9699429999,-0.6836074479,0.5357058485,-0.2783996801,0.6646185354,0.1562196633,0.2125623254,-0.2430071622,0.7006897841,0.9027868983,-0.5883777515,-0.9845050015,0.1301871996,0.5629281535,-2.2974460002,-1.9628479557,-1.2764183319,-1.1167656263,0.0568003666,-1.0093762523,-0.8879957916,0.2699913678,-0.1945259068,-0.4224547259,0.1733764893,0.0804170009,-0.1240388353,-0.0863956096,0.8083511067,-0.7819680022,0.3738253382,-0.7995835019,0.701998117,0.715084524,-0.1118043217,-0.0318423355,-0.2546855456,-0.9071545769,0.1444890038,-0.5388737456,-0.5805351659,-0.0742067284,-0.2608649974,-0.8069255963,-0.6799982212,0.0240430038,-0.881870037,-0.0151669359,0.4802255323,-1.0038329821,-0.2320965239,0.8725471242,0.8944128319,0.1128319453,0.820154897,-0.5173068061,0.8487737956,0.532468063,-0.4794020558,0.8693283778,-0.6874535349,0.4391875704,0.7983341157,-0.0934150322,0.4238808586,-0.8658573672,-0.7393215419,0.5219803528,1.2533688692,0.6232652716,0.6740160078,-0.3084753914,-1.4879206259,-1.5394891044,-5.0724320226,-12.7215193875,-1.8981474206,-3.9782311962,0.0120259351,0.7752247024,-0.0209878053,-0.6767081289,0.1643332204,-0.7966186827,-3.7607175815,-22.4641294384,-0.3596124699,-0.6852877434,-0.3615013329,-1.409008478,-2.2597725416,0.9274580102,1.3258323623,0.7960205832,0.620986888,1.4061752547,1.839972416,1.0833142094,1.1781040688,0.9811926846,0.295121967,-0.2035077495,-0.057447357,-0.6982598794,0.8179468887,0.0634788981,-0.1390539722,0.4581741268,0.1181862311,0.7925772273,-0.9382760028,0.2153414204,-0.0123459927,0.3197251858,0.4735646716,-0.5195791589,0.4844539442,0.7728757447,-0.3562204423,0.7080466439,-0.1092430487,-0.2340268933,-0.3144477297,0.8932546367,0.7595669151,0.2952833888,0.1229739812,-0.9343484488,-0.6747953431,0.6066827806,0.9518249797,0.1004766317,-0.9430951421,-0.5107896835,0.2949224018,0.5975037756,-0.5818173374,0.0919841818,-0.3882314402,-0.2745575654,-1.0008188047,-0.0542827084,-0.1028678036,-0.6337351423,-0.2113430592,-0.7485318586,-0.2798132702,0.706122951,0.3540344109,0.0812887076,0.2831458086,-0.6084503036,0.0839713959,0.4613004666,0.9587237719,0.8534356768,-0.9350267202,-0.039235398,0.9500457837,-0.8861976554,-0.3891758544,-0.0182441591,0.0549948045,0.7945015576,-0.0358874765,-0.1739899873,0.6275405596,0.6111269068,-0.8471499782,-0.965656801,-0.1551239605,0.696721571,-0.476488055,-0.9787170925,-0.5861194883,-0.7018313543,0.4836976179,-0.1436659916,-0.0949963222,0.3319996254,-0.2446567678,0.3575079602,0.2541506936,-0.9146867379,-0.5854451248,0.5843116301,0.6890074142,-0.9079530746,-1.2675833579,-0.0905040493,-1.5356701106,-1.0397954948,-1.1854614123,-0.0976586614,30.1931124862,-4.3552413319,-148.3828743664,-18.4856632778,-47.3111193721,-13.9702968864,-70.6063580233,61.5685690931,0.2659150083,0.4848088663,-0.494499268,-1.0999963712,-0.0059783946,0.5227579421,-0.1195617026,-0.3617310304,-0.9398741158,-3.1458495409,-1.6035970053,-0.8267260393,-1.1675279373,-0.6551637453,-1.8439789214,-0.736278381,-0.7973780854,-0.0480926516,0.0709405085,0.7196454721,-0.0448259137,-0.3594763363,-1.441485638,-0.5142946081,-1.0167004072,-0.5528317235,-1.0315766318,-1.0984691334,-0.0645935132,-1.1801507493,0.3955516018,-0.0167225603,-0.5736365792,-0.9775691004,-1.5665299818,-1.2303913753,0.1885887744,-0.7378997153,-0.6360225708,0.94545125,10.908536348,10.342717555,8.4013418178,2.464608481,0.3982287236,-1.3485879092,-0.5273615163,-0.665151281,0.5369386396,0.682342299,0.1463789835,-1.6986440213,-9.9685364701,-12.8452530965,-13.388963051,-13.515895158,-13.072161221,-13.6485244634,-9.8239496225,-2.9995720191,-3.1291046262,-1.5806508045,-1.30320369,-0.4113248621,-0.4986691495,1.1761988523,-0.0776915323,0.185241703,-1.056644278,-1.3133807107,-0.2740586584,0.0465402865,-0.7517770219,-0.265138049,0.3292208888,-0.1588086151,-0.2719797567,-0.5518644494,-1.0000426274,0.3894242841,-0.2262226302,0.4373480407,-0.7012932093,-0.4429879641,0.537836294,0.0956777894,0.7708991879,0.0719262202,-0.7686051334,-0.388768268,0.2311785436,-0.3697618876,0.1617684301,-0.2380374609,0.5330998239,0.0140581003,-1.1830750284,0.7563830822,0.3001796445,-0.8415089575,0.5334959029,0.4547616805,-0.3702483166,0.0865999654,0.3447090505,-1.1562503079,-0.4806377159,-2.7924247048,-0.7510328845,0.0702766227,-0.1412749089,0.8692838638,0.6755462001,-0.1639076903,0.2865125663,-1.0634370738,-0.9855431936,-0.6045974718,-0.7306445446,-0.9632061388,-1.0688805887,-0.0339897575,-0.6558719666,0.1383592259,-0.3952348117,-1.2962964108,-0.6336485166,0.096988743,0.0640528536,0.228095953,0.1139320243,-1.1820338049,-0.2114556733,0.1019462851,0.5315674583,0.9277157298,0.3114747561,-0.1546122475,-0.3735253154,0.5613530294,-0.6522273345,0.3624841614,2.1176533424,0.8270857484,-0.5148022387,0.3230562224,0.8387940827,0.8604317944,0.1593118901,-0.4882935656,0.0007719297,0.7080297627,1.7506003913,1.3752827307,0.656791788,-0.5442671573,-0.7427285177,-0.6599752446,-0.9367658124,0.1068767187,-0.674423447,0.369413536,0.206624111,-0.9186533485,0.450425524,0.0873172317,-0.4551074061,-0.041422925,-0.2924910871,-0.7291815497,-0.6941753364,-1.793479369,-1.7399673984,-0.365589988,0.5124618833,-0.5124290936,-0.0719494521,-0.2810947708,-0.8715223174,-0.8344093723,-0.2666300412,-0.3020704169,-0.1117924572,-0.030950939,-0.9950934706,-0.0537191734,0.2070892966,-0.9168722143,0.24238752,-1.0669816191,-1.2892549997,-0.1228551054,-1.3877679941,-0.5505879816,-0.8805331815,-0.5147012297,-0.8391839733,-0.7078067335,0.5346728778,-0.7265996846,-0.3401016727,0.1474743669,-1.0409700441,-0.6865730161,-1.1537411858,0.2643616839,-0.9579941121,0.0725659629,-0.9948319862,0.1268436,-2.4357858854,-5.3530405666,-3.687510919,-3.8409629578,-5.1121182008,-3.53349028,-1.663219684,-1.6410916219,-0.6317837212,-0.4855808226,-0.5918563369,-1.1227964963,-0.6216956701,0.2788321828,-1.5743894862,1.2527756357,-0.0636804691,-0.7616212459,-1.1492801262,0.5615866948,-0.3793322917,-1.5408087386,-0.6111885684,0.4968015063,0.2928511332,0.8557267449,0.8122995944,-0.3835540174,0.7835325096,-0.4147085064,-0.728350086,0.2576414773,-0.5375325601,-0.30137779,0.8538645125,0.0727144415,-0.8431814528,-0.0918534255,0.8762749191,-0.1897384519,-1.4331258712,-1.4748173142,-0.0999043728,0.3401809182,-0.2056807313,0.2672919097,0.3537167815,0.139443657,-3.2886840411,-2.0435915223,0.8907189518,-0.6944789146,-0.1751002869,-1.1927498076,-0.280282001,0.071806949,0.2947794514,-0.8756783844,-0.1449674699,0.1555615975,0.2058797595,0.3545647102,-0.8126434717,-0.5671761459,-0.0292818556,0.5540457112,-1.0235382133,-0.1624589653,-0.1369077531,-0.2706299836,-0.3606922608,0.762677987,0.55588417,0.5033806842,0.7180421122,-0.0330884687,-0.1230445084,0.0852178469,-0.0160699418,0.3604192426,0.7028000458,-0.0944804158,-0.5581751213,-0.6020838198,0.3512748557,-0.0626859664,-0.2170027256,0.0032715617,1.0274697879,0.5247325041,-0.4263222211,0.8602498505,0.4335828549,0.1043561898,0.7689507332,0.6796106935,-0.5071640181,0.0938982193,-0.8936888739,-0.0119895045,0.991260652,0.1019314414,0.5112034509,0.6588553058,-0.782925199,-0.2718135682,-0.2207917892,0.5514276597,0.6282792959,0.4598288833,0.250866762,0.2583800676,0.5373870687,-0.1588691767,0.494224812,-0.2400701869,0.116051542,-0.859370394,-1.0050061734,-0.3944993572,-0.2247757869,0.0812740843,0.0054658079,0.6609749507,0.5667918584,1.0469031627,1.4649287474,-0.47376656,0.0205130724,0.2484000399,-0.188832428,0.5386520366,-0.2772251278,1.0014430185,-0.0419151177,0.2070061581,-0.0309030085,-0.496915104,1.0769176968,0.6888122168,-0.3266832724,0.6721383125,-0.4655386672,-0.3508867265,0.2073829238,-0.8512022412,0.4599082955,-0.1511250597,0.5274437766,-0.0267341793,-0.3102541561,-0.024342111,-0.0282709237,0.4143691559,-0.4796706291,-0.3455704017,-0.3259296309,-0.0874887436,0.7589573039,-0.7968020896,-0.1778532909,0.6908344839,-0.9791908161,-0.5704081606,-0.076714756,0.4864795911,0.68864057,0.3747535017,-0.3010671985,-0.1237166511,-0.2729141726,-0.55801741,0.2700256816,-0.7212124285,-0.0049834233,0.171589967,0.3255096625,-0.53733423,0.5551861488,0.2130268815,-0.1705871879,-0.1455806443,-0.6341973034,0.0608389459,0.9473743023,0.0445245357,-0.3670042334,-0.7511307015,-0.9849390759,-0.5604171162,-0.5661870877,-0.0534701636,146.4018816989,255.4099839255,-95.0728012435,-4.934201697,1.1041422081,4.3373478829,4.594396362,0.8759734054,0.9396312623,0.7605349207,0.120490393,-0.5295080586,-0.1404543057,0.6618707912,0.2616031889,-0.4148816993,-0.2357147119,-0.529714358,0.7972285766,-0.836338296,-0.7779428994,-0.1797588522,-0.1989676438,-0.9646975561,-0.7919590682,-0.5975849259,0.0770099671,-0.6075989255,-0.2490922982,-1.0824859418,-0.4918260418,-0.8861735804,0.4966260368,-0.6220643666,0.0757925072,-0.8172890858,-0.8463616653,-0.2034571923,-0.5903670936,-0.8037845336,-0.7112167762,0.2392984902,0.234528045,-0.4056380964,-0.8375256119,-0.9918404473,0.5042712115,-0.6225568405,0.6402181947,-0.2264541081,0.2720340365,-0.671787323,0.0748459494,-0.0265648738,0.5860561759,-0.9000511764,0.8147633652,0.610410986,-0.4677683468,0.9135324073,-0.7896984241,-0.7701777159,-0.7018471926,0.0171124924,-0.1084328989,0.7603120399,0.9548898363,0.6940392321,-0.5500242799,-0.3396465538,0.3825870887,-0.4021783514,-0.3548258653,-0.0400693664,0.6454245625,0.4976347512,0.0215665815,0.8773385129,-0.414102028,0.3536509478,0.0947746464,-0.4305403521,0.7660781612,-0.3136073692,-0.3295819323,0.870571723,0.9568152231,0.2362430619,-0.9205016291,0.1034304239,-0.3735258261,0.8230535359,0.5849556375,0.0446794663,0.3022269519,-0.5601198935,0.0794735338,-0.3550897628,0.8940917904,-0.4537746211,-0.1785522238,-0.8060730943,-0.9657399774,-0.4640395899,-0.4767094875,0.6654482403,-0.3694380755,0.451634999,1.0154599395,0.4715179135,-1.1870669366,1.7675250687,3.6420830757,22.5187439314,17.0892451301,-55.9159955986,121.4815754004,12.2029896987,-0.0910408303,-0.5588616477,-0.0404850513,-0.3888138408,-0.0787737393,-0.5595082181,0.954245943,0.8014182448,-0.7285193244,0.2995831549,-0.728460748,-0.8290087549,0.2000314469,0.8211509795,0.5219237715,0.1327443604,-0.9167055283,0.344903682,0.2078896093,0.9131631142,0.4471039268,0.9685370635,-0.6514316583,0.9079925099,0.3848262486,-0.6598590365,0.4946747242,0.564537006,-0.6850966233,-0.6107124573,0.1192333317,-0.4444826492,-0.7906563867,0.5931275855,0.4466981407,0.8714528718,-0.2738646159,0.343021957,-0.3774766979,0.8032437893,0.2921506689,-0.8205442383,-0.9887877903,0.3194171355,-0.3406501035,-0.2614539082,0.7664602892,0.3948629721,0.9789742065,0.40796873,-0.5502218027,0.8004147202,-1.0194759671,0.8843777931,0.3906235047,0.440199966,0.1554697855,0.3858958914,0.7120146532,0.8776318445,-0.8623809206,0.109148685,-0.1965372156,0.5815505227,-0.9955366566,0.1089016651,0.3395732569,-0.3690314688,0.3077062076,-0.0322966292,0.2020123636,-0.6548229065,-0.1451909497,1.0631262424,1.1487239216,0.4101827636,0.9141406441,1.073625793,-0.1099004394,0.0955200047,0.2559472608,-0.4109276173,0.2163854734,-0.6416725318,-0.5210667451,-0.9460574229,0.2535325093,0.452238941,-0.6981210176,-0.111602952,-0.9496150985,-0.1558811691,-0.5531205911,-0.4556904165,-0.616313129,0.5800782951,-0.3136540092,-0.9178427141,-0.4444431945,0.1020501155,0.7084755397,0.1103051282,0.1306495903,0.2043010405,-0.2562388944,0.528881932,0.7282548796,-0.8116097701,-0.1007476983,-0.5706925746,0.6048089652,0.1062768421,0.2490167377,0.5942694007,0.2715951376,0.5435882687,0.8652552954,-0.6351434072,-0.1002303128,0.7163911198,-0.1221351712,-0.2170037773,-0.2642993008,0.8502563176,0.2869210047,-0.1217861397,0.1676199921,-0.6904599078,-0.3512751287,1.0200896403,1.0522030995,-0.2846056654,2.9243375898,1.150325167,1.6469625335,0.0486135103,0.6459762695,-0.4810250716,-0.6498435594,-0.5316594656,-0.9846778934,0.0228874626,1.7281468043,2.1142772178,13.9167133494,-1.8701046555,-0.8064092279,0.0255064394,-0.5778245138,0.523983182,-0.8654685868,1.105314862,1.1047992272,1.1582773349,0.8652040609,0.3646873024,-0.7234463676,0.0476767858,0.142381536,0.692387724,-0.2599025773,-0.6356167943,0.1053440341,0.1277468478,-0.8321431364,-0.8275996271,0.7544176635,-0.771893532,-0.3648517881,0.4754542969,-0.6102148118,-0.7574288044,0.2704821318,-0.9776843195,-0.9686787775,0.8816534426,0.2252606925,0.3407437026,0.2649837686,-0.4383844933,-0.634222836,0.3583431852,0.4431493893,0.4455599468,0.6220460806,-0.1282903411,-0.8987409961,0.3617136262,0.4247701758,-0.544964535,-0.6857355813,-0.8137895719,0.6185526987,0.8713441587,-0.9962865081,0.5591224833,-0.7422233257,0.8660046869,-0.4912072752,0.1698056038,-0.8564294217,0.6584748717,-0.878156518,0.7327614945,-0.4139676579,0.6174932916,0.6086930847,-0.466905015,-0.7270988397,-0.3717594932,0.4799124105,-0.4170427854,-0.5410454969,0.6425769833,-0.528130394,0.2277757776,-0.6784787757,-0.9428562039,-0.498904709,-0.6561292303,-0.5982944055,0.0607147212,-0.8703906899,-0.0910316505,0.2822341913,-0.0653978344,0.1710986283,0.5468917396,0.0551437783,0.5973792969,0.2760555814,0.3888233819,-0.8188076196,-0.3840320201,0.5480920263,0.6702169085,0.659707832,-0.2168439926,-0.5252500624,-0.0487552127,-0.4858808208,0.3110415448,-0.222468312,-0.2695730467,-0.5677380782,-0.7930731833,-1.5187974767,0.5415098819,0.4623861578,-0.5203716947,-0.5249095032,-0.1790650388,-0.3492688218,-0.8465960166,-8.4971527312,-2.2528455521,-40.9271379519,-48.4179304462,1.8613549359,2.953467375,-0.1597713431,-0.318017417,-0.2985110945,-0.6965138033,0.7510222864,-0.523761024,0.9293276895,0.0093320183,-0.7794241674,-0.2369687879,-0.6087353233,-1.0573932699,0.1745875637,-0.5138727439,-0.6617800584,-0.9647214774,-0.3699688883,-0.2944038376,0.4498410683,-0.5908161156
   -0.149796154,1.0810762176,-0.6396888113,0.1880565946,-0.4557314619,0.5657569528,0.6181811027,0.2205491558,0.9470115128,-0.3542149581,-0.0860631912,-0.3822022137,-0.764095647,0.970867842,0.1892636665,0.4409912185,0.5753812098,-0.4136860076,-0.4138485156,0.4930784513,-0.4484942841,0.824123188,0.7115406813,0.7301584431,0.1514212285,-0.7306275324,0.5645165006,-0.3771575334,-0.0550301513,-0.4729153416,-0.2080414712,-0.504531537,0.7558179951,0.6328250476,0.5592429754,-0.8929835086,-0.9421759187,0.3962201512,0.5843264147,0.8916469303,-0.0814901538,-0.3357348754,-0.9583755449,0.6813752097,-0.7037885693,-0.9166859458,0.1535144754,0.4511383633,0.5801093652,-0.0863789619,0.8914070637,-0.1461680951,-25.8134940046,-0.7691660528,0.7091848271,-1.1766472334,0.0829597483,0.4978430652,-0.8675949432,-0.6623885471,0.8093293775,-2.7563532082,-0.927150339,0.2492485108,-3.3201167651,0.2295011847,0.823394199,-0.0617527101,0.4188659974,0.6173128649,-0.2565086856,-0.0029760328,-0.2144245793,-0.6231042451,-0.3198308327,0.6321338988,-0.7795832428,-0.3677404741,0.1487421035,0.1900931646,0.1656215011,-0.7048287107,-0.1357141313,-0.4586227089,-0.3222042819,-0.0051963115,-0.9931188271,0.6700160387,0.6982811542,0.76209174,-0.6905231688,0.9577383036,0.8973422422,0.6209650673,-0.4052349816,0.8592496296,-0.5996209033,0.7372039567,-0.8823949559,-0.6074622426,0.4287241795,-0.5458753836,-0.6666129976,-2.8973018226,0.5155810359,0.4628705925,1.0780903568,-0.5874352955,-0.8603226594,-0.5646543513,-0.6849882533,-2.6998573231,-1.0496586312,0.0599091926,-0.5933425644,-0.3540701113,-0.6400547627,0.9393863581,-0.8132648018,-0.0423737076,0.0711385294,0.0251126225,-1.8288960616,-2.2071587176,-0.4564665312,7.7776423672,28.6762653227,69.7342328677,47.4609311786,156.0622738239,145.8009354208,158.9174746759,16.2255807744,178.0193984301,673.9436198418,17.5860898587,2.3637825044,-0.2043910743,-2.0315248784,-1.3551760646,-2.1003350064,-0.6494014368,-0.4687150832,0.3538010197,-0.5793385067,0.4146913219,0.3968424833,0.6031835135,0.8910083489,0.0204089636,-0.4186421264,0.6502291882,0.685533401,-0.5701312297,-1.0113910183,0.4541663495,0.3076770803,-0.363409213,0.3556345334,1.0787497237,0.4450488592,0.5287156913,-0.5879862876,-0.3340911393,0.3871699612,0.7112480709,-0.4623822498,0.6172900809,-0.7501838316,-0.2231561427,0.8902560966,0.1920200413,0.9578579224,0.0836640472,-0.8838817555,-0.3552160524,-0.8232853423,0.655216773,-0.02326668,0.3486982057,0.2278669309,0.3001834934,0.0212818187,0.4702816254,0.5486577084,-0.0753687019,-0.4850347897,-0.4944119247,-0.1465190977,-0.3248548989,-0.7883676551,0.5801155513,0.0933125904,-0.7020982425,-0.3667474215,-0.8647293977,0.7392858588,-0.1665969459,-0.6623018502,0.5136014026,0.1331776275,0.1956875188,-0.6541029592,0.6241248878,-0.6889193786,-0.8039511209,0.3977318055,-1.0523980938,-0.1110418156,-0.0598803689,-0.8825814366,-0.2102752547,-0.3915272107,-0.044897192,0.6239972311,1.2627534091,1.0343667707,-0.3097181975,-0.0954909245,1.1031788197,0.8319555436,-0.5763537737,4.3573075151,2.2801136548,0.9443159687,0.5527488887,0.363462051,-8.8476188215,-9.1248626819,-2.5743077641,-2.1468038164,-9.8423015867,-12.3918783656,-4.827696198,19.7939550888,25.2069896682,-378.3266950199,-257.408372788,-38.3774754216,-10.7334160278,-0.696093515,0.6544759035,-0.7581270867,0.3499381186,0.4988232438,-0.3921890061,0.67767018,-0.6683453777,-0.8378529523,-0.7653145055,0.7777679654,-0.0178206157,-0.1635261993,-0.1908992903,-0.3335267166,0.1246383443,0.841895528,0.9669960257,0.4119535496,0.3303166206,-0.0240206526,0.6038587681,-0.5267059169,0.0790971656,-0.8834069097,0.7137575301,0.8681476717,0.1029963277,0.5584641782,0.853393966,0.5787255121,-0.8158300272,-0.6156800748,0.8750436796,0.8707361402,-0.4524141215,0.1082848938,0.3449396065,-0.4137807411,-0.2511538161,0.6358089961,0.7673950724,0.3700941257,0.2696557089,-0.953775882,0.6391708488,-0.7247000836,0.9785323992,0.7102671782,-0.641828358,-0.9334910878,0.9486743551,-0.2781162385,0.9219729231,-0.0417834315,-0.8836543946,0.1981162115,-0.9111160192,0.0170892265,0.263946751,0.8762740053,0.8760198154,-0.1128600641,-0.357871604,-0.1410439351,-0.1196053054,0.8897609746,0.6609186818,0.2945129019,0.2026253662,-0.0704305165,0.9386166081,36.7048831129,3.5723258397,-0.4095093042,1.1989433133,0.789751974,-0.5068448544,0.1870560797,0.3059540201,-0.1573091691,0.4387885776,0.7070133272,-0.0705377385,0.7610596902,-0.3044896885,-0.3053496997,-0.1978758768,-0.7108547257,-0.6200135363,-0.5261005037,-0.3753935274,-0.308650166,0.7098345091,0.3400120017,0.9434191623,-0.3570075333,0.154145279,-0.9035395366,-0.8907952976,0.7291796836,-0.7680766058,-0.34058418,0.5327618987,-0.6671712804,0.1732234474,0.1776798978,0.9431547305,0.0019443501,0.4449666046,-0.9542084026,0.6087679465,0.3424001262,0.2704261606,0.2825685684,-0.3841624156,-0.8535901203,0.7279898611,-0.3496836628,0.737056961,-0.0336033267,0.3419007122,-0.499753497,-0.5252981916,-0.1118650189,0.3755639345,-0.0600963161,0.8662930077,0.5447933207,0.4902181332,1.2343434074,1.0971952665,0.7543712206,1.328516861,1.7052164504,13.8691765348,-0.2838255438,-0.8780199237,-0.6520582961,0.7599403726,0.6262633445,-0.1200076533,-1.2736563171,-2.6224423572,94.9899553517,1.2738091853,24.9949209392,202.9520317341,3.4599281193,3.2531521243,-0.1102949327,0.639992344,-1.0613809733,-0.0911396413,-0.5088722295,0.4167515688,-0.0560319536,0.271593562,0.8118540011,-1.0215185568,-0.4957479875,-1.1446907368,0.2568825823,0.3773883467,0.9248956554,0.4369480159,-0.5907376663,0.3161298009,-0.6002263886,-0.9970469312,-0.8354871398,0.1131488883,-0.5660574732,-0.4748047991,0.7450021227,-0.4523090336,0.5553834029,-0.7243953339,0.1047580193,0.1995654034,0.8469898975,0.4682627983,0.3255553756,0.138285628,-0.6978620654,-0.6301278802,0.8868793452,-0.930188836,-0.573130436,-0.8793892459,0.3708348237,-0.4047747621,-0.193555246,0.9343829949,-0.2472112457,0.0915017314,0.3013857877,0.0996107251,0.6316082202,-0.4255396553,-0.2255073308,0.6613760006,0.5819649264,0.920624616,-0.1170841751,0.0671893165,0.1704592948,0.8687483839,-0.6343660621,-0.1425416213,0.5321499547,-0.5549168249,-0.3899895551,0.2529499378,0.1090738794,-0.8889842515,-0.8945133634,-0.0204178344,-0.3457359549,0.2640155326,0.0196871136,0.1750091804,0.1624519276,-0.3743298367,-0.3541310665,-0.5588070208,0.9809485559,-0.2080433468,-0.884150978,0.5018218512,-0.3085103916,0.2477979069,-0.8192578117,0.4167887658,0.4412274022,-0.1300176902,0.1528173915,-0.0913929262,0.1633363715,-0.5986175598,0.6444309103,-0.3821406579,-0.9336164963,-0.6609170727,-0.1576144286,0.7770493638,0.2179331083,0.4513256328,0.341305165,0.7036927334,-0.3054101909,-0.7156912873,0.5875067816,-66.6889540349,-23.6122838928,-1.8903599291,-0.9226782466,-8.7436430954,-6.4074800676,-4.6424106541,0.4304496871,0.004528127,0.6893478677,0.1248090267,0.8568403626,-0.9064950757,-0.0363420888,0.4564406983,0.8539378379,0.2019260637,0.9691570495,0.6453569425,0.374916851,-0.5643388641,0.7464742691,0.0149840546,1.1193955498,0.0963697756,-0.1613922348,0.079547565,-0.5487147172,-0.6821835247,-0.5061113906,1.0261284532,0.7675418651,-0.4983490645,-0.8049050835,-0.3646205344,0.8200102907,-0.4600720683,-0.7600712736,0.9165952817,-0.0645340572,-0.3859206228,0.9524360956,0.5645030909,-0.5397258953,-0.5352333895,-0.1775092804,-0.7068490711,0.6884696601,-0.7100015693,0.7098132801,-0.3302062533,-0.8218023166,0.871145222,0.2463737048,-0.2877058254,1.0128136441,0.912854947,0.0675592818,-0.7277986776,0.8474836209,0.2271369889,-0.8763529693,0.4403673867,0.6491025243,0.2485092842,-0.255578716,0.5385793038,-0.8552946859,0.9343382289,0.9975511595,0.9668151404,-0.7732905214,0.6335384484,-0.6294323271,-0.0955924026,-0.6779324806,0.9711720694,0.3385209286,0.5823944741,0.2107933048,-0.7918109604,0.0549818825,0.0213973348,-0.6004013892,1.065636473,0.0168584139,0.2826406914,0.3820718191,-0.1167801029,0.0168896546,0.5439253488,0.3757803944,0.4292952292,-0.0132662108,-0.2033540483,0.136981124,0.9742715847,0.0709457607,0.3680156723,-0.8358269595,0.9011187405,0.439407777,-0.1801603076,0.485896535,0.6307523753,0.2558844747,0.1810866324,-0.2142655453,1.1039275179,1.181197614,0.7330549235,-0.4600748821,-0.8050311828,0.6166932456,0.7390026799,0.7972291043,-0.4775514173,0.6291368636,-0.8985759369,-0.8803778001,0.3872457253,0.7337134604,0.0690341608,0.2061696242,0.9626320228,-0.6494623961,0.9311782036,-0.3675117133,-0.4371722275,0.3834908322,-1.0739900221,-0.7556830688,0.7305666929,-0.4782821105,0.194826432,0.8089702443,-0.4759939487,-0.0099990387,-0.4756280539,-0.7027209982,0.396797657,-0.3308744173,-0.3907003674,0.0597888178,0.7238363288,-0.4969946887,0.5362267454,0.1410392745,0.4404761109,-7.3332734527,-10.1372901455,-11.0740656623,-2.8920818926,15.4143574661,38.8685410315,3.2681727437,-0.3275636343,0.1613344268,0.4437331736,0.6019400443,1.8779458533,1.4217420366,0.2786046652,0.8129579519,1.039265553,0.911310751,0.0382869702,0.9165284411,0.6024338917,-0.1708397893,0.9344752954,-0.0942431755,-0.4885204715,0.1978338822,0.8956965817,0.9643983931,0.2502687963,-0.4289706972,0.82836014,0.9434744327,-0.8693921088,-0.0911797136,1.0155497839,0.2263110033,0.2990952648,0.1426876411,-0.638850698,0.0538723179,-0.9916047886,0.6528672317,-0.0287570285,0.980927086,-0.1256301952,0.4617708896,-0.8729429076,-0.7031719503,0.5735554679,0.6645782255,-0.6668254977,0.7181248634,0.3158260066,-0.1655615513,-0.2309169104,0.3623913091,0.8091141885,-0.0292938633,1.02510958,0.6805008038,0.9852216845,-0.846521576,-0.6553118924,-0.496113892,0.3296261712,-0.603575842,0.7417679814,0.5626017592,-0.1249848948,-0.7282231616,-0.2192944886,0.9801586428,-0.6652749334,0.4612650089,-0.9672014709,-0.3384704309,-0.3794738471,0.0852867654,0.4701838979,-0.5518038652,0.5475814115,0.5715068465,-0.1549748741,-0.8195262844,-0.872601606,0.0869569604,0.3080790238,-0.1811053103,-0.1719721745,-0.7474221741,0.644162189,-0.2554712012,-0.763021385,-0.8678708586,-0.5714936059,-0.301965523,0.0442515934,-0.617521225,-0.8595069965,-0.8537718578,0.3795174919,-0.6657535531,1.0010352546,-0.3290632256,-0.0158735135,-0.0146660422,1.1435968539,0.2452409242,-0.5109233153,-0.0197866839,1.0454336128,-0.040223201,1.1365292419,0.5312536825,3.9274192802,-19.0136612096,-125.5555187795,1.1032152326,60.6287241643,-0.1405411407,0.2094294922,0.7517061641,0.4353633874,-0.2793218182,-0.4260621351,-0.9615835433,0.178953504,0.1594750347,-0.8699276917,-0.5019635133,0.1815718712,-0.4840129374,-1.2556311373,-1.2618106196,-1.2185558351,-2.0018870904,-1.8035797657,-0.3246624361,-1.0215958967,-0.2303028715,-1.0458078628,0.1994662086,-0.029889513,0.1478133058,0.8327853732,0.8495802139,-0.6890156496,-0.060111723,0.6639391449,-0.1144853673,0.8000766178,-1.0589776986,-1.0953587231,0.8366693345,0.1815244102,0.0865772953,-0.946091154,-0.8116762062,0.2756313974,0.5862649478,-0.5955456118,0.6596175492,0.2102929783,-0.5342029923,-0.4228937568,-0.693032871,0.5901258924,0.5938034789,-1.0459436052,0.4606496876,-0.7669041732,0.6442896167,0.0217923671,0.6219086333,0.0807086527,-0.8156082663,0.4323169501,-1.0180059282,0.6722838484,-1.0195262781,-0.6821080509,-0.6040246137,0.481103536,-0.1152131583,0.9153904874,0.9115121728,0.1742842522,0.1069773285,-0.5618671048,-0.3907651708,0.5414035968,98.5264409488,2.2225456959,0.0523027862,1.7398826793,2.7116711821,0.4585397823,-0.9672394758,-0.3924855359,-0.928667999,-0.7329683493,-0.0048665142,-0.152442224,-1.4154845015,-0.4371205978,0.3337276739,-0.9042117756,-1.3877868133,-0.8644275389,0.0960051299,-0.0447585081,-0.0776280667,-0.7477582801,0.0682180885,-0.7128449032,1.0807662322,-0.4182673738,-0.7202658656,0.4372319078,0.1393712809,-0.0074419597,0.3570896417,-1.0855996109,-0.476795796,0.7788045703,-0.5254331002,-0.3450898025,-0.2027657182,0.7391034915,0.9204045191,-0.1531167625,-0.9780432937,0.8440863394,0.7665793379,-0.6560032488,0.5940711203,-0.4414408081,-0.0786344693,0.9401650658,-1.1997475713,-0.4760056822,-0.4592800034,0.3033181329,-0.5815034182,-1.1744089767,0.025438373,-0.7857193633,-1.0360955647,-0.7812643673,0.668185513,-0.9914495041,0.7649395363,-0.2905404071,-0.191029393,0.1398515878,0.1006550024,-0.4000979611,-0.8116359819,0.7598027202,0.1217266654,-0.2054507066,-2.7263415174,-3.8755920813,18.0594809799,19.5208776492,19.7467410355,14.8720482186,1.4368022667,-0.8343478318,-0.3144550913,1.04654912,-2.2962920442,-0.2889770048,-1.5329258193,0.1305865069,0.1329651471,-3.9498522883,-0.4996853008,-1.6360001971,-0.5674520298,-2.4632228386,-4.5875524301,-2.5431292537,-1.3575719528,0.0379934374,-1.1668936716,-0.6652278073,-0.5910462261,0.2105049526,-0.5467096427,-0.0473462833,0.3671215609,-0.9448433603,-0.2050298773,-0.6383269722,-0.5039905563,-0.6936584038,0.371631232,-0.8579474732,-0.5446565716,-1.1291359326,-0.8655167525,-0.5699558278,-1.0408496164,0.0943872499,0.398640912,-0.4725813661,-1.0760472415,0.7051355088,0.2361328281,-0.9289231925,-0.3686163657,0.3208761686,-0.4570664393,0.5002318396,-0.3506015555,-0.9378209297,-0.0075789548,-0.7235737381,-0.5517158714,0.1158936568,-0.1319374524,-0.1754851171,1.0880768505,0.1649075926,0.2747352411,0.4312686084,-0.068874593,-0.1241016517,-0.9705563617,0.5157106605,-0.6994863594,-0.6568678945,-0.569769839,-1.0241490176,0.7578489297,-0.4119758348,0.7011262618,-0.1714845837,-0.6003648171,-0.6535208222,-0.303484005,0.1642442775,-1.0213312994,0.0626497431,-0.1259741687,-0.50714165,-0.7207486748,-0.170954915,0.3514920925,-0.1738103901,0.3593041119,0.1166212195,0.3248612836,0.0733656976,-0.5307767277,0.2798127713,-0.0972033885,-0.8002885987,-0.3248673771,0.1763403412,0.4304456313,-0.0860423482,0.201151798,0.0375236035,1.1210008442,21.6244731402,18.4311090867,22.4043998706,18.0114184657,31.0282963557,17.214631568,-10.78098559,0.9938612602,-0.7500563549,5.4689015653,-0.8997522357,0.145751995,2.2540785646,-0.1721058349,-0.0326937232,-0.0625374493,0.5738813755,-0.7642041668,-0.883195492,0.9581539149,0.47190188,-0.6836297021,0.1842807775,0.4642852054,-0.9631816579,-0.3190989453,-0.6421122689,-0.6783148904,-0.3405681096,-0.3750729693,0.1570821679,0.433338876,0.0906666375,-0.8093569689,0.1848272764,0.3024197774,0.4655481863,-0.524113233,-0.2779974472,-1.0129714686,-1.1587694186,0.3155260016,0.2601819463,-1.1753219598,0.3872773821,0.3510267286,0.4286258293,0.244796105,-0.5562222479,-0.0599885033,-0.2833129689,-0.9142506916,-0.3866563987,0.5552599985,0.3001426344,-0.4093971114,-0.2056460057,0.3671022349,0.7191430352,-1.2904681876,-0.0751212493,-0.4745075069,-0.917967818,0.3728363323,-0.5049639832,-0.3280071253,-0.9857180314,-0.4801069701,0.2537642357,-0.1680131424,-0.598585805,0.2067761332,-0.5218910204,0.0713962063,-0.2111618585,-0.4966146615,0.2423708364,-0.6758924049,-0.4034614623,0.4335704782,-0.5489736527,0.8761948466,1.0914166029,1.2580911163,0.0042053147,-0.004849957,0.7430686242,-0.2182268051,0.7272257744,-1.0166872711,0.3911884131,-0.1864105679,0.5774542571,-2.2322861874,-3.0602946158,-2.4477800141,-1.0861096858,-0.1524365764,0.1067148692,3.3352007444,4.6043874317,1.1507484156,0.0780932287,-0.1624332061,0.2082254583,-0.1790692496,0.7471396376,-0.0300008065,-0.9052488398,0.7204690308,0.0844641914,0.5458722216,-1.3289114297,0.4121568439,0.5266891396,-1.0640897666,-0.1956280125,-0.9168773622,0.1374319736,0.129963097,-0.6856459044,0.7216256639,-1.178092662,-0.0813863674,0.695164276,-0.7950897422,0.1678993533,-1.0853949454,0.1271769065,1.4370015877,1.0817481862,-0.1063559866,-0.1266021519,0.1776309568,-0.2883684394,-1.0978335991,-0.8690841965,0.0265660303,-0.649421615,-0.0293182926,-1.2967672731,0.6815178942,-0.601068551,0.0416509343,0.2854968448,-0.2127918663,0.3654947814,-0.1139995569,-0.8468770575,-0.4058691161,0.4194481483,0.4470174022,0.0828076154,0.1813387014,0.6767792331,-3.42078714,-3.5164974283,-0.6392316256,-0.6268517565,-1.6843920065,-1.5978940869,-1.2704822838,-2.9970662265,1.267215881,-0.6787174855,-1.2195348253,0.1888306926,-0.8705500537,-0.239828594,-1.0123504923,-0.3911709242,-0.7512101303,-0.1628134585,0.7364486282,-0.4690393833,0.0232300326,-0.0037950739,0.1859346599,-0.2953801474,-0.176376159,0.3634318302,0.1648841591,-1.3363376525,-0.8379689533,0.4107173173,-1.0685350761,0.3995763498,-0.4949051967,-0.7211651792,-0.8617528351,0.6918697104,0.7725070164,-0.6451509457,-0.9038988429,0.440584634,0.6304327052,-1.0466638264,-0.7821546385,-0.5216800521,-1.2035380288,-0.4219035695,0.7294237857,-1.1938183414,0.2360682839,0.3773812235,0.647573205,-1.2162303545,0.6868264212,0.3906079538,-0.9221524008,-0.0011770755,-0.7488440817,-0.3510047881,-0.2197578174,-0.04766228,-0.7887418602,0.0558584884,-1.0250627996,-1.2405304956,-1.3163957572,0.5413571668,-0.7808740211,0.3116493478,0.036469371,-0.8452503018,-1.5019287063,-1.4193084669,-0.9825939213,0.3325189841,0.0946754676,0.3695599721,-0.4442876866,-0.62821652,-0.2442118594,0.2999643017,0.3651125964,0.1214764261,0.6902447264,-1.2421623681,0.0234550699,-0.6594948875,0.1511422197,-0.2026668257,0.1055455586,-0.5795332266,-0.8520371013,0.5813679024,0.3437073774,-0.5039189377,-0.1665042572,-0.3293733437,-0.5738974157,-0.0187150417,-1.0567367296,-0.5393684185,-0.0794888126,-0.353351477,-0.7968702954,0.9138484215,-0.9108087724,-1.1150249634,-1.1335073554,-0.2159102865,-1.1763370396,-2.4355450792,-0.4648641973,5.3491320148,5.4349699996,0.1548321489,-0.1066438631,-0.0778614342,-6.1209351715,-6.8432226889,0.7952606642,0.7872944958,0.0169780449,-0.5926919711,-0.8933532956,0.376843196,-0.5332094514,-0.8957767048,0.245451349,0.3264768041,0.1593628156,-0.5720534257,-0.7437883277,0.2941895206,-0.3594257225,-0.7804207833,0.1602395424,-1.5022676028,-0.7165379483,-1.1446696638,0.4551130106,0.8218788376,0.6695672268,-0.0828146112,0.7967594483,-1.1316508096,-0.828506799,-0.2638477876,-1.695001688,-0.4359873407,-1.1316166406,-0.5621137498,-1.0649239466,0.5568417403,0.4279747932,-0.5003050469,1.0031919565,0.3977639136,0.9834697045,0.4380827068,-0.3475843521,0.9272227128,0.2354170018,0.7427580809,-0.0921818461,0.064624812,0.5961577523,0.760388144,0.4462407398,0.2792867803,-0.9548070533,-0.1277465361,0.4226261409,-0.2269338683,-0.5083987933,0.0682665359,0.3468516979,0.7623222382,0.5133522697,0.7744849899,-0.1094742224,0.2492562034,0.8280119391,-0.0926079412,-0.5425435035,-0.4894659484,-0.9256485782,-0.8642414732,0.3521628084,-0.7965989874,-0.2218773967,-0.623097132,1.790287771,-1.208966894,-1.2539960589,-1.036703757,0.3021643466,-0.3671794292,-0.9846122219,-0.1863643452,-0.7514944419,-1.6612300213,-4.8677345996,0.1724996046,0.0117190635,-0.4582459,-0.727607627,-0.2836395304,1.2832986206,0.4182361246,-0.2573662457,0.4064008545,-0.8194783838,-0.5726507185,-0.1055970698,-0.4206381294,-0.31762402,0.7588698969,-0.8852403017,-0.8533665587,-0.3865051732,-0.0370231496,-0.744362875,-0.1040892798,-0.8626984547,-0.0651966284,0.0865722678,-0.5153403574,-0.7765505618,-0.3761626151,0.642470008,-0.6543204689,0.5937469134,0.0269927634,0.3674287325,-0.2333795189,-0.5289564315,-0.7727884583,0.442380905,-0.3543294345,0.025718178,0.6776666741,0.0446043597,-0.4644291178,-3.9368211351,-1.7610307438,-0.5561288859,-1.1316669383,0.1948704953,-0.9551407444,0.7374279062,0.2501475674,0.4917673227,1.4388989094,0.7480095022,-0.2076113066,0.9892854761,0.6492714664,-0.6542127362,0.3320659766,-0.1488419632,0.1745310548,3.0757412147,1.701404065,-1.1758596681,-2.3831202392,-37.1948484007,-48.7557233381,-50.5723627726,-25.5131984732,4.2318813461,2.009895369,0.4280761834,-0.1044287938,-0.080128383,0.9373849184,1.0227034161,0.2440932122,0.4121661604,0.1083066794,-0.4395275934,-0.0778210963,-1.019067817,-0.9056947167,-1.3994275588,-0.9226663401,-1.2939878437,-1.602587342,-2.3092790075,-0.758395847,-1.148658854,-2.0330409199,-0.5850352751,-1.9570061894,-3.5233870709,-1.3481313235,-0.0469466798,-0.0175564675,0.5162206028,-0.5149308301,-0.4849442971,-0.2578756961,-0.1338535615,0.4337845601,0.8711809,0.4771060157,0.0351322174,-0.2034585299,0.8129021639,0.2985351889,-0.3892476527,0.9785645226,0.887882151,0.5424395568,1.0166944391,-0.2080546146,-0.2004653257,-0.8206983682,0.8704335702,0.3229192884,0.7869404481,0.1836375656,-0.7265584833,0.0823657432,1.1823369934,1.0993485998,1.0276067033,0.5748680942,0.0266125898,0.7912936204,-0.6951439279,0.6851438651,0.0513544971,0.4186921826,0.901479005,-0.5333630754,-0.3311298464,-0.358905554,-0.1139613171,-0.8231724067,-0.0452900206,0.5588263548,-1.0871744692,0.417946712,0.0871544935,-0.8567351731,-0.1467730636,-0.1105166523,0.0779901328,-0.7281879754,-0.5310542516,0.407564725,-0.1243028102,-0.7162255015,0.6069978977,-0.5475980445,-0.1411614957,0.2979159588,0.4473594484,0.3040444857,-0.1039220011,-1.3981195585,-2.0642102603,-0.1869833695,0.4349777829,-1.3445030037,-1.1133876546,-0.6547445037,0.3402292286,2.2128621623,2.242354996,7.662498695,16.1170932265,89.9842641659,15.1722004155,-0.0983688038,0.2527579448,1.8926904598,2.070821922,3.8289210997,0.1387342874,0.0408643656,-0.2189236375,0.7938995443,-0.7025007036,-0.5198678018,-0.1307651863,0.5495531205,-0.5296820918,0.7153775169,-0.2776610018,0.1018006072,0.3066019145,-0.5180398303,0.6667709864,-0.36681062,-0.6475372932,1.1534894254,-0.4972726555,-0.8021983685,0.4688740418,1.0421749481,-0.1511211294,0.5004033847,-0.1910574973,0.0272446151,0.618891899,0.8225945322,0.4803870514,-0.3790376564,-0.0075685591,0.3138326368,0.9430603246,-0.6267999333,-0.702433861,-0.0411703127,-0.2734531238,-0.2977627401,0.7341074785,0.5582265548,0.7738161837,0.1006806204,0.1476978654,-0.012624767,0.8495552413,-0.0511459474,0.0866100741,0.3174702461,-0.5130957155,0.6520486199,-0.3914814204,-0.9964436105,-0.5293379482,0.8361543781,0.1770603973,-1.0272673007,0.0716619714,-0.8964705059,0.9051261064,-0.0854686436,-0.4560465453,-0.3160636053,-0.4315016609,0.1904350933,0.3339220093,0.2448188219,0.5270171641,-0.8370536855,-0.0860479682,-0.5695218518,0.5188889724,-0.0601415778,-1.0396243473,-0.4143637575,0.8613668859,0.5317169767,-0.7740290005,0.0900851584,0.2599389301,-0.4111163239,0.5284360526,0.878388693,8.7765715047,12.0213924853,8.1096669102,33.9690031618,0.9127252249,-0.3224228051,1.1458613638,0.2995059395,-0.1047828411,-0.041079478,0.6805008332,-0.4908488665,-0.7540053762,0.5020724109,0.7090762854,-0.0525195439,-1.0599143216,-0.4055862603,0.519278071,0.7711738197,-0.9776975107,0.4692291841,-0.5626840202,-1.0282742817,0.6105493606,0.0129785341,-0.5506983396,-1.0637414661,0.8174925012,0.4684064694,-0.4513144455,0.1292069076,-0.8429388725,0.0466985464,0.6050463407,0.8089540509,-0.3648083708,-0.4151656611,1.5041197192,0.8461596466,1.1007898969,0.2942231522,-0.4974179338,0.3249580098,0.9560511603,1.6979175188,0.7983378555,-0.5119814975,-0.4790633797,-0.5647509354,0.1551203206,1.0829878796,-0.6445463649,-0.0436808647,0.9926073542,-0.8902559104,0.816652237,-0.6887884653,-0.8131218464,0.064538516,6.9188488738,11.0369774254,79.1131088029,128.4118640689,0.8764292154,0.8990030925,0.5323174311,0.1459658061,0.6733766749,0.1815162311,0.404865058,0.2055311889,-0.123334002,-0.6066266402,0.4274532509,-0.6040552319,-0.2432774784,0.6991293007,1.397289467,28.086354619,0.2061059443,0.4560115294,-0.1364712111,-1.9115524598,-5.3323277986,-1.2971559969,-1.4972586752,0.3986064026,0.80283854,-0.6099480254,-0.1866438971,-0.3221627944,-0.7122873565,-0.2130768751,-0.7484872238,0.4093537548,0.1883563868,1.0173089539,1.0830541097,0.8952103144,0.8389006433,0.2293668853,0.2058879759,0.0458578742,-0.8383686557,0.3927812772,-0.8312386701,0.8497278132,0.3848422896,0.5380734423,0.8108822369,0.2743617607,0.8059399328,-0.4021577859,0.4396263936,-0.2431535631,0.5933688934,0.429343411,0.5362269356,-0.418803848,0.7738308955,0.0668438456,0.2282099307,0.0269133396,-0.5004831029,-0.8892238925,-0.259106763,0.1981682553,-0.0863728614,0.7388055044,0.662774228,0.2045237001,-0.3176952653,0.7927774514,-0.1759408839,0.3498863334,-0.2892667451,-0.5999948133,0.8260068794,0.2734420993,0.2380729479,0.881681881,0.7254634394,0.2361142526,0.1652012584,0.8317984181,0.7358820713,-1.1140373238,-0.4026832924,0.6845122464,-1.0838167333,-0.7900225713,-0.5053134678,-0.0493166646,0.9748859473,1.0512347191,-0.0945049261,-0.2827450984,-0.4714775011,2.472506522,1.0031605973,-0.1440465004,0.0373024078,1.3195870888,-0.6741403366,0.01809137,-0.9592757368,0.2119048945,-0.4517455905,1.0539625423,0.2278416023,1.5234171275,3.1156781302,7.1237761284,14.8549158737,-7.0937625275,-3.1240630831,-22.427068142,-0.9703397737,-0.5821065509,0.036955102,-0.4690819794,0.723818402,0.560607373,-0.7284795767,0.7757613727,0.3514462707,0.0044698959,0.1287683226,1.8620835182,0.4368816485,0.8147633209,0.883937997,-0.3657111528,-0.0261994933,-0.2234619831,0.9176824422,-0.581976981,-0.8403649475,0.7319491546,0.0003639721,-0.9498614788,-0.9841794619,-0.4690110048,0.3092547528,-0.6199651871,0.9290025342,0.1808015827,1.2675583944,0.7897611207,-0.0776221408,0.3331366719,-0.776858632,0.7826280956,-0.8668397883,0.6701092335,0.1849659604,-0.2055565912,-0.0248296694,0.8365575719,0.2337625039,-0.7242497097,-0.5844495186,0.9413127149,-0.080921567,1.3717025508,0.8791630822,1.2217738721,0.0657111584,-0.1985261641,-0.0928265882,1.0320135121,0.009212562,0.4112396009,1.6249519924,1.1556580058,0.6848194461,0.3754977242,1.118750821,0.9924097044,0.1601532007,1.5314079164,-0.1513800942,-0.0823860158,0.2998375006,0.0869549043,0.6253025806,0.1620353805,1.0162489195,0.49548035,5.3025561218,-5.2276277289,29.9369901715,14.3181243015,10.9446709599,2.2567746234,2.7832441392,0.4175688384,1.4177438753,-0.0332917742,-1.2448709875,-2.9184259258,-1.299248833,-10.5544090886,-0.8677270527,0.4030177977,-0.1044944783,-0.1869476556,0.3728522175,-0.1678955336,0.7434580976,-0.66939167,0.2978562608,-0.2409038431,0.3804686956,1.6108245841,-0.1042880605,0.8885378457,0.6403091324,1.3034088338,1.5890155257,0.5237255726,0.2232492444,0.002511484,1.3128746333,1.5674801617,0.9197764823,-0.2272830819,0.3183918965,1.2241765773,0.9860931117,-0.1475328443,0.206521436,1.4535103432,0.5350239222,-0.7024413152,0.1975728971,-1.2892865861,-4.9860209097,-25.8000420807,-7.9450822985,-1.1968417594,0.3554367666,4.1587973433,4.4963114161,4.6182534176,6.5531892718,11.2839769076,6.0075798119,0.2359016835,31.3648703761,22.2900803916,11.9929350446,8.1730333208,-0.8629979892,-0.6799322555,-0.6884456062,0.8046679762,-0.7488710109,-0.6861036073,-4.0746115878,-3.8167939436,-2.5802036432,2.8482173613,10.9820542505,16.7684425384,16.93298432,15.8757595588,10.4408265649,6.4625396853,1.3656809758,3.48339871,6.2609818475,12.723666259,10.9073879699,11.0228762035,4.1686767943,2.4251296672,1.2138979059,1.0370177101,0.1180961698,0.7758162393,1.2046662309,0.3564525748,0.3571613909,0.52770361,1.318835006,1.3864894091,1.6008331186,2.1284727662,1.896118983,0.189087298,0.025051632,0.3415471803,0.9572919176,0.83805139,-0.0672060198,1.0411051152,0.954848067,1.1658577962,0.8876233985,0.6345874601,0.0441729956,0.4842392549,-0.2014462775,0.718774816,-0.0252320426,-0.0597693005,-0.3243330495,0.5302150272,0.398393058,-0.4104732776,-0.2638916181,-0.6901991521,-0.369040115,0.6887087863,0.5725299478,0.0651440359,-0.8387929227,0.1036515013,-0.2447764708,-0.0668320985,0.0390714186,0.6094807311,0.839209303,-0.170938172,0.2296241987,0.3376236652,-0.2570692218,-0.2808991195,0.0115268983,-0.2054533277,1.6005428223,1.3322376231,0.7203439529,0.7085935492,0.5222493625,0.6287089482,-0.0110629269,0.2639308112,0.8823778304,1.6117701377,1.0809489403,0.8134843056,1.3349340497,0.1005351764,1.0503660993,1.3343865057,-0.2362165985,-0.1422731029,0.9731189358,1.3780925982,0.3379442915,0.9753889431,-0.3536789123,-0.4926833961,-0.20977915,-0.6547983896,0.4054155446,-0.0762717514,0.0562847722,-1.0293787291,-0.9404708513,-4.3320679411,-6.7268460405,-4.0643388297
