encog,BasicNetwork,java,3.3.0,1,1510413474916
[BASIC]
[BASIC:PARAMS]
[BASIC:NETWORK]
beginTraining=0
connectionLimit=0
contextTargetOffset=0,0,0
contextTargetSize=0,0,0
endTraining=2
hasContext=f
inputCount=259
layerCounts=25,51,260
layerFeedCounts=24,50,259
layerContextCount=0,0,0
layerIndex=0,25,76
output=0.0002996243,0.0005256936,0.0001221499,0.0027020847,0.0003217484,0.0028872181,0.0001151861,0.0002888194,0.0018696952,0.0000648583,0.0003901944,0.0025716977,0.0000953924,0.0003090937,0.0003344552,0.0068223319,0.0000216713,0.0000216569,0.0000216555,0.0000216517,0.0000216837,0.0000216567,0.0000216811,0.0000216792,1,0.0106723907,0.0015996658,0.0071116843,0.004019196,0.9978055378,0.0067100724,0.9992744467,0.995438642,0.9939377437,0.9983951352,0.9888991098,0.0017878685,0.2026994944,0.9993749074,0.9989441035,0.9886078196,0.0002120038,0.9961925984,0.9995431688,0.99614325,0.0000413832,0.9998895122,0.0165473422,0.0052440258,0.0027717689,0.0023450592,0.9986650815,0.9959855792,0.0098652785,0.9943266112,0.9783104001,0.9948973231,0.002272802,0.0010985511,0.0075999344,0.0029353453,0.993031206,0.993932016,0.0052239606,0.990163456,0.9877338182,0.9957208698,0.9999977876,0.0181388427,0.9986354639,0.003868531,0.998855522,0.9955793188,0.0014977423,0.9995311622,1,0,21,25,29,19,14,12,15,14,12,12,11,10,9,8,8,8,8,7,8,9,10,8,9,10,9,9,10,10,10,12,13,12,13,15,16,17,27,25,21,6,6,6,6,6,6,6,6,5,5,5,5,5,5,5,5,5,4,4,4,4,3,3,0,0,0,0,0,0,0,0,0,0,0,15,26,32,36,41,40,40,36,31,27,7,7,7,7,6,6,6,6,6,6,7,7,7,8,7,8,8,8,9,8,10,9,10,9,9,9,10,11,12,13,15,19,17,12,0,0,0,0,0,0,0,0,0,0,0,0,0,0,0,0,0,0,0,0,0,0,0,0,0,0,0,0,0,2,6,8,10,12,14,11,9,8,7,7,7,6,6,6,6,7,6,6,6,6,7,6,6,6,7,5,6,5,5,5,6,6,6,6,8,6,6,7,8,8,9,9,9,8,8,9,8,7,7,9,8,8,8,8,8,8,8,9,9,10,10,10,10,9,8,7,7,8,8,8,7,7,7,6,6,6,6,5,5,5,5,5,5,5,5,4,4,3,1,0,0,0,0,0,0,0,0,0,0,0,0,0,0,0,0,0,0,196,173,206,55,1
outputCount=24
weightIndex=0,1224,14224
weights=##0
##double#14224
   -0.5206994602,0.3547213925,0.8674531428,2.8794682922,-9.0045328487,0.7687248731,3.4772337078,-0.9471253487,-0.379549261,-0.5382160539,0.5771093836,42.789851779,0.5158263485,-0.5018902882,0.2532545062,43.1008612588,-26.5093743468,-8.7379027501,-10.1443670722,-0.4967141129,-725.45592382,0.0612495322,-1.6030270075,-55.2234058402,-217.9720389605,208.5041216906,-0.8337573813,8.9534616693,0.4133845199,0.7091768596,7.4134014539,-13.8930410653,-0.6875548287,-219.9906280496,0.5807637663,0.9443496334,-344.1876854192,-0.8107705949,-74.0867276073,-1334.2899975387,-22.96292399,0.1628298176,-0.5475640389,-44.8384203301,-0.4067339341,21.9672913017,-0.1690653905,2.4745741036,0.0432160843,0.919028786,-0.628718882,-1.2549239506,9.8927049938,-87.55409856,5.2811110677,-0.9349588197,-0.1983471039,0.6778981064,-0.939279051,-29.8487237074,-0.5088728667,0.4568949373,-52.2080931217,-0.900034281,0.8787361908,0.7542764736,3.2059056889,0.8872510743,-20.311191248,-3.1976491334,-0.316812023,-36.3176796643,0.2739831776,-9.1798787016,1.2875239391,8.1932249227,-38.2287105512,-0.0566088966,-4.6296157297,0.129067626,0.6595793296,2.3471378342,0.8895368735,2.0033231372,-27.7572177202,-0.9421100313,1.1839671561,-178.2602733947,-0.3026614246,-16.9584174758,-2.4456116996,-573.6089835098,-34.6779654325,-0.610869514,0.1590266055,-118.2487685038,-0.8318175074,0.6728352755,0.6003486894,-0.6516116896,-0.3293283265,0.0995825443,-0.3018039328,0.6352725151,-41.7710818402,0.5681658521,0.4349063783,-0.6927204389,-0.2414036595,-0.7260992962,0.3819278904,0.5871733008,-0.2960498306,-79.3034972196,-0.4339746756,-0.1889768529,-0.1878414306,-0.948425386,-299.1035902528,-3149.2522867814,0.9915203671,0.4787573213,-170.9401556899,0.6538594438,0.446520429,-977.2296889778,-1109.9173503033,774.000896745,4.7661149373,0.0338735109,1.1645884146,0.1719222102,1.4357952406,0.1021295274,-4.4816539136,98.1599968675,0.5195361925,1.0329972556,-971.43286255,0.3972661495,-62.9669718299,21.2858833893,-0.3714295791,6.326640054,-0.0128142076,5.3804144062,-18.7263406921,-4.5754393078,-0.7522946312,1.3803016357,0.1367993513,0.5619812316,-0.5884077752,0.8676440242,0.3613942134,-641.5420925056,-139.8404490188,-0.0342774809,-1.0517047167,0.8874177024,0.1787028428,63.7968989476,-289.0712268828,-1.051985284,-217.7956970645,-0.6271572701,6.4902490755,0.366118448,1.0965694093,-56.7435274097,1.7808243091,34.7638201839,-1.0927874668,108.1418592294,-0.9626128928,-107.0150171451,3.7764089542,-251.5938012696,-1.8921589353,13.677325283,0.9093427627,0.2486631443,-45.0148257643,-1.037233701,-1.340332168,-0.4786488909,-54.9683363495,-0.9347514615,0.3521123242,-90.2403304267,-0.017221056,0.7879779097,12.9641712424,39.2544247803,0.9237185706,1.0633190786,-19.332950039,-0.576517364,1.6922443104,-0.5657946415,0.8605388293,0.5257346872,75.5015003238,0.6575768771,0.2510111402,12.2929923016,-15.2325794007,0.058143839,6.3828786592,-0.3742756817,-0.7034244807,-1.262797342,1.1012238655,-0.4634574617,0.4168587186,-37.9092216199,-0.1178655549,0.1167850687,-0.4945925848,-0.1746480467,-1.9658994172,-1555.9065272457,-3.0573207828,-0.531502813,-1.2566712422,1.0491603001,1.0828472087,-31.7925796544,-520.0958061809,-1.1583722213,-0.1263818674,-45.5959341512,-10.7455908603,0.4605953642,-13.6916518946,18.1271867558,-1347.3774079783,-4.4910787534,0.1581475996,-77.8079433357,39.7082383133,-0.8293029772,14.2287104097,67.9305755367,-36.9731919737,-0.2768343779,0.077785464,-0.1162725342,-30.3833278131,3.4778066552,0.0521049976,0.6038844372,0.298076424,-0.1927424733,0.8649697886,-1.0217285981,-31.1906758749,-2.3569443604,29.8359045388,-0.3152974001,-0.6412497246,0.651130865,-1.0779855807,0.1861270457,0.5859594339,-26.343675858,-74.5561797351,0.0751211548,-0.5631809497,0.7379167202,0.6453425784,-17.9263597492,1.0814977104,5.227396255,-1.104993507,-301.0335826066,-0.4592234172,-35.5640318458,-17.0875920652,20.9115939132,36.1914996351,0.1296652073,-10.9885595052,3.7535838367,-72.0590093202,2.6655801306,0.6500266048,-8.9965824772,-199.9112943975,-0.7415692382,-18.7392251134,0.9861133036,0.0454657915,-2.5500869887,3.4591472316,-0.4189795044,1.1835146573,-3.6801208779,-1.0059945485,-79.014098992,-0.0629353645,-0.5063763073,6.4963287501,-0.8267353814,-0.4742849099,0.3097889366,-0.5466008935,-7.3126689593,10.0048254481,10.5864159026,-0.1639190293,-0.3888901365,-0.6441067746,0.8097102864,-0.5976009884,9.4056656178,-0.4495134428,-57.8038576952,0.7426883339,-0.3545886951,-0.219990032,-0.158036847,26.0478123388,4.2460904487,-8.7873943862,-0.6818961599,-151.9666409694,0.1674461051,-7.4721996237,7.81853968,-63.4994948372,-1.7089463759,0.0037538289,-3705.046758518,0.1735179223,-8.8359221703,0.2627782106,1.1139211421,-2018.5336095612,-61.7421073647,-0.9866858162,0.7368357867,1.6216713667,-0.0618253987,-3.034667254,-0.2999364267,-484.0297076224,2.0314900567,-0.8065459972,1.0245889837,-164.5466889686,-0.0268312391,-0.2379832432,0.4034986447,0.0832255101,-0.7738355824,0.5684458497,0.5926402871,3.7307134194,-68.8858499355,-0.3120573344,2.2018690954,-0.6723595679,1.0878115423,-0.6752744918,-77.984289447,-0.6802962543,-0.3472374395,-72.2994802084,0.6929832696,0.3461287886,0.2911773547,-1088.1700599018,-0.3463833321,14.6337153773,0.0174143185,0.7521758827,55.1628202719,-0.1109872338,-0.1938578789,-0.0365297487,-13.8167117231,-34.5247737393,-0.819869063,11.4521963145,0.2043981489,5.496708899,-11.5906155785,0.4899515286,0.666983916,-0.5430884196,-0.5346482535,0.2186794501,37.458407091,0.2388950127,19.7532170737,0.0113287793,-33.4459787075,2.4569182716,0.5116021929,-0.9107877673,-606.3030858934,0.2401566768,-0.380217424,-0.0130023093,-0.8607891014,0.3437852186,-0.8984672135,-0.3205384471,0.1433582478,7.6214731532,-1.4244235109,-3.1503985779,-19.4459698026,-0.0203271303,1.0871736878,-0.8808216834,-1.3689220886,-0.4755920439,8.5521993006,-0.853796282,-1.000611993,0.4701279759,0.0204260497,-18.39318829,4.995479267,-40.8094661926,-0.3160404927,127.3024400784,-0.5103866603,5.0101920871,-293.5943278535,2.0737777276,-92.3183240359,0.7136470794,-68.6219918593,0.1059919146,-45.0327037987,-0.5196055576,0.3629702386,2.5430490133,-89.5400157366,-0.1647209608,0.1910623866,-8.3528936713,0.0036301342,2.5716158339,2.3631977579,-69.4826828895,0.0735128753,-0.5227537773,1.3803311462,-35.072159463,-2.2664518726,-0.6663341723,-0.0193683905,-0.1747260213,-0.0841096881,0.8749171448,-0.7901194981,0.137719968,30.9704607325,-2156.9934800656,0.889230655,-1.0473789392,0.6700231109,-5.0330726807,15.1318264849,-4648.5696279801,0.2686585129,1521.8762121858,-0.7401335755,-183.3843575589,0.6650643931,-0.0577944807,0.302567516,-1488.3492211236,-0.4521332918,14.3483611371,-135.2302784968,0.4005240606,-10.6724671141,0.4569118555,217.7602499654,-0.2336010464,-0.1109738557,-13.4283144578,-0.2051763784,-6.030841457,1.0544092187,85.5909673421,-2.5234342958,1087.0741097279,0.3361221012,0.8403774011,-913.5477509094,-0.1788173382,0.3374812293,1.41624613,-0.5790017288,-0.0263181665,0.294723775,59.6064781194,659.1622506179,-0.7323545078,-0.0550003204,-0.4251514757,-0.7050309605,-1243.7900506244,0.425239084,-0.8843805534,-18.7857771044,-45.0736438899,-14.2075189337,3.6677912465,0.1355411819,0.5130455548,0.4428688435,14.4798943916,0.0369732931,-0.041593604,-0.899242906,-0.8496600778,0.0685142433,0.6386052787,-25.0264987457,-0.4501061218,0.4268055985,2.6005317553,0.0340849991,-21.7965895064,-1.5374933891,-7.5706009895,-3.3741711746,0.4903829773,0.8261237369,0.0242596771,4.5844818257,-0.7619414427,-0.9988284625,2.2398932201,0.8666689716,4.5873838688,-1.2383690168,-0.1548829502,1.5421495385,-14.1195972041,-0.8389840378,-7.2566414833,0.5268185101,-88.7999626216,-1137.3594141471,0.2795281761,-0.7440190903,-47.9490980252,2.7212191438,-0.6612321899,0.7989893125,0.5588024535,-0.9263844034,0.1472058012,0.2414317062,-31.3903573782,-5.2220705248,2.869241474,0.3917185217,4.2763966992,0.2283072399,0.49221303,-0.4461705035,-9.6834474656,0.7283284585,-150.3031640601,-0.6808286463,0.4556247966,-0.1265913488,0.9526533858,1.7708170476,-2.4441724451,3.5075794816,-0.3879281377,8.3584950655,-1.0468406103,6.7572201003,-6.5683788706,0.5951362506,39.8711658382,-0.6788883824,-26.2908456132,-0.3032825198,-32.5119701449,0.5453664556,1.02448575,-18.0192345008,4.1947547244,-0.5684337368,3.3316156284,0.6514831537,0.736533024,5.9458221236,-8.5328846159,-19.063567248,-0.254562916,-0.3134330308,0.440190327,-100.5638330694,0.4472132109,-0.7713616818,-0.3466622688,-0.6043281875,-0.7656726061,0.6335854803,-0.1350959246,0.9405140564,45.6611245072,-1.3371900307,0.713757317,-0.3617846038,-1.8477990364,0.8278400127,-0.1074325868,-0.3954890731,-94.4739436727,155.9844587063,0.422299374,-1.1466021597,0.1648879455,0.6244072804,0.0847748807,206.2117176349,1.1431405684,0.5920025934,-1.4527271783,0.3695365216,45.4148529027,-356.8115502161,-66.2335574341,731.6580336731,0.5898671457,84.9475950132,10.4702633227,0.0222792632,208.3750102424,-361.1775455253,26.1151151735,0.5661686069,0.8403547187,-237.5829618643,0.2515666685,0.9996193967,-133.5381610458,-442.4486496866,-374.9991605566,0.3111172007,-0.044664849,-44.0464563765,3.237653473,0.6068395944,0.2501786769,-4497.3124973007,-0.8636077914,-0.9156744152,-0.3933730325,-0.6390989545,0.3977867376,-36.5878882445,0.4249814393,0.1033066951,0.3729920121,1.1195828137,-0.2955042467,0.6528161754,-0.2892210484,1.0956996217,16.2679167801,-0.2324472171,-0.3645188869,1.0248038787,-7.3074275674,-37.7893249816,-7.0384310218,0.8051779019,0.2351351496,-1.8310100393,-0.0990946697,9.8972168067,22.8628219318,-41.3604454269,-255.3679586068,-22.8963506449,6.5139999487,-0.9459017176,-0.2904730879,-408.7430025883,15.4288753731,-13.0762163027,1.0850229531,1.0022494836,42.7970589499,1.1325460637,-4.7655910507,-72.4159613093,-1229.5863768948,3.319513498,0.6396582318,-0.230223442,-1.6547084681,34.6614969307,0.3227918469,-0.6476076895,-19.5587098399,-0.6386493325,-0.4709118434,-0.7487962913,-0.4904046151,-11.0680262201,20.2886041208,-1406.7566341219,2.0381618398,-0.7542869413,0.9979854305,0.1380771043,0.4491518592,1.0405269064,-0.2973254532,-4.9321752564,-0.3355899748,0.8096339239,1.1325383575,4.136960562,-1.5675247668,-1458.9737874371,0.3042313774,-0.4171783198,-49.8998906717,0.276931165,-35.3894924181,23.6776524957,48.5761696807,10.8077202382,14.3533092894,-13.7850534795,-0.349935933,0.0302138112,0.6693370913,-18.8142177014,-2417.8365104038,-50.6238446994,-0.7536457753,-3.0334554983,-34.523138393,-0.1956742224,-198.5220588045,-16.910257624,4.1435957084,-0.3549382741,0.7199476819,-0.0486449988,26.4852897088,-0.5321693712,0.2283342422,-0.0709889224,-0.0940639389,-0.4867534095,-0.5071240772,-1.0394202132,-293.2087126629,-13.4582738164,-39.9854263339,-0.2708554571,0.132741835,-0.8395514864,-0.4495305903,0.4100161364,0.8483518874,0.0851244806,159.63616016,-0.5979169423,0.5780747197,0.190398658,0.4170217504,49.1702529077,33.6135099947,-0.1789177711,0.7635665463,0.2268597109,-0.703969834,-73.3880202447,40.3670951172,4.6622922891,51.2880433396,-0.7349142559,-0.3751223617,-0.8725480005,-12.4694995541,-28.6391399068,1.3299658463,-1441.2392374125,-475.6135225959,0.1660782086,-29.5965041315,0.4201742351,-21.7052093902,-225.0706879104,10.8752335482,-13.96418209,-15.7675503048,6.1644933444,1.0544551325,-8.5797085834,0.7904289807,-0.1074753085,-18.1930016247,-0.1307587351,0.7795958401,-0.2114226863,-1004.45366084,-841.0782059707,-589.9932900738,-590.6252717137,-841.1822727655,-1004.371197128,-1004.265158933,-1003.6149126778,-841.7619829121,-842.2020768976,-1003.5306650463,-494.1446416913,-1003.4095899397,-1004.7658519043,-1004.7647337143,-841.4513156112,-56.2249906411,-589.8813691182,-83.6889542444,-840.6052572013,-143.423994028,-1004.6644354981,-590.5356592384,-591.2452429211,-591.064874421,-119.5547383045,-1004.9146239541,-99.4477272195,-1005.1609153582,-841.1425897167,-840.9014885417,-841.4059204454,-704.8596906923,-84.0674911121,-1003.7426320176,-841.495840978,-704.7372105922,-1003.279946126,-704.6330400041,-590.8730972959,-83.6200739437,-842.1436935597,-1003.5786232113,-840.9286925314,-99.4397986653,-841.9295710883,-1003.6273686685,-1005.1506000596,-1005.1182078871,-1004.2478909603,-1004.5989287199,-1004.0337370471,-840.5677024978,-591.2074754301,-591.2331708767,-841.5645520316,-1003.3517547323,-1004.4713839395,-1003.8985421597,-842.1424415614,-840.9324645762,-1003.9184532835,-495.207514379,-1004.4618176316,-1003.476253416,-1005.2119736535,-840.8429911211,-54.9504516993,-589.8400684795,-84.1516696775,-842.1408684181,-143.649244695,-1003.6429434999,-590.7176265782,-589.6740007922,-590.0720207425,-118.7858132068,-1005.0271047871,-100.466461785,-1005.0926275529,-841.4041380167,-841.0649111258,-841.2306072561,-705.317014023,-82.8118520458,-1005.1827474658,-841.8088250483,-703.9243393753,-1003.5982746283,-705.6155056471,-590.5559631742,-99.2526589869,-840.7303033988,-1004.1998975793,-840.4266450839,-99.1835353699,-841.4031633467,-1004.9860671503,-1004.9537392631,-1003.5388467205,-1003.9041893383,-1004.0649634656,-1005.0790822505,-840.7140667267,-590.0323453814,-591.012857009,-841.1040314229,-1004.7669613497,-1004.0188108223,-1004.1535460248,-840.4223018595,-841.6387529965,-1003.3601300823,-494.5985897168,-1003.5236711245,-1004.6272303231,-1003.9355608554,-841.4085407827,-54.5710656458,-591.0083238286,-84.1422298518,-840.7503052614,-142.6351518734,-1004.127454648,-590.6619549247,-590.2064293332,-590.6427928923,-119.6538325575,-1003.9112731874,-99.2139992608,-1004.7499782378,-842.3304447381,-841.5878232817,-841.359977469,-704.7804995335,-83.5183716318,-1004.8220427683,-840.7411273414,-705.5832080002,-1004.883096976,-704.9248633114,-590.226614993,-99.2227695327,-841.0913249551,-1004.2171396669,-840.4133702462,-100.3326187919,-840.9042608702,-1004.6068338113,-1003.330357613,-1003.6985536485,-1005.0887349947,-1004.808005513,-1004.6115928092,-841.0247637854,-591.1738669634,-591.2722294693,-841.7788000505,-1003.7193030844,-1004.205769993,-1003.8808725821,-841.9498841081,-841.1271781304,-1004.7101995629,-494.7270978967,-1004.8769858869,-1004.0446426054,-1003.5087433227,-842.0060785274,-55.0470373924,-590.2733058512,-84.0743763787,-841.0811842811,-142.4658426977,-1005.2473940909,-589.7838468453,-589.8718605743,-590.667600312,-119.0316369931,-1004.253556018,-100.8339551475,-1004.6950362154,-840.5763537917,-842.359522273,-841.347582599,-704.8575601601,-83.2690694088,-1003.4679290788,-841.3508621524,-704.9008477034,-1004.8112992692,-703.9426285286,-591.3108790161,-100.6718375109,-840.8979871019,-1004.8088832912,-841.1205519918,-99.8782674487,-840.7333489617,-1003.2632687516,-1003.9855611751,-1004.5579244941,-1004.9378281003,-1003.6756140697,-1004.4504022209,-840.4720936435,-589.5644009591,-591.237840896,-840.5885829471,-1005.1468402762,-1004.5112088512,-1004.0837786263,-841.9812346482,-841.121749623,-1004.7542166194,-495.077831541,-1004.3368825364,-1005.2416345159,-1003.9361849845,-841.4035686471,-56.1278315826,-590.4458093994,-84.2893608465,-841.9503502538,-142.3369264704,-1005.2109377896,-589.6610107463,-589.9745066365,-591.4548981335,-119.7357505795,-1004.2518474442,-99.1328127557,-1004.5124112504,-841.5125935092,-841.2190885928,-841.6997301778,-705.1627532182,-70.2649080631,-1004.2325809934,-842.1758382918,-705.196502839,-1003.4746385843,-705.8871949567,-590.7326428233,-82.8695482613,-841.1219339849,-1003.5210577349,-840.6428677202,-82.9933510732,-840.8681382203,-1004.913365447,-1005.1415710643,-1003.9074443608,-1004.8338706023,-1004.0144074969,-1005.2035521876,-841.2211059827,-590.071307603,-589.9128982203,-840.5544557962,-1003.6327714223,-1004.9773912984,-1004.0401453896,-840.5461897875,-840.8061625387,-1004.0821014301,-494.4711869511,-1003.6544786706,-1004.6606312338,-1004.3109888739,-841.0612715782,-54.7386515519,-590.2833541153,-84.1425940014,-840.941085262,-143.8268960422,-1003.6605218371,-590.4896478476,-591.1703600274,-590.3373752615,-119.558836105,-1004.8602816404,-100.5600834769,-1004.9467472621,-840.8754872437,-842.1886527567,-841.628097568,-705.0490325624,-83.496108701,-1005.0531710077,-840.4322673733,-704.9519282203,-1004.5781671605,-704.2481595373,-589.684749442,-99.4296909382,-842.161276561,-1005.2236851109,-841.7983252558,-100.2440656023,-841.5131277762,-1004.3425561809,-1003.5141675689,-1004.9881800204,-1003.2639439926,-1003.5530206138,-1003.595054829,-841.5455328856,-590.4931042815,-589.7792630916,-841.3334558791,-1004.2095123548,-1005.1060827783,-1003.7573535048,-841.7077234099,-841.3464132903,-1003.7672187797,-493.7470400351,-1004.9819744836,-1004.7389877389,-1004.0920307805,-842.2116964922,-54.7032545919,-591.031853268,-84.7535783937,-841.9279394655,-143.5289063743,-1004.8096538198,-590.5009805158,-591.1835517443,-590.0830793168,-118.7597111693,-1005.249742024,-100.3638935861,-1003.7067892458,-842.0621201617,-842.1651828975,-841.2929719729,-705.3413371788,-69.7186462187,-1004.3229809821,-841.7965915863,-704.4554010893,-1004.3188057595,-705.2500905061,-589.7830022642,-83.2848845061,-840.5585982517,-1004.1675951985,-841.8090779504,-83.3766848864,-841.0255240372,-1004.5105631745,-1004.8311205851,-1004.9974072453,-1004.331139978,-1003.3795351793,-1003.6106689873,-842.1764171748,-590.4998238094,-590.6446461258,-840.7092290473,-1004.1908729976,-1004.6992258304,-1004.4610885542,-841.421925308,-841.6155402303,-1004.7200963113,-495.0065281578,-1004.8068806567,-1003.9772899151,-1004.3000002033,-841.1679718569,-54.4718354204,-590.3494110733,-83.8561692715,-841.0416752854,-143.3662974734,-1004.7345140193,-591.1684347448,-590.1162051916,-590.9150026874,-119.9034893853,-1005.1835457297,-99.997712412,-1005.1177167901,-841.1724785807,-841.0239240634,-842.3706287623,-705.3035948754,-69.5406500475,-1003.5316655546,-840.8176417681,-705.3552458114,-1005.0665000163,-704.2063446148,-591.5217213233,-84.0599855357,-841.4113496767,-1005.0021948485,-842.1876011016,-83.494772128,-841.0717599544,-1004.5324527892,-1004.8827913247,-1004.1198892908,-1003.664783932,-1004.9720308876,-0.7100933303,0.1051625742,0.5154024557,-0.085187791,-0.4592471205,0.0859954907,-0.0402100293,0.4047450475,0.296653967,-0.6923162806,0.4488454784,0.5334276359,0.6514623787,-0.2676361769,-0.7700829737,0.7183022241,-0.3515107093,-0.6123772724,-0.2219319472,-0.8192114732,0.0405478042,-0.0263973069,0.5396528725,0.5588435912,-0.8057017577,-0.4721496845,0.8947444737,0.8022679738,0.24268497,0.5216416496,0.83659294,0.3117757538,0.9053775473,0.8838338271,0.7669318991,-0.8311880539,-0.9699003627,1.0110479222,0.026382241,-0.0701469382,-0.2946509559,-0.3930960346,-0.8528935564,-0.0917538519,0.8214328288,-0.2439601086,1.0487141115,1.0297359136,-0.648041681,-0.0006826256,0.9381420374,-0.3742605025,0.8407497371,0.7320514116,0.7430774367,0.3167716267,0.8599003851,0.1130599841,-0.1861987284,0.5074769765,-0.9081955504,0.8089682924,0.1786861032,-4.9445139416,-1.2499677335,0.4744572474,0.0442200556,0.0051671586,-0.3672185814,0.0674700631,0.6901656907,-0.5239397012,0.9174865201,0.5714276962,-0.1129856576,-4.3743243786,-0.4439352088,-0.0763725227,-0.8844595885,-0.0101831341,1.1051992748,0.6928275397,0.8591791814,-0.4836547124,2.4774482117,0.9909786435,-0.6298244591,-0.6356661119,-0.4715675562,-0.9853676282,0.346098614,0.581754796,-0.0538240306,-0.7486773275,1.0557426243,0.5716972851,0.6032182988,0.0488863601,0.0095439284,0.7292406221,-0.1498874229,-0.5142742633,0.114655253,0.4339404481,0.7274265152,-0.6935059236,0.0919490566,0.2508913674,0.1124802995,0.7529055783,-0.1555842378,-0.1627175683,-0.2900528944,0.6358772755,-0.1276374542,-0.3763736385,-1.0127051358,-0.3854960528,-0.0407309537,-0.2036391332,0.4841919363,-0.4662994145,0.6285417692,0.6158767567,0.826056592,-0.1024108113,-0.4231499176,-39.0116788631,-0.90978709,-0.3134371833,-0.309217771,-0.3165117647,-0.6834158491,-0.8252410655,15.722816562,8.6609232029,56.7317755511,-42.4859713305,-2.1599424302,-2.1218594572,1.6294142863,-2.0025068549,-9.7608293313,-8.3387266058,0.5631846443,-0.2938634751,0.7244079785,-2.487416359,-0.0733177857,-1.4302638996,-0.8355666958,-1.1215738315,-0.8647493176,0.0031980739,-2.2578841846,-0.6432888334,-0.8913300259,0.301406776,-1.4363407958,0.6159851317,0.7914242825,0.001292937,-0.5419309507,0.4143001519,-0.2907805531,-0.0814745767,0.4958634321,-0.1365592708,-0.425269173,0.7642863414,0.4756185661,0.9647454833,0.5125782131,-0.7696050992,-0.6360729365,0.438593033,0.3668250898,0.3511596031,-0.5249654942,0.5241299187,-0.5539036047,-0.9635142847,-0.8203207846,-0.9062068422,0.3563716006,0.0030715688,-0.3220134751,-0.1658142885,0.6292417599,0.0348459344,-0.1649505985,0.8808423704,0.5944534391,-0.7217292699,0.6400606494,-0.3164416252,-0.2651438636,0.7337804095,0.4561838246,-0.2061038054,0.2249147021,-0.0458730695,0.9372727281,-0.279729018,-0.6596380688,0.1503926905,0.7445819094,-0.656765655,-0.2251317237,0.2731878119,0.8107375395,0.3499244319,0.5524097096,0.6389532206,0.6227112497,0.0626737661,0.4982591304,-0.5575895425,-0.0542577923,0.5975453999,0.3843754677,-0.1319205496,0.3676636665,-0.865917756,0.4888026328,0.7024753876,-0.3789182026,-0.1117179392,0.4692547451,0.5664953798,0.8796239004,-1.8978405004,0.3524247427,0.2034362991,-1.2886911356,-0.6262312556,0.008548395,-7.3434187252,-5.4685996115,-0.0408209607,-32.4640353108,28.1984837736,205.6422239075,-116.4668018845,1946.9529935197,4.370324742,13.6048130141,-37.7884469339,80.2715977144,-105.4138053787,-31.4431503512,-13.5427248309,0.2584927333,0.0345919925,-0.4305756241,-0.3964237853,0.9414727028,-0.6433973502,0.4571121802,-0.2247224403,-0.4469793596,-2.1373836647,-1.8587576611,-1.9163118096,-0.8481104572,-0.6295841238,-2.7619110535,-1.3529072933,-1.8329093003,-1.8469384283,-0.5466609663,0.6480013417,0.8837588521,0.3448675597,-0.3932539449,0.8138821082,0.0533963824,-0.047020275,0.9900566428,0.5140423464,-0.5482521916,0.9582600691,-0.7708944319,0.9913532302,0.3624510126,0.1998380478,0.4969463533,-0.6422521579,1.225170774,0.2005727771,1.2302335496,0.9486215925,0.3047369513,-0.3492538272,-0.2718298142,0.5291298057,1.1562212903,0.2988166146,0.1360041133,1.0201321187,0.8532272974,-0.5440639937,0.8287542548,0.9763976275,0.4565468032,0.7723385581,-0.5522421192,0.5554647558,-0.437604892,0.2612772746,0.1058070644,0.3206479559,-0.9083978905,0.3436627454,-1.0872903317,0.0036354565,-0.7421631692,-0.0143928044,-0.247648401,-1.2170855316,-1.030089839,-0.5710516695,0.0435998876,-0.2621808576,2.6341644283,0.907662677,-0.5313432016,-0.0488302562,0.3520477055,-0.2002304936,1.1390326226,0.7692371865,0.4376951885,-1.267986216,-0.6303068095,0.783507796,0.5752689952,-0.039819809,-0.5623574756,-0.1281548575,0.397009695,-1.1158383009,-0.8376227702,-0.5466279685,-0.9771374357,0.4556501857,0.0979465247,0.3438421903,0.2358268363,-0.2498016599,-0.289951448,-0.4751628097,-0.0611689332,0.3092955833,0.1800133414,-0.722910649,-0.518886288,0.6156942502,0.2025301833,-0.2663475122,-0.1369973667,0.7689279122,0.3103256747,0.9422686506,-0.8799564493,0.6639502855,-0.6163279963,-0.6110717206,0.0579760192,0.8206933375,0.8448193352,-0.0903323475,0.4920329448,0.5148042527,0.4317967205,0.2469913907,-0.2535402496,0.5518221329,-0.4969132554,-1.159294233,-1.2828857545,0.7390801198,0.7620540477,1.154227769,0.2810993357,0.6972640783,0.0450324657,11.5444364283,-0.8004538601,-0.5656208871,0.0036116823,-0.9542525025,0.8577144795,0.5329321209,471.3052154954,673.9704908436,-11.7873207262,-7.4019061138,4.397143143,45.909573962,8.2714905421,-0.3739105125,-0.2959858386,0.6121266139,-2.0448447981,7.8554463228,0.6865750939,4.6053433701,-0.598979321,2.4241249329,0.3290471724,0.4889465745,-0.5797996234,1.6859778382,-0.3440761037,-0.2291448485,-0.4561821731,-1.0157725514,-0.8348257776,-0.6274115867,-0.7554953156,-0.6219535855,0.3467544897,0.6897458119,0.2652093477,0.2422497696,-0.2821058556,0.3442844293,-0.1565091465,-0.6171484862,-0.2721943834,-0.725562676,-0.2403545581,0.956442841,0.2568472706,0.9846864364,-0.0813766351,-0.474134506,-0.2930033523,0.0920560519,0.1223997561,0.8557020609,-0.0388738023,0.887591939,-0.0265430982,0.2374803015,0.0842053925,0.5963415118,-0.7515932223,-0.8144195131,0.3974752299,0.8084542725,-0.0339536387,-0.4884093583,-0.1487759493,1.0925307187,-0.3896288659,0.323574525,0.8403654689,-0.7931940909,-0.8935363971,-0.5670124753,-0.4408232817,0.0782215582,-0.3151244259,-0.3647588548,-0.5404035364,-1.0128676375,0.0491836778,0.6225172822,0.2744502182,0.8462434744,-0.3568582798,-0.7077762744,0.6671581047,-0.1366315733,0.0224727499,-0.8201671676,0.591603338,0.3299418573,0.2121868879,-0.3799795691,-0.3810225878,-0.6743153454,0.3563684407,-0.5889314518,0.9204050666,0.1919069807,-0.4678120276,-0.691095527,0.8525497423,0.7321484161,-0.576628594,-0.3476423857,-0.1849423628,-0.9775575031,-0.6126098496,0.206067458,0.6354159144,-1.0166783664,4.5396515553,-1.9463316223,6.6676938158,-4.9318382081,-0.2062588489,2.3100003331,-0.3148264493,-2.6987958647,-9.9030123074,-8.3738979176,708.8088766328,-5.9426406443,-0.8669832686,-0.0290580094,-0.5155262294,-0.3592793928,-0.5268869541,-0.2071315533,1.1075955906,0.317316623,1.170376012,-0.2235965358,-0.0825529039,0.7703341929,-0.0197958343,1.0018575852,-0.1040936238,0.9355395266,0.9331037665,0.4227535871,0.4621765643,-0.0235301469,-0.0728860656,-1.0187283707,0.689909649,-0.6462099484,-0.1720767491,0.3312589516,-0.7074210694,0.1714865598,-0.6583435182,0.4265093302,0.2125935433,0.94909725,-0.9225924074,-0.1864734585,0.0431925533,0.1502117984,-0.0605111448,-1.0233571201,-0.7416162228,-0.5337263078,0.6081129355,-0.2585429576,-0.1696036616,-0.9855259598,0.1255845784,0.1320175866,-0.7562691062,-0.5408022474,-0.4165158141,0.6758831344,0.4198119458,-0.0157681531,0.4073010574,0.0629014823,-0.1268275739,-0.3753686352,-0.5993305643,-0.4314297427,-0.1964749408,-0.1338140584,1.0090570498,-0.2309152878,0.0253940043,-0.5941722568,-0.6208968427,0.274289425,0.808168707,-0.5159045627,-0.7138022623,-0.6560558383,-0.2570860911,0.1823586344,3.7866765238,-0.593471822,-0.2520217917,-0.7326401468,0.5447016612,-0.5448557966,0.4882675438,0.6782176316,0.3885286597,-0.0127695072,-0.306971605,-0.9915073395,-0.0308063415,0.8068663215,-0.0798285853,0.6067510298,-0.316101144,-0.92251976,-0.9288353094,-0.6330708436,-0.2056529457,-0.2514125579,-0.0589620451,-0.1202244953,0.5963842061,-0.487604904,-0.6201263438,-0.5451483328,-0.2242330923,0.6762135098,-0.2091233451,0.1469594534,-0.478204994,0.6387706112,-0.6050192413,0.8248637585,0.3501332352,0.7392653444,-0.3074097959,-0.6694698763,-0.2317662415,-0.767598805,-0.5228928938,-0.6896911749,0.0404384462,-0.8223182006,0.2801819304,0.909612151,0.757654675,-0.8925480244,-0.2122242657,-0.3297593918,-0.0561289183,-0.4693768824,0.0334244215,-0.8912900733,0.5020258713,-0.3964478613,-0.9039353692,-0.159512083,0.5761638433,0.294854023,-0.9363163335,0.6832240398,-0.9655132608,0.6575800683,0.4465385283,0.2158820751,-0.048045623,0.9168960921,4.538257934,4.0240099527,-449.743462987,-23.498552229,168.9771222642,-2.5651951918,-1.9786070358,-1.3603896323,-3.9471517057,-2.7794488537,-1.7160801077,3.6672476978,0.7902454142,0.6916218974,0.3125492461,0.2579532381,1.0796854726,0.5898737902,0.8697017124,0.8317341997,0.1385225062,-0.2783655912,0.4774623151,-0.6125797095,-0.8319896263,-0.1758897027,-0.3889290514,-0.6485425627,-0.9080504559,0.2934277532,0.8494302057,0.062420526,0.4993060032,0.9392419272,0.3688079481,0.2991050286,0.0220896487,-0.0954608105,0.0777651053,-0.8647026042,0.1097064624,-0.3954085535,0.4748168979,-0.2145359764,0.7058693184,-0.7696595501,-0.4759474595,-0.1619496687,-0.9610709037,0.9457612355,-0.1579214786,-0.2342788448,-0.1226172842,-0.5830482576,-1.0299409091,-0.4531048026,-0.3386780076,0.6393925666,-0.432375014,0.2544737969,0.4806140098,-0.7028223187,-0.0768808046,0.3011477397,-0.0479116981,0.1261147135,0.1634209742,0.0387293914,-0.8612612998,0.8602012753,-0.4297098487,0.5483123128,-0.4066393222,-0.2391534229,-0.0749840547,-0.2931381627,-0.488656072,-0.5319208234,-0.8869019519,0.005544741,-0.5328364074,0.9803944903,-0.8822294264,0.4163542554,-0.1413785645,-0.3998467588,-0.1701843721,0.7294733102,-0.400133606,-0.0069092338,0.8186044195,0.0521728527,0.8729576546,-0.3893581575,0.0336721999,0.605651354,-0.0198022643,0.3752731635,0.2071072452,-0.0003821328,0.2064161398,-1.012805646,0.2521518805,0.8807430168,0.208147692,0.2479089502,-10.0154714059,-2.8806267847,-0.6556874387,0.5490465166,0.1895339561,2.2156303631,33.0572592899,-18.635810822,2.9870644171,16.5223907049,1231.1660073618,292.5005492432,-0.4666816739,0.3687033247,0.3679161058,0.1287256727,0.3276888649,-0.287035535,0.7099211371,-0.7535143185,0.5250963051,0.7073278581,-0.0681817113,-0.7810270232,-0.9257624366,0.2622396756,-0.4217911395,-0.366052112,-0.8237812295,0.0984980799,0.4361477107,-0.3577422605,0.6564251144,-0.0865735089,0.1793803388,0.0652955339,0.7945699332,0.5244712786,-0.2825188075,1.0379325883,0.565189322,-0.877811407,1.041940756,-0.6607641699,-0.6564348994,-0.1852895545,0.556366292,0.0071816283,-0.4463198687,0.8097994932,0.8345659337,-0.2991824644,-0.3468171908,0.4423107315,-0.372543529,-0.5639040226,0.850920832,-0.2508809525,0.470549296,0.8127741727,0.5125586074,-0.7910094667,0.2798782738,0.1529977602
   0.9538257239,0.3430822381,0.9633611913,-0.908668605,-0.4277187883,0.2907365476,0.7833662769,0.1995567313,-0.3442655582,0.3207978869,0.4068130507,0.0857086622,-0.4895710395,-0.5435264957,-0.1776037799,-0.1629489542,-0.2726662585,-0.5716817567,-0.8631138663,-0.1286475905,-4.025294855,0.4917600842,0.7014185661,0.7087977069,-0.3355432604,-0.2675366291,0.2713249846,-0.0136281831,0.8500557959,-0.3253187914,-0.1333311246,-0.6213593173,-0.429043429,0.7382830987,-0.6774712875,0.1696975952,-0.2374400784,-0.0538614978,0.5696351484,0.2291065607,0.212791216,-0.1425139887,1.0046177435,-0.3395088478,-0.5880163468,-0.3891141811,1.1398885555,-0.4126384287,0.8701679985,0.7622485318,0.8621131367,-0.8329703317,0.9315198942,-0.3583508379,0.3631863844,-0.1780321737,0.2100649257,-0.338124662,-0.2606584426,0.0335007592,-0.3320625231,-0.3941601473,-0.7020514516,-0.6716809646,0.2153274881,0.645658489,0.3295814901,0.3347726946,0.5482938926,0.4893108218,0.3229660823,-0.3024096524,-0.0408969695,0.7931791569,-0.7816740442,0.3180039434,-0.0992022634,-0.033227136,0.5465710112,0.6838470178,-0.6873458627,-0.3502553249,0.4207108928,-0.0653616985,0.1738465746,0.5850434332,0.0734614903,-0.3817948942,0.7495038593,-0.8054153864,-163.1438803499,-161.8772180359,246.796073658,16.6328533915,5.6545943367,-0.1514311348,-24.4977379316,-87.299965486,-23.2237968726,-5.1846394837,6.0771804896,4.2509890262,-0.0354334489,1.2800874711,10.3007814635,0.5754410258,-0.7696106742,-0.3358735309,0.2439482533,-0.6302791238,-0.3013966985,-0.8382519392,-0.5494747119,-0.7174160068,0.256912845,-0.5204002064,-0.0607420296,0.2358888284,-0.8535176906,0.3650160565,-0.7829658108,0.2136851894,-0.3580024614,-0.990469079,-0.086341358,-0.7911333061,-0.0741492532,-0.5208563553,0.8353351072,-0.8531217337,-0.418462285,0.632166539,0.6598525467,0.1027580894,-0.2374910315,0.6720824739,0.2272813574,0.5730535008,0.3668523874,0.5445216421,0.6735323695,0.2379678863,0.6394739235,0.3331975357,0.9296658134,0.7705822166,0.9660461149,0.9869994097,-0.7130897754,-0.786025968,0.6332024338,0.9297944503,0.0264691254,-0.1529436493,-0.3845173598,-0.8713613022,0.0949599464,-0.5862979984,-0.629068688,0.1378792252,0.099613652,0.0401625961,-0.0806900561,0.6799582983,-0.7880745704,0.3727358006,-0.6918285486,-0.8250518593,0.3998832843,-0.8607174637,0.6162088535,0.6589195329,-0.239192288,-0.4564852255,-0.6971067193,0.3239667521,0.0084208914,0.0573012946,-0.31314458,0.249979143,0.901461431,0.6571033411,0.4577580781,-0.2718843635,0.3483796569,0.4786932005,0.7236875237,-0.1712414736,-0.4225964051,0.7444787217,-1.0660991054,-0.8346298563,0.5170373547,-0.8655395962,-0.2832146544,-0.2947464708,1.3754322095,-0.2264001048,1.1133963314,-12.6002873249,21.2380992425,-97.4135267029,129.7289653246,23.6790221655,17.776085654,-62.658494879,55.4543041402,-1188.4404077474,-0.3156889481,-0.6304322752,-0.4902712432,0.0435719965,-0.5118550771,-0.6735614757,0.1599322518,-0.5345070895,-0.2889705679,0.1420894613,0.6381875499,0.3834188569,0.0446741654,-0.4546749291,-1.0645549103,-0.0017941128,0.506411467,0.6158988811,0.6162292438,-0.1248426551,0.244170037,0.5229815188,0.4348206676,-0.3775675898,-0.7131741084,-0.9054268331,0.4189485824,0.3648552427,0.7968311035,0.8645722347,0.8728325566,-0.7101123096,0.5982195,-1.0283504231,0.5764557709,0.7690040725,0.6137416178,-0.09873534,-0.6760730086,-0.7981298223,-0.0341295434,-0.7369693685,0.8185815628,-0.5998921372,-0.2805923318,0.4944516178,0.8280316284,0.6907222072,0.5519496513,0.0979895067,-0.8268299332,-0.2500899594,0.1433377112,0.4366706156,-0.0485942289,-0.3117179484,0.7542781763,0.1071725866,0.0112323563,0.008272721,0.8066075155,-0.7127299663,0.9443024163,0.1393410619,0.728674931,0.3148662409,-0.8999470661,0.7345763668,-0.3507326976,0.5142590328,0.63621704,-0.4550353645,3.3595341917,-0.7976903063,-0.857909392,-0.3301646669,0.7911289673,-0.7186043172,-1.0570731541,-0.0911000432,-0.7041554583,-0.1359976377,-1.0286796553,-0.760078023,0.3750731064,-0.7914997986,-0.4817457608,0.9370585404,-0.446729103,0.3656049741,0.5163560697,-0.653647026,0.1924555947,0.1458346723,-1.1315425087,-0.3688037785,-0.6823358809,0.7625626406,-0.3912113241,0.2951765643,0.6111350463,0.7635274935,-1.0854722154,-0.5926308684,-0.6679580926,-0.3462557157,-0.8923277393,-0.2914153229,-0.9072993988,0.5159475176,0.3847750413,0.3082053501,0.7153965565,0.2264103342,0.2523673371,0.8030642475,-0.0862840607,0.1675550382,0.4684013276,0.0613431646,-0.9447674958,0.2381529281,0.7490384871,-0.2240471099,0.6412879076,0.2776307229,0.6548837893,-0.236623648,0.2143154352,-0.4160528683,-0.0874642166,-0.5841437762,-0.4543599982,-0.2792646326,-0.0111086474,-0.0544464327,-0.8307158344,-0.4602302545,0.3560496972,0.7779844385,0.7587932754,0.8297209616,10.4780304421,25.7390483297,11.4497842169,1.5065719092,31.6106355608,12.1449208082,31.5702601381,591.1568961806,455.5918495014,-38.8195333972,11.1586462707,-33.1109130278,38.737470564,-4.7194701086,1.1773677531,-1.2882411,-4.7536352564,0.7768621216,-2.2715536618,0.8061383684,7.5641746799,-0.2756110778,-0.812861451,1.2490991566,0.3461950519,-0.7980527794,0.3520295448,0.0454515509,-0.9159940313,-0.3498033756,0.383786604,-0.1203445971,-0.3322891639,-0.9936064072,-1.0038838432,-0.3367804737,-0.3152952298,-0.4396137058,-0.4426853739,0.7940787769,0.7445397756,-0.4378735754,-0.5093430769,0.8814921089,-0.7219498016,-0.6958568712,-0.3845723297,-0.1942282279,-0.4362368936,-0.2507022934,0.7305906651,-1.0363039157,0.7670973471,0.2227391613,-0.9081212823,0.2993864247,0.693443823,0.0115848367,0.1862526142,-0.4791015683,0.8470576426,-0.2560780689,-0.4401702439,0.4767105929,0.3362565859,-0.5033179362,0.6443609189,-0.0981878443,0.5247245671,0.8397848425,0.660401704,-0.8176394659,-0.1174328351,-0.4018684045,-0.0870290938,0.6353300034,0.1731142964,-0.7983125397,-1.0625912304,0.7144838914,-0.7012381251,0.6171224922,-0.1187206113,-0.9855551273,-0.4174851389,-0.7051400893,-0.5640724725,0.102876789,-0.603376159,-0.9391953648,-0.4070439047,0.7637212685,-0.6459770622,-0.0684925365,0.297856732,-0.0808492317,0.0178062769,-0.8938169901,0.5050879845,0.4531683454,-0.923103731,-0.5012364513,-0.0102972016,0.8381071356,-0.7687629786,-0.1958271895,-0.5499542352,4.1076135748,-0.3973980058,-35.1852126985,-2.0480294057,41.5282003642,-14.2903658681,698.6513930381,-335.6412094296,-218.2362334086,-246.98705355,-414.1153673456,-0.005125349,0.0239796413,-0.426266118,0.1864074564,0.9870236233,0.2885837074,-0.7765514378,0.5784335414,0.7300444734,0.5449817419,0.2115120957,0.8626573074,0.2571722065,0.1891881368,0.7703596941,-0.6933577491,-0.2672314701,-1.1882456708,1.4180682085,1.110454699,2.9584890642,2.1323255065,0.6337308219,2.5417771352,1.8696070438,1.2593136334,0.9701723934,-0.506859609,-0.4881045976,-0.9410913325,-0.7361759474,0.0828876182,0.9265653564,-0.2507979684,-0.4861297753,0.1826576919,0.1802754934,-0.583374747,0.7362787837,0.0762591867,0.7626882644,1.0130317444,1.4521651676,0.5509443381,0.5233589988,1.1024049041,-0.4321629028,-0.8382404736,0.5371220454,-0.5856790905,0.0199307879,-1.5644905541,-0.6997910308,-0.1650188546,0.0716696939,-0.7011408213,0.1996948264,-0.3938880799,0.2191054993,0.6481079861,0.9418397616,-0.4873812379,0.9988287376,0.1948985416,-0.7424283849,-0.509782554,-0.5167222861,-0.5345845771,0.8557452225,0.49016372,0.3462212572,0.0862005092,336.1837134557,-1.1212686226,-3.6611953415,-8.3913388851,0.0081076354,0.4264873682,1.1167001939,0.241478693,0.6347304566,1.1468380311,1.1496625908,-2.7235607686,0.3275718974,-0.2788953843,-0.1502147579,0.4358467584,-0.3261151182,-0.4007461613,0.3341581648,0.448693269,-0.9188959632,-0.8408490008,0.4633847556,0.347553234,-0.4835177702,0.5895709415,0.6183430855,-1.0141066508,0.0467979984,-0.7521767315,-0.0801937696,-0.6334472115,-0.6075152952,-0.2724671695,-3.1808472885,0.6403179717,-0.7901513812,1.044964301,0.116697825,1.207681602,1.0387878949,-0.1841784661,-0.6366061769,1.6263778336,0.3247309756,1.0081265954,0.4604772722,-1.6787096232,-5.9092047336,-0.3995737875,-0.6923911326,0.7881799226,0.1768854637,0.1640852684,1.1038109108,-0.2675590881,0.4113127382,0.3223515955,0.3813883371,-5.1690565551,-1.3077093706,-5.3774229893,-2.4359389406,0.6460522115,-0.5652768856,-0.9042822581,-0.6931554356,-0.8796968709,0.6614261113,-0.9575483016,-13.1274406257,-13.7584047267,20.7835541576,13.7725517591,-32.9233772208,-0.360959766,-0.8250447092,-6.583118774,-2.3562351381,-45.3559231629,-22.4225518366,-10.6271202742,-24.4821007756,70.9779934351,-8.4918576113,0.3447363372,-20.6108941186,-22.8018544985,-7.8837661764,17.6398450823,15.617167168,-6.2700760514,0.7212317636,0.3425957951,2.2621241319,-0.3847443492,0.9546451121,0.4431776454,-0.3434934069,-0.4437427342,0.1257042727,0.3568553243,-0.7520748996,0.20409411,-0.7407626145,-0.0906075175,0.6281360602,-0.7179774635,0.3635910853,0.898237316,-0.4340455614,0.9868498421,-0.3002600467,-0.5637548012,-0.3308933181,0.5028923803,0.0279283119,0.2879810901,-0.5387907362,0.8602194731,-0.2304591316,0.5870957973,0.9122236143,0.9990532875,1.0981038064,0.6950863873,0.5042180514,0.5664100201,1.0753234249,-0.9226734316,-0.2606198252,-0.6246296421,-0.3227576509,0.9136269871,0.0249511489,-0.0703057978,0.7053887965,-0.1555486372,0.3268365433,-0.2890982247,0.6242419836,-0.136228548,-0.1658282701,-0.8299933133,0.0135028461,-0.2736927527,-0.3077490396,0.658760386,0.037266686,0.2318087921,0.5046209758,0.4199474337,-0.8956529867,-0.657847453,0.0173677551,-0.6438753425,-1.920423045,-0.4470659392,-1.1596667189,-1.0951112841,-1.2068501509,0.1736185069,-0.4100810363,-0.3355858697,0.1828963784,-0.2215243775,-0.5688453826,-0.8199789179,1.1889190489,12.2564823423,2.1086144285,7.5264602716,4.5143136656,1.5510279777,0.5990277336,0.6926560943,-41.2977391075,-4.1626649581,-6.1997400086,-15.5530227458,190.5017584046,1.171585016,0.5857665772,38.9973796372,4.0966857935,-73.1209425262,-34.5171820603,-12.8204676217,0.1720289725,0.5592264451,0.2530557144,0.0835302112,0.0802972024,-0.5831758345,0.8704951648,-1.3296270166,0.4094692452,12.3475906237,5.2909845655,3.1990504071,0.4536274966,0.7739489929,-0.8921781771,0.6952851888,-0.4999446582,-0.4407211875,0.7819318373,-0.1983209034,0.6749895766,-0.0734143659,0.65849808,-0.595170335,-0.3362845213,-0.7252197815,0.4786942765,-0.9194686963,0.4261152203,0.0599407945,-1.1662821766,0.7955683509,-1.1321673598,-0.1346019656,0.5097204853,0.341642298,0.2653459124,-0.0521587399,0.5246657349,0.8392366352,0.1010230786,0.9592478475,0.7441133547,0.6321837051,-0.0674080724,0.6333360155,0.8147879038,0.5991301238,0.6432434492,0.2121188144,-0.0600314599,0.5735992633,0.4685720712,-0.1007829436,-0.437008796,0.158299298,0.9577387045,-0.1919071774,0.6601633528,0.4361846869,0.8959134087,0.8783251124,1.2556290869,0.2211124626,0.0697829716,0.0323893756,0.0745372218,0.0488522164,2.8565271499,5.2901063439,2.807540587,2.2819049586,2.144636909,-1.803448086,-2.744625396,-1.1939542862,-2.4315758168,-1.8642225642,-1.8258479939,-1.1064538464,-1.3211451147,0.7438769972,-0.5748596479,-0.7227493426,0.2274294647,0.5387522484,-0.7646892727,0.9264506384,-0.6427174226,-0.4644558731,-0.2096435804,-0.2462209514,-0.6506254556,-0.0220075902,1.0381104754,0.02944653,1.0257780674,0.5299264654,0.1129455419,1.0265104786,0.1583149133,-0.8338701793,0.7628090858,0.6182954272,-0.6167401109,0.4954786731,-0.0438101853,-0.337047685,0.1808377958,0.1606070873,0.1641462283,0.0961065955,0.1262271518,-0.2453903064,0.7106347193,0.4174235875,0.3583341908,0.6598923087,0.5712894278,-0.8361623099,-0.7318847184,-0.9348056155,0.3221723357,-0.5703098486,0.7383220667,-0.8364097522,-0.7645800507,0.6387178261,-0.8690611758,-1.8859825043,-1.535761997,-0.5112016405,-0.6837064037,-1.8987105768,-2.1978923211,-10.3753494411,-0.9377968544,-0.0294422033,-0.1616030444,0.7855344972,0.883751019,0.8365262123,-56.9095755221,-119.0957955765,750.4161726561,-2256.9173001422,-806.9484306425,-969.8508725479,-349.2355426917,-8.2945987399,-1.7557115725,-31.6563371536,-2.8727801625,-0.2968450737,52.3451841983,0.8606141404,-0.690844981,0.9844710123,-8.1306990794,0.2598272052,0.2524811687,-4.1504126428,-1.5874155958,0.0965660375,0.1539772886,0.4161056128,-0.4162295559,0.6065512959,0.150358231,-0.1806229284,-1.0956114603,-0.1532709127,-0.9561033472,0.0713747183,-0.916628805,-0.803629645,-0.2430944539,0.835922618,-0.7734551238,0.6282559173,-0.4865897585,-0.103899293,-0.4611361622,-0.9601468125,0.6827746025,0.642510232,-0.2626177202,0.8813957388,-0.5888563896,-0.7621104447,0.600386265,-0.905997617,-0.8477793277,-0.5935589256,-0.5245419116,-0.6745060437,0.1264272806,0.9505519314,0.0095442791,0.4298075366,-0.4093440548,0.7239651434,-0.662259923,-0.1734713083,0.1742037484,0.4192181579,0.9638639141,-0.8283847308,0.187713674,-0.3178522022,-0.9107813634,0.2110616605,-0.4352121108,-0.1864108733,1.0986543391,-0.6967165882,0.8207675347,-0.3459195603,-0.6217035473,-0.2598546535,-0.3345889686,0.1767856179,0.650551265,0.8402825632,0.4987913812,0.6140826941,-0.3025592489,0.319543102,-0.1457107834,0.4792539844,-0.3199291698,0.0070041469,0.7155788895,1.0163746258,0.0440322693,-0.5885526436,0.4067382459,-0.3184940457,0.1043124786,0.0390251805,0.255432795,-0.9120253804,-0.3200761392,0.0716830542,-0.0969978506,0.1911754641,-0.8565278881,-6.3142198992,0.9068003898,-0.7871586299,0.0285459814,-0.1725561085,0.028760192,-74.9606549781,-5.0231454401,440.2998766692,-1398.8823912275,-844.4054575398,-140.5484872667,-30.6387301974,0.2255577793,-0.8085139577,0.470747162,0.2128069007,0.3268507303,0.6842531238,-0.641811286,-0.0477251389,-1.3589587948,-0.0525918039,-0.9800263239,-0.8626434843,0.7574401648,0.4248664102,-0.5225935226,-1.1456741569,-0.7812959016,0.1057491596,0.5747094608,0.5521709186,0.2611227637,-0.6628489343,-0.7616864053,-0.7935223199,0.9914448547,-0.2176962312,0.6984304739,0.5425898175,1.0211874529,0.4109150522,0.4277730185,-0.1850713141,0.1533710666,1.2087567654,0.9454116173,0.8948004478,0.8102655652,1.658751094,1.0763461532,-0.4304456777,-0.0471636576,0.0554640963,0.4904312984,-0.402612834,-0.2618432414,0.0212779676,-0.637837332,-0.6726220785,-0.3345012191,0.6433564439,0.4055736559,-0.8756327699,1.0201319293,0.085419764,0.8377155272,0.8217857622,-0.8374810842,-0.3640206789,-0.3297661493,-0.7832420296,0.08648683,0.2806126607,-0.2741691015,-0.4089283285,-1.1345899719,-1.1069927651,-0.8037122356,-0.7212017729,0.0329768841,-1.0813877695,-0.4619633072,0.160827989,-15.3031504113,-12.7400436244,-0.9895137331,-0.7093283422,0.0721223585,0.3838737903,-0.231812617,-1.0312102499,0.5727239072,-0.9077494941,-0.6838680217,0.9105772583,0.5021005588,-0.1795680675,0.6791675025,0.9326690753,-0.1222545957,0.4427608734,0.8273948216,-0.2087667863,-0.964711028,-0.3715414821,-0.6152450332,0.5365609073,1.1004807391,0.518890703,0.1967209045,0.3788674636,-0.4468836399,1.0410768311,0.0502555877,0.9090783365,0.3676850809,1.2927518129,-0.420340896,-0.1021749551,-0.015464812,-0.7167710928,0.4632119285,-0.7066719642,-0.1295556396,0.4360463386,0.0258695509,-1.082010968,-0.1018953808,-1.0296108809,-0.7435869736,-0.8753103953,-0.4317638591,-0.005347609,0.7113244715,0.3167085599,0.7555129545,0.815111467,0.1727932191,0.0977729828,0.4622083295,0.0593834059,1.0833419914,0.8301867636,0.3953711387,-0.0381178047,-19.5239189082,439.6248117441,-0.8855465226,0.8525221967,0.8149552081,-0.2626761525,-0.6158852139,-0.7994603124,30.7605491822,37.3657072895,-151.0611505543,84.5511030312,19.6472099778,11.6066903549,35.7713861862,-1.6877231362,-41.1877408917,-17.1081854224,-10.2134994008,-23.7785492921,3.2333470166,-0.3901875122,-2.1130929514,-1.7448003925,-1.1901923044,-1.5840330271,-0.4372167911,-1.3084938188,-1.6301023528,-0.3777775626,-0.7291943317,0.4896799249,-0.3458196742,0.0978033636,0.6866848697,0.2697087028,0.8235704956,0.3364772675,-0.0828531133,0.3962524759,0.817350493,0.5253064195,1.0590153299,0.9123744745,0.578910163,0.0869334211,0.2359095715,-0.5325491135,0.1833889701,0.5104271015,-1.2041819909,-0.0511733226,0.011021061,0.7452077979,0.0820812206,-0.5745512028,-1.0501756657,-0.0654233366,-0.5148053998,-0.7726886883,-0.9957542864,0.1743998957,0.1558664924,0.1371565412,-0.0560349339,0.9576586645,0.2929924961,-0.278302751,-0.0438522884,-0.5159691437,0.4109586656,0.5175500871,-0.7161341236,0.8381358211,1.1093849011,-0.0604925244,1.1282712086,1.801569352,0.8208737032,0.3488460826,1.0692302343,1.4061332263,1.64399776,1.2238627496,0.5966093082,0.8461085919,-0.1613875583,-0.4110497882,0.9127653075,-0.3209116044,0.4354476956,-0.6980573774,0.116258837,-0.2529257314,0.7502020015,-0.121009255,-0.0664080783,0.6451632396,0.7950870487,0.2724543137,0.6397356403,0.8087893271,0.7581682601,-0.4859789407,-0.2466668327,0.328719613,0.7759843805,-0.8149503008,-0.2852257646,-0.9571763613,-0.7436928712,-0.2687925079,-14.7028443619,-0.8515989995,0.9382655281,0.0418078994,-37.6016326268,3.2482454604,53.663491501,438.9526753882,171.0342087003,481.5342424291,187.1730247295,-29.8154378727,84.0244913865,31.3592675456,-0.2677464269,-0.0098533479,0.4716388671,0.2031278501,0.1277648535,-0.5712653127,0.072392105,-0.3330060401,0.4693500766,0.0466142771,0.053496326,1.0157935097,0.6058924303,0.8791414314,0.6376762611,-0.7224434117,1.0045038635,-0.1117984587,-0.5696055431,1.0063198638,-0.685985228,0.137479517,-0.3234477799,0.2750578809,0.7467812979,0.3981264951,0.8099577731,-0.3355016639,-0.249696887,-0.761470151,0.9345326679,0.2581382002,0.1809499371,0.1933979243,1.0525010282,0.5152086871,-0.1952105782,0.3134410824,-0.31500518,0.1697332776,1.0360534083,0.44640051,-0.1603367318,-0.3835726998,0.8694273582,-0.4846503364,-0.1577929877,-0.6497690185,-0.2169382017,0.6647622176,-0.0919850152,-0.6281572951,0.2094002638,0.4820078013,0.4220760707,-0.0853852121,-0.8075090182,0.7824804328,-0.2461819412,-0.4562118826,-0.8445967092,-0.164814613,-0.6808230393,-0.355139412,-0.1540260268,0.3793516892,-0.60181869,-0.8187845364,-0.7044096588,1.0574887248,-0.2244214545,0.2805694188,-0.7950639159,0.4510037894,0.6911152656,-0.3630748984,-1.0404662857,-0.2846188382,1.204950209,1.3079884174,1.2974880464,0.715125138,0.6460465887,-0.3706108553,0.8969901706,0.3525673994,-0.3437447981,-0.3231154539,-0.3003630659,-0.5222549465,0.3021743254,-0.8777293442,0.6179099912,0.6790037969,0.6772974094,-0.5365569274,-0.171434394,-0.8152823735,0.2680428459,-0.8583426922,0.2016950116,-0.11220616,-0.1368678179,0.2575588042,0.9295224094,0.9021093389,-0.4707194383,0.2191431895,0.2045719593,0.7847536485,0.4039308993,-0.6726847704,-0.9005975929,0.3862959311,0.2424729634,-0.5941383126,-0.7278308221,-0.1166807256,-0.0634344436,0.6352166365,-0.6442159659,-0.6488656252,-0.4401475187,0.8832992928,-0.8759164596,0.5240667098,1.7241641679,-0.2862346951,0.1984566488,8.392600252,2.7066743276,-12.7343116822,-2.5065966697,0.9196555962,1.3482608063,131.4558452716,-0.4545083481,0.5207796898,-0.9983541343,-0.059085051,0.686014753,-0.3404978357,6.1220439385,6.7271034029,-62.5107375049,-213.3664055785,-417.8084987935,-225.8750391939,2.2532151928,4.4230669615,2975.3736590334,-8.8427402338,3104.4444095729,0.9546391735,2.3388604957,1.2724193393,0.0316092238,0.0429329481,-0.8649768171,3.3166999611,-1.0878209669,-0.5779317146,-0.144085076,0.3448886449,0.471694756,-1.0305596922,-0.1353528906,-0.0172680082,0.1650004145,-0.4281707272,0.7970756411,0.7023910913,0.6751232749,1.5464087234,-0.6232234797,-0.4428320774,-0.0548037345,0.3648351977,0.0780019959,0.0628912068,-0.2070671538,-0.7113558583,0.3672042065,-0.5742532056,0.9138979723,0.5215795183,0.1053387889,0.2705249479,-0.9106019455,0.6947491387,0.765498624,0.2356090281,0.368062242,-0.4225996752,-0.4575682841,-0.9086840656,0.9057661736,-0.8294697617,-0.5390999593,0.0467812213,0.7560189422,0.6973516752,0.6408384132,0.0317731777,-0.879293985,-0.3007862628,0.2439201964,0.8661670339,-0.1274616369,-0.003191926,-0.0995613149,1.1020377003,0.806429213,0.8830925338,1.1079518081,0.235613366,0.9824837946,-0.2096818869,0.2720001585,-0.6170782311,1.0726366152,0.6729550209,0.4878139737,0.6885981439,-0.3054093673,-0.0275393639,0.641540244,-0.3487197595,0.5820250952,0.8489827386,-0.4657849519,1.0218530667,-0.2198219425,0.9995963638,0.4873213042,0.7117376579,0.0520192058,0.1202784808,0.5525156709,0.2589652253,0.2914244663,-0.6443085457,-0.1901463258,0.7732889915,-0.4495881803,1.1403409739,3.169253514,-0.5683929113,-0.1116364183,0.17947905,0.2975582412,1.0272950329,-129.777618659,241.3924424679,-1075.3513031651,2454.0489130533,-23.9130656598,-47.0028033865,-27.1353585135,-6.2988359855,-0.1365875609,0.8754494908,-0.5618065694,0.1541796909,0.1917368486,-0.5877382493,-0.4692505946,0.8494612151,-0.3930320542,0.5492004006,-0.2451810169,-0.0937802712,1.0141457928,0.0139465514,-0.2905214089,-0.1043564221,0.5540904398,0.3056702938,0.8037369806,0.5788421145,0.859958093,0.5785152926,0.6218025335,0.0537177755,0.5200636698,0.8475074374,-0.5752698166,0.4908336039,-0.9725903477,-0.3809482156,0.1183442322,0.8168697873,-0.7389574267,0.2033854796,0.4533026114,0.3675738529,0.5305313271,0.1444798192,0.7937434725,-0.3738833191,0.6686494472,0.4876608276,-0.2665025858,0.863243967,0.7674714489,-0.2910491616,0.1485577223,0.8796038981,-0.2485616328,-0.0774396505,-0.7068342029,-0.6479673501,-0.4226353574,0.816153624,-0.0295665255,0.84469416,0.1381342694,0.4244674959,-0.2714481069,-0.8305399113,-0.2004834609,0.4513134864,-0.1862275615,-0.669128105,0.786935553,-0.0628936748,-0.7661786326,0.6375629276,0.9801093297,0.5478053011,-0.3304562998,0.5693557882,-1.9316829103,-1.8894636524,-1.5264643902,0.8883754826,0.8609104617,0.0287715132,-0.6775422931,-0.2341813054,-0.876319413,-0.4612366198,-0.4562229708,0.4773197745,0.8944444039,0.355836067,0.2649998503,0.5382404158,-0.6235210911,-0.4543960802,0.8193508522,0.4329460175,-0.0048098923,0.82423979,0.0578216854,0.9529883534,0.889609529,-0.7034586244,-0.1967520035,-0.5813699318,0.4586923483,0.7489368368,-0.673465346,-1.0546048245,-0.4766328257,0.0689994627,-0.0438979405,-0.9387563579,-0.4924329284,0.7181160601,-0.0244292323,0.4521966633,0.3011066021,0.2546207592,-0.1230219282,-0.1136197082,-0.852006584,-0.2102908238,0.9534721743,0.4092171665,-0.417918145,0.6550208339,-0.3337729263,-0.2084564802,0.4079310358,0.7487954785,0.4700686915,0.0254870793,1.0526817033,-0.7234938788,0.9170895373,0.8728975609,0.7525255745,-0.5911718356,-0.4380459307,-0.0384439451,0.8004516807,-0.2722478419,-0.0094627023,-0.0716414471,0.5840671066,0.2215757034,9.0707364054,27.4386498427,-18.127259569,-13.5754298371,1797.3281713958,0.4020265864,1.0647132047,1.5697016397,1.9220829004,-8.3122146096,2.1238834653,8.5169013477,-2.5580467718,-10.1694030886,1.2500535674,2.4154003588,0.3414950959,-3.648891467,-0.3260325533,-0.7698945743,0.6541609426,1.146635139,1.7661198493,2.346597522,0.7168729536,0.287620474,0.1023631934,-0.7350188862,-0.5193640303,-0.0290081124,-0.0430750425,0.0931264611,-0.0481934229,-0.4424660878,-0.170997808,0.2346616942,-0.5636270567,0.1473087794,-0.2882671024,-0.5183539629,0.6936230879,0.1813284467,0.8874713772,-0.4689255439,-0.2210435508,0.6748258556,-0.1284663004,0.802033986,0.0904458088,-0.5666622924,-0.9322802118,0.3081217105,-0.7840791936,0.4062915559,0.7605710322,-1.020447696,0.2193855714,-0.4753894711,0.1882888753,-0.9970094235,-0.2814069765,-0.9798483565,-0.7366961512,-0.1674003586,-0.5174047248,0.2743727596,0.8985533409,-0.7640865504,-0.8670258783,-0.1914012011,0.7244614441,0.3689747897,-0.4119041255,0.506298608,0.3018962191,0.3900842749,-0.0418425739,-0.4762758876,-0.0804023014,-0.3504550516,-0.4567609593,0.059242115,-0.9380146186,0.8468262089,-0.2693551646,-0.3879776192,-0.6488153727,0.264814292,0.3116432107,0.0442588501,-0.2874808542,0.2881962213,-0.7725754205,0.7652383789,0.3672071621,-0.6157348115,-0.7208878981,-0.4349045338,0.8458895424,0.7430106848,-0.2479149983,-0.2296183019,0.6697780818,-0.2345369578,0.8653643957,-0.6285035793,-0.7431309726,-0.7792117214,-6.1804317909,-5.2059496268,-15.2859346778,44.1014877532,33.2357181197,16.7327844196,-0.7533086273,1.8329052246,0.4962662177,1.4452080997,-0.4511054541,0.7450908926,0.575007071,0.7392793883,0.1025909066,0.091905234,-0.9536280166,-0.0537649829,-4.5423404856,0.711740883,-0.7091869575,0.3464890081,-0.2221864979,0.5061091551,-0.1668379953,0.8014573678,-0.2248491586,-0.7533176505,-0.7550861044,-0.2168562307,-0.6126529546,0.4468542239,-0.4334052371,-0.5289706609,0.7167123317,0.8350104063,0.410874775,0.8328468322,-0.6078216855,-0.2967575987,-0.9083311911,-0.4173043363,-0.148792312,0.2722798952,0.5034041081,0.1412723463,-0.8648252613,0.8064189181,0.7066000752,0.3222691246,-2.2201686556,-2.0900953188,-1.3041811808,-1.4496233725,-0.2018728309,0.5422816749,0.752710022,0.418307768,0.8243842149,0.6777752272,-0.030142327,-0.2106815506,-0.7073873888,0.2165770603,-0.834888573,-0.256124314,-0.519308263,0.9659174012,-0.2725997537,0.5938898911,0.775316663,0.3069250225,1.2874771807,1.0655595689,0.9069836086,0.4607876473,0.7451265665,0.7744728767,1.0469648422,-0.2552476145,0.1713593275,-0.4208818139,1.4809741401,0.3602317228,-0.1580313917,-0.5931487054,-0.0216296281,-0.8179230422,0.8514894894,0.226395427,0.3864606625,0.030862467,-0.0831896366,0.4463220925,0.167130153,0.6833513478,0.1903148065,0.2178158022,0.8019556662,-0.0382521012,0.193205298,-0.4161404647,-0.4332980567,-0.5880716268,0.569497107,0.5506963654,0.0395728068,-0.2980023836,-0.5016317131,-0.1355014689,0.0018704969,-1.5579593656,-0.2836862396,-0.0662505237,-1.2688831515,0.3571332548,0.3664413309,-0.8982551768,0.0845645374,0.4700540347,0.3056888048,0.1343649097,-0.0354616805,0.1703329746,0.2085381551,-0.0403406542,0.9298329074,0.9344316547,-0.4379823864,-0.0356339039,-0.7793701548,0.8340156309,0.1643911523,-0.4847735775,0.3154091164,-0.5281769254,-0.2699097689,0.6770386946,-0.3970132469,1.5950230628,0.8751333003,1.1660093411,-0.3322448598,-0.9471436214,0.9067376017,-0.4610679574,-0.6461402813,0.6825945128,0.1133457441,-0.1955372409,0.6286180124,-0.9509215407,16.6188927405,31.3878106184,1878.5404856165,-5.7794705726,-55.5496174459,-7.219802705,-9.7600846645,-9.9749654461,-1.718954053,14.8617417366,-0.0504592119,-1.1915540896,-0.803947977,-0.7566522313,-8.3598161776,-3.3025541758,-0.8206045559,-0.842187284,-0.5000531144,-0.4970556641,-0.8519705266,0.0474730655,-0.29616828,1.4392050623,1.4149179057,0.0864404702,0.7042319038,0.6939887046,0.8189964011,0.0244218894,-0.5327230978,-0.387701064,-0.1281807004,0.0036004946,-0.1972070774,0.190069314,-0.2356364024,-0.8224260116,0.4318667696,-0.3809963477,-0.472727005,0.1904776604,-0.5429345057,-0.2541954985,0.887383371,-0.5994872613,0.2213549217,0.0446078149,-0.645887615,0.1741534801,0.4966503283,-0.5598918218,-0.8145547253,0.4949550844,-0.7085663491,-0.330128119,-0.5620571357,-0.4926989925,-0.1880841247,0.733648885,-0.2367104457,-0.1922052812,0.5149545107,-0.3431201682,-0.5435131794,0.7647092677,-0.5872509729,-0.8706143158,-0.086518918,-0.1392802125,-0.8532314081,0.8256859578,-0.9813010849,-1.0860177493,-0.5140723704,-0.0080916802,0.2791044562,-0.8751612166,-0.5003503399,0.7545522877,-0.5060048114,-0.5448409285,-0.5750604906,-0.6355202885,0.6421368207,-0.316169309,-0.1628052829,-0.096936089,0.5301141918,-0.2685492699,0.0697027168,-0.1921407006,0.7958767481,0.0981375844,-0.3663132002,-0.8146535225,0.4238421407,-4.9220803052,1.6060252884,-0.5175152715,-0.6503557376,-0.9043522066,-3.4907919152,-8.095704424,-2.3454913951,-0.2733300855,-1.1955590545,0.0047866076,-1.4228206963,-2.0980243696,-6.193739636,-4.5316750934,-29.2076851954,81.2869526536,-4.6647341609,-48.4470967076,-49.4252976494,-6.4990716681,-0.989358803,-0.2324286366,-0.674893998,0.4672914609,-0.3779816196,0.7335247166,0.2397698246,0.2512722179,0.7880053263,-0.1914655969,0.4995875148,-0.0070367162,0.6653292051,0.5741959554,-0.5140606169,0.7806599728,-0.835843827,-0.4669270238,0.3208596348,-0.3825530266
   0.1246675232,-0.5432861549,-0.9210594846,-0.5455719984,-0.3111005856,0.5465504092,0.5850825702,-0.5838941754,-0.5356757471,0.399815137,0.4958087892,0.5986703645,-0.4070185956,0.4307812318,1.0528683938,0.4189939265,-0.9120407982,-0.1417108979,-0.0246309339,-0.426092278,0.3285947543,0.620844301,-0.9197069251,0.3714526364,-0.8985121443,-0.1003861567,0.3487637085,0.3123998947,0.2230431701,-0.8904445887,0.2737666685,0.3233401639,0.086528133,0.9823410944,-0.5550098196,0.3435612229,0.5756385195,0.3725250936,-0.1130776947,-0.3711419342,0.4630625359,-0.4682247012,-0.6858404618,-0.769585579,-0.1833443838,-0.434194368,-0.8131606262,0.3710830731,-0.5163465302,-0.8140994856,-0.5781845537,-0.5722635173,31.1093561135,1.1254481151,-0.267617736,0.519337195,0.205215399,0.3022508493,0.6711712904,1.2968759899,-0.7092119207,1.0156512678,0.7597182945,-0.7399265221,-0.7737028276,0.0628668251,-0.4361072805,0.4121158106,0.4823521739,-0.8695599883,0.013810148,-0.4504752746,-0.4199753393,-0.7562972736,0.0478505745,-1.5977542855,-1.4020395903,0.3649939312,0.1812512657,1.0671261547,0.3966944349,-0.686121652,0.5651622894,0.3089727801,1.0060671413,0.8433100047,0.8134419926,0.4151772747,0.0007307868,1.0398867191,0.796988109,-0.7863231777,0.2040863072,-0.0766972018,0.1284011625,-0.1185292595,-0.821951789,-0.4578557362,0.6377455133,-0.5812717668,0.509640593,-0.4391198,-0.7804374216,-0.951176429,0.5282748261,-0.5685952992,2.012392656,1.5371538973,1.2181655998,2.1529394427,2.3517980256,0.701345711,2.4472999581,1.4913919308,0.6269773694,0.981889714,0.5491194546,-0.1578735423,0.3794016976,0.9755737091,0.6662212771,0.9324652759,116.2946512884,280.7695379528,63.7176879394,-11.0543238493,0.3886847233,1.3677650896,0.3313725893,0.8868270374,2.2210662927,4.6984824319,2.1523112163,2.8754107421,6.3039329546,5.8515083309,1.6169835598,-0.1069939042,0.3387222456,0.9025584136,0.5547504005,-0.1114038037,0.3557391963,0.8456606012,0.1477917961,0.9326167734,-0.0548913911,0.3489229133,0.6474037469,0.8879330523,-0.5216586752,-0.029033369,-0.2075282073,-0.0741435534,-0.2223056889,0.2768048246,0.3115549146,-0.1589530949,0.938446438,-0.6892455477,0.8069962411,0.358439236,0.2632081456,0.3094015256,-0.4455451354,-0.5206554466,-0.6459605961,-1.0709683556,0.3768148595,-0.3340388425,0.2776249729,-0.6113015585,0.3831891477,0.3190661833,-0.1430528162,-0.4131884485,0.083349295,0.2986155065,-0.6968825645,-0.0551911299,-0.8494568006,-0.6310208046,-0.536032741,0.3335191596,0.823386784,0.6724356582,0.5849493804,-0.7902523755,0.5160341111,0.6452093653,0.5795085086,-0.1132406441,0.1078691913,-0.6834374754,0.215142747,-0.0086672054,0.2665166053,-0.0111038635,0.2510594138,0.2398897441,-0.2658660767,0.3472818138,0.8885962082,-0.880803253,0.6433119251,-0.4313087393,0.3469854118,0.5877337244,-0.040648506,1.0180811083,-0.4388911738,0.6287469204,0.095638514,0.8915454522,-0.7058659101,-1.2656826794,0.2641979012,0.7527799104,0.4166525796,-0.3412620539,-1.5302790653,-2.2303008509,-1.1783387082,-1.251226382,-11.9175207628,-0.9283334722,-0.2236501318,0.3218287441,21.011457669,-3816.3450305988,-4012.2174080002,-4654.57925079,-4068.3847839629,-193.7619520529,1.9336492771,-37.3853083252,-8.3364192368,157.1314989785,568.4363547424,584.419335886,0.7153088178,-0.1270812741,0.7096009989,-0.2717073152,-0.5570267881,-0.5170490792,0.059107268,-0.3649023996,0.5127945031,0.2821260821,-0.6802145143,-0.6434089759,0.9310725194,0.505974032,0.8017770626,0.0568859823,0.314543423,-0.1922896287,1.1782366103,-0.1636645685,0.0473376488,1.2106938938,0.6986371946,-0.1208117519,-0.9471698224,-0.4631315669,0.7136090936,0.1901246216,0.2347888472,0.8307956252,-0.5678443026,1.1127667646,0.8919045991,-0.3041797749,0.4786648621,-0.1715655535,-0.1827519848,0.562233434,1.3419634417,0.2822539322,1.2781221155,0.1909538107,0.4138993116,0.7254839133,-0.5681055631,1.1904552384,0.1393033708,0.2883660036,0.1409716161,0.056146619,-0.3260082543,0.6944283832,1.0188947507,0.2485484324,1.076453588,0.4519293404,-0.0946720909,-0.7679029715,-0.1373097451,0.5129109096,-0.9083874677,0.2389138259,0.6660206548,-0.5869724913,-0.0275296101,0.8710097494,0.4844259398,-1.042373791,0.0308045683,-0.8899188394,0.080466626,0.3078877376,236.4155834909,68.7910401357,357.5394973737,171.9803677908,0.8909929795,-2.3435581324,1.2280155283,0.0803683846,0.9637365482,0.5251827056,-3.0179783664,-0.8767154944,-1.0086991003,-1.6786096648,-2.4560370654,0.3564423374,0.6219191613,-0.2835946833,0.5027754189,0.1668093706,-0.7102415645,0.854991933,0.0413412539,-0.1793735172,-0.5301030858,0.3896194087,-0.4140509298,-0.0966304597,0.1285208727,-0.7014617152,0.5647880279,0.5175555395,-0.2780084737,-0.7538142779,-0.8637687683,0.7377058975,-0.8297937054,0.8049267591,0.3473687996,-0.4601706282,-0.669804241,-0.069532628,-0.471201708,-0.405427837,-0.1860941241,-0.2456340532,-0.6120873932,-0.1754294672,-0.3986521017,-1.180623906,-3.653829454,-1.6363997723,-0.4892102334,-2.4348974117,-0.1033302026,-24.9720822862,10.194091248,348.980354497,-239.419766104,-0.7985503315,-482.0650482486,-124.5332058163,39.3841032133,16.6834274076,0.3689177891,-0.1704461381,0.1637059125,0.6028163201,0.9791958992,-0.5060256662,8.53821146,11.1947337865,-18.2997496699,8.6139554372,503.0955917457,6.584621599,35.0946999675,2.6248526713,53.7824369579,24.2250522577,324.5034061139,0.0080058778,-17.6414088912,-7.4995564637,34.7049684032,12.2344510974,0.654960677,-18.4538387108,-3.6637163526,-0.2778574992,-0.1919343199,0.2222350586,0.4453698861,0.207063887,-0.3231842132,0.3320416069,0.3907288642,0.7549472616,0.1625843192,-0.0050882874,0.7570247949,0.2618462566,0.1609172258,-0.7783055602,-0.0673207609,0.1108536692,-0.1111845133,-0.6597025977,-0.70370782,0.6198057019,-2.3569678313,-0.3592985125,0.8124809198,0.7142154612,-0.6311100553,1.1492455052,-0.2564368064,-0.3247262852,0.7496171657,0.6246047057,0.3571603991,0.2700700914,0.1075028908,-0.5646870182,-0.3449559341,1.0455011165,-0.1050076599,1.1004877869,0.563200414,0.4796287021,-0.530281852,0.6321370152,0.2036364912,-0.3635343713,0.230247607,0.0234663092,-0.2275436678,-0.4695416973,-0.0532556785,1.1831607605,-0.3325492053,-0.6186464005,0.373198881,-0.5105469525,0.3175231771,0.9069762877,1.0688475028,0.0584453635,1.0720256094,-0.5565059499,0.0336871473,-0.8231709221,-0.1631039395,-0.4794644451,0.0248833869,0.9118585658,-0.67384512,0.2231883606,0.8959131237,0.5638813016,0.5645053066,0.5788092833,0.5216842693,-0.6941873401,-0.984673487,0.1965291207,0.0848915233,0.7025781737,0.7454088124,0.677939256,-2.1017116154,-5.2527146417,-5.4642528967,-9.3265052786,-4.2766576416,-2.416279636,-103.135743897,30.0831190488,47.4954149298,0.2924204524,0.5134955849,-1.8279838286,-0.0934333821,-25.7616667769,-7.0825571866,-2.8753021468,-3.1148371633,-3.3346548547,-0.1698263142,-0.7055427202,0.4526650654,-0.0623363954,0.4014649105,0.6258947481,-0.26407888,-0.7908573997,-0.8576902131,-0.5954160061,-0.0695774142,0.52256721,0.5947809011,0.2384129565,0.7846162933,0.1883915623,0.5415540593,0.3036848109,-0.0677423543,1.3198686627,3.1498735543,0.0002705986,-0.0571813679,-0.1585737596,-0.4209664629,0.4528026944,0.2543753131,-0.961379521,-0.9165418615,-0.0015666311,-0.0759507807,0.5709176059,-0.9246208638,0.1840987095,0.6464827243,-0.6792574782,-0.5638731155,-0.360401876,-0.0322342124,-0.9756246317,0.6564861874,0.3713322823,-0.1245197442,-0.6086101294,0.7980704372,0.3426172404,-0.1308089587,0.6088727097,0.4200681253,-0.6755217073,-0.5526002747,0.2991713308,-0.5111299984,-0.7329116874,-0.8448341436,0.882238566,-0.3614737084,-0.8719515507,-0.6577942953,0.9911479743,-0.3918218847,0.8539618147,0.1371211715,0.2612944647,-0.2115855903,-0.940250106,-0.4291977567,-0.5569331419,0.6968857308,0.7257576959,0.5342998381,-0.6708489546,0.9825276074,-24.7495347314,-3.427244408,-0.6585448723,-0.787846169,0.1944793221,0.8361789535,0.7581604178,0.6759050696,2.5203206433,4.4591773745,-15.6813482721,2.5897813685,5.1219060688,1.7425123713,0.0779996094,1.1665737619,-0.6483433646,0.4047332341,-0.6781997454,-0.7326333955,0.1070736664,0.9259961459,0.7620522289,0.7246832337,-0.355371054,0.8131489265,-0.1389399606,0.1901792679,-0.1057819191,0.9794497351,0.3876757814,0.3285653408,0.7422329262,0.510932477,0.8079116754,-0.7370089292,-0.2309362607,0.4969707728,0.7602177655,-0.8961120099,0.0838589866,0.4979145974,-0.6084563772,0.346890353,-0.1379641802,0.8593025101,0.6876041259,1.135018612,3.7345683402,0.5077042601,0.0377540957,0.4904569915,0.8783615244,0.9966178663,-0.1729515748,0.4423660545,-0.8343130705,0.3713819889,-0.9587347017,-5.8042104257,0.2991012618,0.7710975661,-34.4111415975,0.4098168987,-0.1093941686,-0.2666863381,0.3745195919,-0.407743073,0.8887934358,-9.7016863582,-9.6615522446,11.8820483034,34.0339267288,-234.1844858622,3.3390953959,66.0155803736,7.0353730132,-45.197895974,-279.5887532812,-2.9559543511,-24.1463605312,-37.1187767546,-0.4704182511,-4.260088918,-2.7242368988,-0.3795201669,0.7282419587,-0.6301300432,-0.0244372788,0.362488095,0.0270157979,0.3622262649,-0.9296785385,0.3155219521,-0.6409263655,0.6774161442,-0.8871479752,-0.9869938905,-0.0337478677,-0.0965031931,1.268929632,0.7200682871,-0.0687391299,-0.8600289737,-0.3023413879,0.869405623,0.6840595514,0.8246274612,0.8267854327,0.0215446462,-0.9552188541,-0.9287585,-0.3922706979,0.0887287459,-0.2495118737,0.5896517811,0.7770982852,0.833242235,0.009416541,0.5974468509,-0.5912050166,0.8303459986,0.544233707,0.8534775046,0.9022802126,-0.2542681623,-0.9901102015,-0.8930594049,0.2664240237,0.4285654611,0.674379259,-0.2448207614,-0.0686232738,-0.9038687616,0.5648880898,-0.5829807063,-0.0849478562,-0.4525790158,0.8972305864,-0.7512313108,0.5884966375,-0.9459298781,-0.5501933585,1.0369432451,-0.1311080442,0.1130649095,-0.2092470473,0.6274631829,0.0622851349,0.8938620745,-0.0795228983,-0.6324937733,0.1065062834,-0.3501641063,0.4205748147,-0.4923417402,-0.5672115463,0.8780641309,0.6787257359,0.3275888268,-0.5698487322,-0.3718104185,-0.2367893519,-0.258398548,-0.7135413998,-0.1963508894,1.3249779125,-0.0405416672,-9.0982404139,130.370644538,-192.9729716034,660.9995599968,14.8171110559,39.8206429768,2.3099032561,3.2955265939,-0.1820239943,-0.4810131485,0.700137284,-0.086551809,5.6656523785,7.9688034439,26.3068271921,28.8750318286,4.1239973314,-57.7878913226,-7.7942247549,-0.8260046167,0.6065930082,0.0402241568,1.4167591354,-0.7108787521,-0.7286926826,0.4642951625,0.7263213123,0.7755428129,-0.7257921798,-0.0616100919,0.3784866376,0.1734626516,0.8203374395,-0.033507631,0.231821107,-0.6775429013,0.7984901072,-0.5379170776,0.0979543383,-0.9269111424,-0.5085218668,-0.5139726608,-0.2495681137,0.593421192,0.6426093539,0.1758676862,-0.5781338158,0.4050189989,0.7238510371,0.6760718319,-0.2095823184,0.9101383939,-0.9759636829,0.6847184968,0.925571238,0.6971053272,-0.902113001,0.9872107645,-0.4162867834,-0.0210733001,0.3700310252,-0.0038432787,0.6299024215,-0.8092994159,-0.1406159771,-0.6832870867,0.0518803449,0.9759934462,-0.5623435004,-0.050763503,0.7800436351,0.6891041274,0.2795903506,-0.8099109448,0.0722886972,0.4629292599,-0.3480904578,0.4384833162,0.2013980352,0.9279855474,0.2202557428,0.4644591209,-0.0059410761,-0.8769042732,-0.5174435532,-0.7105252797,-1.7349715789,-0.8318783874,0.8450619162,0.9297513799,-0.4980742539,-0.4314312419,-1.9189576859,-1.4261463432,-1.6312650337,-0.7627229974,-2.0225377145,-0.7700080826,-2.6052257586,-2.1917625965,-1.5158057477,-0.8960580449,-0.5052715913,-0.6585615538,-1.3909866406,0.2805472337,0.7478832618,-0.1033672936,1.4564323333,0.3439419816,-0.385881088,0.6989915001,0.2633918097,-0.8104989233,0.3174746366,0.1779143849,0.3161887864,-0.779256575,-0.2878943422,-0.4242110447,0.4336091124,-0.1209754065,1.0658053541,0.8588477021,-0.080160325,-0.3523190986,-0.8375901855,-0.2174874414,-0.0668611254,0.4521841959,0.8264896197,1.2404751624,-0.4645508992,0.1640230328,1.2055192921,0.2964684623,1.0263412218,-0.2042097915,-0.3930931345,0.7585763987,0.10090415,1.5208595711,-1.0688606941,-0.8553692502,-1.0653019012,-1.4926061923,-0.87035473,0.1326754645,0.1403937475,-0.1635828624,-0.8898125156,-0.6134625299,-1.7166412404,0.3046687195,-0.2797731713,0.6023580459,0.379097509,-0.9444435798,0.6414571106,-0.193679863,0.9516197299,-9.3487080273,-12.5650881937,-1031.2059112328,14.4738431364,7.5673061603,14.4593153514,2.2546260287,1.7338651115,0.2577525036,-0.8949175876,-6.4907931006,-0.0316856947,-0.7692063131,-0.5132934423,0.6826577342,-0.6530700887,-0.6815678871,0.8895247022,0.0699359982,1.1866285489,-0.7820643554,0.6069286216,0.3357221682,-0.1339054615,0.0808547227,0.2143329346,-0.4670982367,0.6798989502,-0.6311590433,0.2723366413,0.6855656246,0.453586734,-0.1007913544,0.9081196744,-0.6187853408,0.7587037038,-0.2572353919,0.9416373232,-0.8211834862,-0.4017712255,-0.1580078611,-0.2218268878,0.6435596533,-0.895110086,-0.0773939133,0.2655916708,0.2355674977,0.6985443765,0.8814544644,-0.6417771155,-0.5895059355,0.4493490219,0.1294589826,-0.7171289845,0.5550807571,-0.654788103,0.0011311047,0.7157571811,0.5895146893,-0.0924981534,0.6668167403,-0.2734081901,-0.9775134154,-0.4009415701,-0.1128663548,-0.3269925084,0.7263721393,-0.711516693,0.5434401533,-0.8492425124,0.599832033,-0.4288812044,-0.8197402372,0.4813125482,0.8329531494,-0.8685160008,-0.6817132142,0.2944997659,0.0599181432,-0.1200214295,0.8405215746,0.8197893002,-0.3801116837,-0.5788494998,0.6473355157,-0.4659745416,0.0753658231,0.1018946989,-0.6716398497,0.6057076456,0.8786228327,-0.941569962,0.7946699801,0.0377246742,0.1207671551,0.1722930432,-0.9279045176,0.2609532904,-0.6498933592,0.7647400532,-0.435861612,-0.861689587,0.5161371901,0.6567699643,-0.0006230509,0.4269750093,-1.291633999,-0.2454432602,-1.8772952812,-1.1235176242,-3.1863756296,-1.4205255744,-4.08947208,-0.6491363239,-1.1273690466,0.0964581083,6.5719636538,24.8649542887,-0.7779283137,0.9857766778,-0.8438263166,0.3842932761,0.9038075503,0.8899210295,0.1213726353,0.0052496485,-0.0700913831,-0.1377055479,-0.9661240754,-0.0478463622,-0.6033380042,-0.2550848812,0.5495268349,-0.805808879,-0.4719055487,0.6313865116,0.1717063823,0.0388178091,0.439078553,-0.3992784857,0.9809264401,1.0114917197,-0.5753797926,0.1101320685,-0.4575566023,0.7569161296,0.5674972117,0.5565380379,-0.6020767568,0.7053206923,0.6041911043,-0.925362051,-0.8931184327,-0.8575473306,0.0356350026,0.6537652797,-0.0577227001,0.7007662856,0.050879584,0.2147047384,0.5818012343,0.5505233516,0.5796988604,0.1347056587,-0.9523107744,-0.2384870253,0.2517243012,0.2167416911,-0.5455448497,-0.7836302659,-0.4217550569,0.3632031148,-0.0464540098,-0.487497731,-0.5088301251,-0.2831356462,-0.7762653339,0.1187211547,0.2791992444,0.219433099,-0.3747562091,-0.4726209996,0.5475450821,-0.3990442602,0.8571191735,-0.8682305915,0.4149643819,0.7897941035,-0.5195022628,-0.7342748288,-0.4211231014,0.2032254994,-0.3193940946,1.1081024988,0.7690329122,0.1537949327,0.4402414479,-0.3036021616,-0.7270771744,0.4348398112,-0.8642374877,0.429097397,0.3587428183,0.627805249,0.4474517156,-0.7198894013,0.0377055741,0.5803074887,-0.1633871543,0.0320407045,-0.640737465,0.3518490208,0.1693540756,-0.1519435473,-0.2627756522,-0.2587427444,-0.3948287783,-0.0359650154,0.3900919866,0.8851621348,0.2813313739,-0.232128278,0.4391978584,-0.0214982555,-0.8764895929,0.0823430499,0.6760400921,-0.4046403047,-0.0832553476,0.1554760583,0.1068131267,-0.5946784586,-0.3619149257,0.4745501404,-0.2646864361,0.5823749525,0.2673156426,0.5005239707,0.1278305446,-0.9396496514,0.8151447559,0.5451625544,-0.6628387429,0.3688277044,0.0594433504,0.204921573,0.3444665184,-0.1930517331,-0.3633174864,0.1900033237,0.8853578413,0.2173302122,0.0863795531,-0.8656479383,0.7524362388,-0.6809718511,-0.2709322372,-0.016794413,-0.0768868102,-0.8388130776,-84.2608352316,-86.8927440792,565.9748415836,16.8947114736,-5.1879090455,-3.9312062373,1.3716996931,0.7014417755,1.1505078794,-2.7696258634,-8.4644318631,-7.8303822108,0.5511988145,-1.1369258087,-1.035564775,-1.6841200303,0.8914938866,0.0726522008,-2.686770931,0.8654985276,0.7627605056,-0.0343679167,0.1155551632,-0.9802585892,-0.7586767343,-0.0492490092,0.8906504958,-0.4409060065,-0.6987970057,-0.6930292695,-0.2341693588,-0.0385025756,-0.0675120504,0.1785348952,0.593283203,-0.6830169434,-0.7899480632,0.3927945316,0.2445806255,0.7608510313,-0.0039561161,0.6244536233,-0.5596139441,-0.3570108458,-0.6369690548,-0.8882894544,-0.1189093346,-0.7604522336,1.0215620845,-0.692966345,-0.4764987165,0.3593579189,-0.8616885025,-0.7807136573,-0.662697303,0.7459011738,0.8350484217,-0.7587366018,-0.9794283627,-0.2417777736,-0.1407240063,-0.1265030025,-0.5514681786,0.4968699346,-0.4171374448,-0.8971303119,-0.5648465301,0.1155705809,0.4067620666,-0.7515317458,0.3980592103,0.4437916596,-0.9465273577,0.3823717842,-0.667954674,0.3505988293,-0.8570717045,0.4011118812,0.9606962396,-0.7833501614,-0.2333093687,-0.1907024975,0.2906835647,-1.1033807454,0.13913358,0.4160427912,0.1534241198,-0.6175848008,-0.0936088582,-0.1228578378,0.7757784756,-0.2952387039,-0.3751369999,-0.827490309,-0.4751047137,0.1258174175,-0.9123103646,-0.9498031605,0.2416123524,1.0580913969,0.4868991822,1.0388863168,-0.0419956276,-0.6224845262,0.6131555971,0.6132639628,-0.5525062998,4.492153749,-2.6807047769,-7.7386430175,-2.3155138342,-0.8753749003,1.7785879664,-2.5784372778,99.0307266542,14.6603911274,11.633817824,20.8952551814,-0.8294515647,-0.7397430429,-0.8703704136,-0.5788358899,0.6792917979,0.6978092495,-0.2115673323,0.8072973648,-0.9126007241,-2.3738412166,-5.1215349381,-3.6795423082,-7.195679424,-1.448177481,-1.0537045712,-2.2815912992,-2.4520811329,-1.4219653262,-1.7389628828,-0.4962025896,1.7224095894,1.4396231815,-0.8975151496,0.5000175471,-1.7057379601,-2.1303243985,-1.1524776207,-0.7106504231,-0.1677232456,-0.8674167032,-1.1204480188,5.4016388019,0.6317934808,4.1866453417,3.1898108119,-0.1820095825,0.8792192586,-0.2929159655,0.2608375302,0.2957528737,0.2835314643,1.3058892987,1.3164731387,0.7651100006,-0.6186482222,0.3188970452,-0.4682462349,-0.8902805166,-0.7786921673,0.1101855532,-0.799342206,-0.071406112,-1.6650235288,-1.2094229632,-0.3510497948,0.1220363502,2.042249709,0.4060042355,-0.8785667251,-0.9237500059,-0.4116341011,0.6481880272,-0.2345874015,1.2727897477,2.0660634827,15.4630786935,4.6826918703,0.3777119017,0.1558861108,0.2726697258,-1.5381748163,-0.6345277773,0.4218148223,-21.7498368051,-10.0143732914,-64.9344672435,-17.3956820502,-5.6909616723,-1.0859558607,6.767081425,-2.2267086325,-2.5929144108,-0.8932585993,0.8576689406,-0.233754222,-0.5929578464,3.4104483999,-0.6812523335,-1.1296190935,-0.4404381796,-0.8746530847,-1.050488032,-1.154301024,-1.2553468372,-0.7008892047,-0.3771061102,-1.0338801253,0.8398211191,-1.1342160488,0.2309872999,0.6959278082,0.4044328889,-0.2287300806,0.8269147766,0.8245838224,-1.5368445836,-0.8085829899,-1.5491545239,-0.1442682023,-0.7292761063,-0.5536134734,0.0482865707,-0.8905604593,-1.1716284255,-0.8689676438,0.2940664089,0.8712811385,-0.6392099833,4.6689534887,4.2391476264,-0.4266672774,-0.4319905225,-0.2162134911,8.8509126457,10.130313004,0.0107944396,-1.4281262284,-0.9821916138,2.0491632194,-0.8713158162,-4.9831793817,-8.7575321972,-3.1476048407,-20.3127918955,-17.7871286763,-8.9396871588,0.0433506885,0.3684483111,-0.161094876,0.5023504964,-0.9075624131,0.1987274589,1.0376590986,-3.2331053964,5.9596185717,1.2430211649,-6.069706085,-8.6872041918,-10.8918363674,-4.0932857732,-3.9804145986,-3.338260603,-0.6857410986,-2.1252961905,-1.632027706,-2.5028796951,-24.2152578176,-81.137781481,-41.9668532456,-23.1126114605,-4.0812360285,-9.6065143608,-0.8131388127,-1.6655307626,-0.5459747239,-2.1245394412,-7.4976612432,40.9339470773,6.9309483702,43.5419906853,-18.4741008351,-43.9260866744,-30.0834180896,-12.2158141794,-6.8270407987,-2.3033537676,-2.3364441617,-1.9641048945,-0.8980326443,0.1515088635,-1.1740090421,-0.4546519489,1.7549883361,5.7351317217,10.6523123733,8.2204870316,13.6629087452,14.1086619468,10.3967350642,4.6017599775,5.1170823045,1.8019967209,1.1087243224,-0.2717838135,-0.3833854267,0.8531035436,0.4769322241,0.3886558572,-0.3241098162,-1.5156271913,0.1448108933,-0.2190957419,-1.4033485754,-1.5283162998,1.4162594599,0.1719968759,-0.2422851046,-1.6213076583,-0.1647987625,-1.612592751,0.0038074131,-0.9582653174,-0.7910445093,-0.2309450542,0.1228120271,-0.7295723705,-1.0859353693,-0.2339129512,-0.9736084005,0.3449677277,0.0073726625,-0.7835756423,-1.0790345249,-0.3758930297,1.2391138981,0.4169675449,-0.7845165009,-1.3588780187,-1.2900500843,-1.9168613878,-2.200046278,-2.0506778988,-1.4169760325,-0.2053369129,-0.1864029778,-0.460454718,0.0664627942,1.0700773384,-0.138241786,-0.741149422,1.0568373302,1.1108313994,2.4368118008,3.6641459569,7.0363253257,11.4127463282,10.6446499999,-22.0093863184,3.2958457784,19.7013152301,1.8001024053,0.6540008438,1.029353703,-1.3115753898,0.0246180253,3.7206402297,5.6926642954,-3.5696555183,-10.012492173,-10.2226996433,-0.6467256278,-0.5401720309,0.306331772,-0.5886243428,-1.6701091808,-1.1573193881,-0.0318807395,-0.1900731819,0.3669923563,-0.4555846706,0.0874261515,0.8582395153,0.8647085436,0.8068342509,0.0941381391,0.8446442129,1.263331307,-0.0632938248,-0.2551930201,-0.1750640052,-0.9904472364,0.3723691863,-0.003636886,-0.93692555,-0.8489310248,0.544586721,-0.7962168287,0.2854282096,0.0947981933,-0.327910778,-0.3957662778,-0.7256089289,-0.9116841555,0.1964329411,0.7529879369,0.585973025,0.2574179803,1.0225541255,1.3606795333,0.9476367994,1.6804324874,0.4114339253,1.5881375633,0.829777576,1.4976922871,1.6723507033,0.5067382793,-0.979700521,-1.0188073375,0.8190795822,0.4956714141,0.3919855178,0.1298083156,0.3034798068,-0.2857222527,0.4802347262,-0.3815284552,0.5671744036,-0.6623367123,-0.726947955,0.7670744038,-0.799472631,-0.1196788308,-1.0749391134,0.1467075001,-0.4888720241,-0.879121983,-0.9246279483,0.5548547798,-0.059055377,-0.6182710192,0.2019330703,-0.9694309356,0.195338196,0.2192327248,-1.1259891815,-0.2996839591,0.9601188766,0.8701277899,2.0682633857,-0.6718627288,-0.4955686316,0.3171841182,-0.147159703,1.2647792263,-0.0050779383,-0.784274653,-0.0470839698,0.5522122968,0.8496034455,-0.2944824184,0.3458527611,-0.5953113283,0.1110905373,-0.1452280832,0.6179544633,-0.0009449636,0.792494987,0.3188692197,0.8290607386,1.0050958456,0.1566879323,-0.2449308354,0.8082299461,-0.5472445671,-0.220722006,0.3649376745,0.5368286408,-0.1634706633,0.3928114319,0.3295051937,0.1287154088,-0.2779950599,-0.4641661372,0.8548216969,0.1602282005,-0.1039399799,-0.1850577179,-0.6103964316,-0.9283829166,-0.82887931,0.6110595703,0.0310147144,-1.1265178702,-1.2106625255,-1.3302674997,-0.1156248845,-0.660183476,1.5064141707,2.5231685548,-0.1000004655,-0.5914364293,-0.2621916408,-0.5860640022,0.671289118,-1.4048155984,0.7414549908,-0.6049540834,-0.2096343666,0.3128054825,0.4358464456,-0.6202921896,369.1479928617,470.4619364633,-742.0535654676,239.5432578858,-35.2678306891,-1.2930597561,-0.0631831612,-1.1252104447,0.3463424427,-5.7042609365,-3.2830252121,-2.4276511784,-0.5244070582,-0.9680165333,1.1135055844,2.4614200844,0.7387753788,1.105717062,1.0346424425,0.3590405944,1.8120949571,0.0715119159,0.4676228603,0.359730156,0.1087093641,-0.508310659,0.2628091078,-0.3604889323,0.3545990727,0.871686869,-0.7680037102,0.905814934,-0.2777850057,0.5853865163,0.0580745365,0.0498836375,0.7853103383,0.3698647224,-0.1555231702,-0.2746463238,-0.2299771717,-0.8747418962,-0.5505156381,0.5956923915,-0.2933990129,0.4373593937,0.619449545,-0.4249682046,1.0173752743,-0.367167135,0.933346195,-0.4661243992,0.6274067419,1.0096064472,0.9007980971,0.9707092572,1.07417581,0.918568988,0.7900445232,0.4206806759,0.7798782355,-0.4227132802,0.6180818635,-0.5021487056,-0.261766075,1.0253982932,0.9278828523,1.1516382185,0.4571227864,-0.5356597678,0.0293899801,0.4557142364,1.3980135292,1.0826539286,0.9718715331,0.88321274,-0.4600323021,-0.1578048092,-0.4987337748,-0.9836466618,-0.543122906,-1.0592820625,0.2472667038,-0.6490309492,0.4869970208,-0.6482294574,0.2761991312,-0.3659345585,0.1412826933,0.2448527286,0.2887075105,0.6776336155,-0.7664428461,-0.2152229035,0.5802761322,0.1308996612,-0.9905241646,0.3760720456,0.0216141681,-0.804570084,0.8803816762,0.4017666728,0.3565972628,-0.5504589503,-0.113446982,1.0943525687,-0.053235156,4.775417087,4.0815799058,2.3278487403,20.7143667203,644.417686923,-149.1240965012,-414.4281337281,-116.9463761296,417.5660319055,227.593788662,126.6777052092,-0.9913350468,-0.0904366419,0.1391980504,-0.011267732,-0.4277105165,-0.7527919795,-1.0098295813,0.3497530857,0.714185508,-1.6942685372,-1.0239459226,-0.6379589316,-0.0208148367,-1.3155882456,-0.3852173535,0.3923229042,-0.6993118418,-0.6405180613,3.1645987472,10.710118991,12.2129476828,4.4179620512,0.203677112,0.3434009987,-0.7517677241,-1.617261494,-0.0926710174,-0.0181480001,-1.5805046445,-0.9967803211,-1.3428406766,-0.8910893311,-1.5817326377,-1.7888002996,0.0043540195,-0.7412716814,-1.1458863808,0.4928849712,0.5105692061,-0.5889078118,0.6520959995,-1.0556025,-0.2663944736,-0.323600446,-0.0594726174,-0.6305968083,-0.9810542369,-1.3206456041,-1.4361519574,-1.2389204604,-0.6066769699,-2.114288229,-0.4629781068,-0.5127627724,-0.9205563555,-0.494727867,-0.1840236655,-0.4536288351,-0.7654115044,-0.3493633542,0.2792739631,0.3017508345,-0.0868466377,-0.3762984907,-0.1503683561,-0.280098098,-1.0245015814,-1.5199647354,0.4164720099,-0.3588044464,-1.5316956884,0.0608343478,4.9055862738,-2.2648406473,-4.2919530369,-0.8644119557,-1.6832654381,-1.3601748152,-2.0139180503,-1.4630098819,-0.7632686195,-0.4981344367,0.2524521933,7.565107838,8.1566391839,9.2377300681,3.14427695,0.7930915829,-0.3406071735,-0.3622306656,3.0005885778,2.0175102997,1.563805622,-0.9559702012,0.3193443503,0.0739906747,-0.2206684822,-0.9000650401,-0.859366845,-0.0569137196,0.2582433774,-1.3867857742,-0.8474137973,-0.5222443396,-1.3496726532,-0.5280990352,-1.5661131312,-0.8049216036,-1.1308385826,-1.165715289,-2.1755969922,-2.3389880473,-2.2439550293,-1.0418560072,-0.0131991608,-0.3359140234,-0.063972328,-0.0418121443,11.5076054071,5.5085159223,17.7708206902,7.2315853545,6.1689176715,0.9146737063,0.7418516621,0.7326081885,0.6977021219,-0.6015898849,0.2755555064,0.2607124348,0.2123253254,0.5142771347,0.9769265579,0.8429905221,1.6294078909,5.1795156871,0.4333558109,-0.4944544745,-0.4363701493,0.0970619167,0.1353104361,0.483148302,2.9774152105,3.2879575919,143.0590617202,-85.8183407609,-55.3738583905,-38.2163066778,-5.5256070915,-1.7100278255,-1.7784160825,-0.0493870413,-2.9266508662,-4.5276440835,-1.563214862,-0.5607453593,0.7801859366,0.9085195482,0.7130929642,3.4828134177,0.7112279014,0.9190765668,-0.405780548,0.0284559246,0.0508396385,-0.0072329944,0.0236665308,-0.6768522759,-0.1887184598,0.1901828047,-0.1759772741,0.3555279727,-1.1090730197,-1.2103378549,-0.7621864642,-0.753451152,-0.8684062432,-0.9697409133,0.1640373683,-0.5970642797,-1.2999770146,0.2984271173,-0.0301215162,0.082219135,-0.1649769108,-1.3467050617,-1.9470761547,-2.2440535189,-1.55667158,-1.9013766975,-0.747018284,-1.3559324582,-1.3099141178,-0.7533228662,-1.1629704754,-2.0035277603,-0.3443108561,-0.643409652,0.2468320438,0.1721992919,-1.2028313893,0.3317952404,-0.8570298083,-0.4602037207,-0.8951168316,0.6366563026,-0.1587889778,-0.3750535286,-0.33607673,1.149170006,0.4629761749,5.6722509114,5.15346873,4.1607536151,3.265247372,3.370298829,3.2188145876,0.3967241202,0.4086962924,-0.2516058468,-0.6589521133,-0.0452167041,0.0842773933,0.6066426549,0.1859648842,-0.0985329119,-3.7868907389,-4.7670405277,-7.748940458,-7.3180995416,-6.7506625348,-7.2094432583,-9.2706108888,-8.6272517032,-4.6799326642,-1.7122503075,-1.0264017846,0.2830560309,-0.3114575102,-1.352003566,-0.1500691924,1.350056641,2.0281423556,2.6123928954,1.8446982779,1.5061230201,10.341533296,-0.5881432879
